tree
version=v4
num_class=1
num_tree_per_iteration=1
label_index=0
max_feature_idx=57
objective=binary sigmoid:1
feature_names=ret_1 intraday_return gap_open daily_range close_position upper_shadow lower_shadow body mom_3 mom_5 mom_10 mom_20 mom_60 volatility_5 volatility_10 volatility_20 amplitude_5 amplitude_20 close_ma5_bias close_ma20_bias ma5_over_ma20 ma20_over_ma60 max_ret_20 min_ret_20 drawdown_20 up_from_low20 volume_ratio_5 volume_ratio_20 volume_z20 amount_ratio_5 amount_ratio_20 amount_z20 turnover_ratio_5 turnover_ratio_20 turnover_z20 illiquidity_20 amount volume turnover score_v03a_like rank_v03a_like amount_extreme turnover_extreme cs_rank_mom_5 cs_rank_mom_20 cs_rank_mom_60 cs_rank_volatility_10 cs_rank_volatility_20 cs_rank_daily_range cs_rank_close_position cs_rank_upper_shadow cs_rank_lower_shadow cs_rank_amount_ratio_20 cs_rank_turnover_ratio_20 cs_rank_amount_z20 cs_rank_turnover_z20 cs_rank_illiquidity_20 cs_rank_score_v03a_like
feature_infos=[-0.10250568389892578:0.10286462306976318] [-0.18138009309768677:0.22243201732635498] [-0.10250568389892578:0.10236215591430664] [0:0.22799098491668701] [0:1] [0:0.20650625228881836] [0:0.22201836109161377] [-0.18138009309768677:0.22243201732635498] [-0.27352941036224365:0.33589625358581543] [-0.41190475225448608:0.6193544864654541] [-0.61009734869003296:1.6014761924743652] [-0.73067855834960938:3.8966431617736816] [-0.85675442218780518:6.5486545562744141] [0:0.10982079803943634] [0.000108899395854678:0.10541785508394241] [0.0015487258788198233:1.0968365669250488] [0:0.17606516182422638] [0.0022847414948046207:0.13970230519771576] [-0.20038847625255585:0.20117522776126862] [-0.55371952056884766:1.064333438873291] [-0.49747908115386963:0.72155296802520752] [-0.66577529907226562:1.095151424407959] [0.0025380849838256836:4.8855443000793457] [-0.10696893930435181:0.043165445327758789] [-0.70077139139175415:0] [0:3.8837003707885742] [0.0050725117325782776:4.8362140655517578] [0.0015610329573974013:12.410862922668457] [-3.2242491245269775:4.2409944534301758] [0.0033196012955158949:4.8201794624328613] [0.0011106305755674839:14.561261177062988] [-3.0601141452789307:4.2430672645568848] [0.0040999613702297211:4.8362140655517578] [0.001270779874175787:12.410862922668457] [-3.2242491245269775:4.2411799430847168] [0.00011887634173035622:21.885005950927734] [118296:26491205632] [11759:3607390976] [2.3525963115389459e-05:0.77306699752807617] [0.026994010433554649:0.99656200408935547] [0.00033818060182966292:1] [1.3882948906029924e-06:1.5] [9.6820804174058139e-06:1.5] [0.00033783784601837397:1] [0.00033795202034525573:1] [0.00033852402702905238:1] [0.00033806625287979841:1] [0.00033806625287979841:1] [0.00034246576251462102:1] [0.00053097342606633902:0.99830794334411621] [0.008605550043284893:1] [0.0057529611513018608:1] [0.00033818060182966292:1] [0.00033818060182966292:1] [0.00033818060182966292:1] [0.00033818060182966292:1] [0.00033818060182966292:1] [0.00033818060182966292:1]
tree_sizes=6858 7201 7196 7173 7183 7199 7192 7189 7197 7201 7179 7201 7224 7208 7215 7221 7203 7208 7219 7217 7190 7208 7216 7208 7221 7182 7204 7220 7202 7225 7230 7214 7225 7226 7233 7227 7202 7222 7220 7234 7260 7248 7213 7195 7221 7212 7224 7227 7249 7228 7198 7259 7257 7203 7210 7262 7223 7224 7235 7228 7235 7200 7225 7208 7243 7240 7236 7230 7236 7246 7239 7222 7259 7227 7246 7240 7256 7214 7236 7266 7210 7256 7233 7253 7253 7225 7217 7260 7189 7238 7263 7248 7279 7216 7200 7293 7285 7215 7237 7206 7233 7208 7290 7224 7222 7239 7193 7226 7290 7230 7260 7230 7234 7272 7297 7251 7242 7207 7237 7218 7223 7305 7247 7256 7233 7289 7244 7261 7293 7251 7237 7228 7216 7227 7229 7187 7245 7246 7255 7235 7268 7249 7234 7217 7285 7250 7183 7242 7287 7222 7266 7226 7237 7250 7269 7262 7265 7246 7228 7220 7235 7199 7266 7231 7293 7276 7244 7300 7266 7294 7258 7265 7218 7298

Tree=0
num_leaves=63
num_cat=0
split_feature=16 16 23 16 47 12 15 16 47 15 23 3 11 16 16 16 47 47 23 3 10 21 14 47 16 16 15 15 15 47 47 47 47 16 21 21 15 45 46 23 33 3 56 15 54 44 47 47 30 21 30 52 21 15 33 12 43 9 11 45 15 15
split_gain=202290 32262.4 31242 17026.1 5883.67 5661.83 4167.62 2965.42 2897.76 2608.22 2603.58 2207.02 1996.67 1684.82 1553.69 1545.73 1469.29 1435.44 1197.03 1156.54 1149.41 1220.63 1088.19 1074.47 1055.61 1037.24 1028.92 1011.61 907.607 1321.45 1290.79 904.745 864.642 862.715 817.244 752.197 719.359 700.969 643.445 638.459 635.562 729.318 625.688 621.999 606.017 598.017 585.602 570.281 547.537 546.726 527.836 491.988 487.913 484.478 481.25 471.017 456.616 640.902 453.298 449.575 445.871 438.539
threshold=0.029008316807448867 0.021236347965896133 -0.085479736328124986 0.040247332304716117 0.028482243418693546 -0.21553972363471982 0.016321280971169475 0.053858220577239997 0.71085232496261608 0.014333167579025032 -0.081250041723251329 0.029520332813262943 -0.16066488623619077 0.025723350234329704 0.041287492960691459 0.05715222284197808 0.3912301659584046 0.23772720247507098 -0.054713457822799676 0.030889332294464115 -0.011952549219131468 0.0024993004044517879 0.032576620578765876 0.33321572840213781 0.034677434712648399 0.016972350887954239 0.0094830943271517771 0.02131723985075951 0.012986270710825922 0.19459194689989093 0.17979659885168078 0.54897418618202221 0.28426593542099005 0.017704606056213382 -0.083053685724735246 0.091938503086566939 0.034259481355547912 0.33617173135280615 0.73039567470550548 -0.065763413906097398 0.6600884497165681 1.0000000180025095e-35 0.65856322646141063 0.029993372038006786 0.27084481716156011 0.14227572828531268 0.013515855651348831 0.62936702370643627 0.55606308579444896 -0.099568277597427354 1.4633224606513979 0.80459943413734447 -0.14409897476434705 0.0080007617361843603 1.0279627442359927 -0.099329024553298936 0.073899406939744963 -0.12422144412994383 0.013739109039306642 0.44239109754562383 0.018473334610462192 0.031347095966339118
decision_type=2 2 2 2 2 2 2 2 2 2 2 2 2 2 2 2 2 2 2 2 2 2 2 2 2 2 2 2 2 2 2 2 2 2 2 2 2 2 2 2 2 2 2 2 2 2 2 2 2 2 2 2 2 2 2 2 2 2 2 2 2 2
left_child=1 4 5 11 25 15 16 19 22 20 31 27 45 23 -10 52 28 18 -11 -5 26 53 58 39 60 46 -6 55 29 -3 50 -8 33 -28 -21 -36 -16 -23 -24 -12 41 -19 -32 -14 -43 -9 -1 -45 -25 -38 -30 -52 -2 -22 -55 -4 -51 -58 -7 -57 -13 -40
right_child=2 6 3 7 9 8 10 12 14 17 13 24 43 -15 36 -17 -18 40 -20 34 21 37 38 48 -26 -27 32 -29 30 -31 42 -33 -34 -35 35 -37 49 -39 61 -41 -42 44 -44 47 -46 -47 -48 -49 -50 56 51 -53 -54 54 -56 59 57 -59 -60 -61 -62 -63
leaf_value=0.95400932837785457 1.0650281055020381 1.009114009197013 1.0278447594498152 1.0336565585759105 0.96136780478092154 1.0464551731043568 1.0461136440258452 1.0535775210551974 1.0378052868117755 1.0202713392057179 1.0329756483818324 1.0253845874337888 1.0400824176796868 1.0216992313969693 1.0325162811611532 1.0726957874162941 0.9930499075176874 1.0497487405643495 0.98432056584699956 1.0472390299435925 0.96971601121141093 0.9576850800838993 1.0681990895359608 1.0098872014808418 1.0355840674904639 0.98485175595236274 0.97963797404590713 1.0291809323933965 1.0016938517933778 0.98784474115559906 1.0211440242435275 1.0269086167224875 0.96392304381934868 0.99621212693051886 1.0382299657740111 1.0445612452678386 1.061624691213463 0.98646785871109632 1.0283931566854285 1.0023879682235619 1.0087721490985426 1.0032753431816561 1.0049130544631937 1.0535736840713597 0.98958484190968055 1.0716912236230898 0.97235018556332986 1.0448296872478835 1.0186810822967944 1.0451890332846403 1.0499305221112578 1.0101550637181149 1.0518101028276103 0.99500562843292095 1.0066878113336961 1.0129423180873498 1.0695917622350419 1.0503486669243161 1.0601435272347746 1.0224719285435373 1.0315037948392074 1.0579575527674934
leaf_weight=4876.0308304727077 6056.5903584063053 15472.981789261103 12470.350895285606 39100.250428527594 2523.0466967821121 7775.2294764518738 4888.4271185994148 5368.0113048255444 15765.458356291056 1305.8790611624718 894.08747097849846 20067.189028382301 32549.355176627636 58425.401152551174 2920.1175790727139 20101.085270404816 6986.511117964983 341.09359654784203 8863.7849222421646 18726.057772696018 706.59253308176994 1211.356828391552 15691.661222368479 12620.269407957792 83485.224094539881 3478.1475002169609 7499.4105406701565 61117.154476195574 10861.148424625397 4665.6800645887852 18739.810057282448 7788.981713116169 2050.0480741560459 8001.8504957854748 117455.12465074658 28603.245088458061 4851.6254276633263 7611.9462398886681 725.76814731955528 12355.103518128395 16883.648838430643 10792.581066131592 3448.8998272120953 9907.5971043109894 6316.33290335536 3853.3310543298721 3926.3534071445465 120097.29261514544 27938.296666800976 22276.646506488323 543.89029908180237 1255.3251581788063 7950.1343705654144 11780.997112929821 6898.9618147015572 8523.6597567796707 2193.9620444774628 66492.332370251417 4816.3732755184174 21157.681344211102 53449.037262737751 3923.8353521823883
leaf_count=19286 7839 41024 27441 79156 9499 13782 8888 8240 30438 3191 1937 45191 59045 136672 5941 20423 21220 498 28927 31902 2539 4673 18932 33055 165791 11279 25086 131598 31063 14796 43784 17303 7621 23596 222316 49388 6433 24263 1516 35043 44765 30160 9489 15325 19641 4065 13858 197903 67153 37217 900 3297 12785 35243 18730 21807 2346 101401 6778 49120 111947 5666
internal_value=1.03188 1.00687 1.04081 1.03716 0.991356 1.05362 1.0156 1.04192 1.05065 0.994372 1.01928 1.03028 1.04531 1.01758 1.04801 1.06647 1.00818 1.00049 0.98893 1.03907 0.988735 0.993303 1.0598 1.01311 1.03289 0.968583 0.982321 1.0263 1.0101 1.00418 1.01352 1.03431 0.985342 0.988186 1.04035 1.03947 1.04964 0.982496 1.06481 1.00445 1.00392 0.999226 1.01862 1.04441 0.998215 1.06116 0.962171 1.0455 1.01594 1.05016 1.0046 1.0222 1.05753 0.998228 0.999315 1.02213 1.04955 1.05096 1.0517 1.01973 1.02983 1.05334
internal_weight=1.10942e+06 291953 817471 635931 105068 181541 186885 375660 147433 92787.5 124911 260270 171776 112233 114500 34107.8 61974.2 44503.3 10169.7 203885 48284.2 28209.9 32932.9 53807.8 157001 12280.5 20074.4 103269 54987.7 20138.7 34849.1 12677.4 17551.3 15501.3 164784 146058 98734.7 8823.3 20341.3 13249.2 34333.7 17450 22188.7 162554 17108.9 9221.34 8802.38 130005 40558.6 95814.6 12660.4 1799.22 14006.7 19386.6 18680 42151.7 90962.9 68686.3 12591.6 29681.3 73516.2 4649.6
internal_count=2280211 788479 1491732 1220235 322855 271497 465624 667340 230450 278432 300051 552895 284578 273860 183776 41047 165573 127182 32118 382762 151250 85448 46674 137188 322929 44423 65802 229966 144353 55820 88533 26191 56303 48682 303606 271704 153338 28936 26114 36980 95064 50299 53273 272273 49801 12305 33144 213228 100208 147397 35260 4197 20624 56512 53973 98368 140964 103747 20560 70927 157138 7182
is_linear=0
shrinkage=1


Tree=1
num_leaves=63
num_cat=0
split_feature=16 17 17 12 16 16 17 17 16 35 25 27 10 19 27 35 25 3 19 25 14 46 35 11 15 12 27 46 56 35 35 14 27 42 35 25 21 52 56 35 35 56 17 16 17 35 35 35 44 56 35 16 35 56 56 56 35 25 17 48 15 56
split_gain=187210 32062.3 26622.4 10135.3 5499.16 5470.85 5416.99 5062.06 4190.2 2638.31 2562.28 2369.37 2099.44 2052.73 1723.32 1714.45 1591.9 1283.8 1144.55 1093.56 1034.93 3266.91 1006.16 876.956 862.419 838.826 832.077 783.63 783.279 992.696 775.103 772.44 749.612 739.593 736.646 730.506 727.997 727.192 647.588 1026.17 644.012 890.864 620.312 619.168 615.447 590.574 586.725 578.042 557.635 536.987 763.999 529.956 529.123 542.547 527.479 504.623 590.556 492.414 488.437 485.001 473.353 470.859
threshold=0.028296982869505886 0.039927730336785323 0.023325049318373207 -0.21553972363471982 0.049068832769989974 0.02239713724702597 0.017450621351599697 0.031137558631598953 0.062320102006196983 0.026568906381726268 0.093297004699707045 0.88934808969497692 -0.13925802707672116 -0.12131542712450026 0.72576329112052929 0.027332491241395477 0.02482092380523682 0.029204607009887699 -0.088171470910310731 0.16230055689811709 0.046713773161172874 0.85278859734535228 0.018747463822364811 -0.10499608516693114 0.037614660337567336 -0.16716128587722776 1.4403341412544253 0.82510218024253856 0.65856322646141063 0.044665841385722167 0.019097531214356426 0.040679806843400008 0.57655689120292675 0.84460180997848522 0.017374013550579551 0.035865683108568198 0.0012271412415429952 0.74425145983695995 0.56055530905723583 0.033687036484479911 0.013556796591728927 0.44810034334659582 0.052658999338746078 0.044689701870083816 0.013948836829513313 0.0041117030195891866 0.029246000573039058 0.01441352302208543 0.37281452119350439 0.45460882782936102 0.013839976862072946 0.040052533149719245 0.076466359198093428 0.78107348084449779 0.650987207889557 0.43483842909336096 0.013839976862072946 0.012738841120153667 0.028600126504898075 0.47719058394432073 0.02493302617222071 0.79571956396102916
decision_type=2 2 2 2 2 2 2 2 2 2 2 2 2 2 2 2 2 2 2 2 2 2 2 2 2 2 2 2 2 2 2 2 2 2 2 2 2 2 2 2 2 2 2 2 2 2 2 2 2 2 2 2 2 2 2 2 2 2 2 2 2 2
left_child=2 7 6 8 10 15 16 12 19 25 34 18 60 -9 30 33 44 46 -8 43 42 -22 55 -10 47 -7 -13 31 -11 61 -15 -26 -20 -4 51 49 45 -28 -24 -40 -37 -42 -6 -3 48 -18 -14 -12 57 50 -27 -5 53 -41 -48 56 -16 -1 -35 -19 -2 -30
right_child=1 3 5 4 20 9 11 13 23 28 24 26 17 14 22 -17 36 59 32 -21 21 -23 38 -25 27 35 37 -29 29 -31 -32 -33 -34 58 -36 40 -38 -39 39 52 41 -43 -44 -45 -46 -47 54 -49 -50 -51 -52 -53 -54 -55 -56 -57 -58 -59 -60 -61 -62 -63
leaf_value=-0.074991026152205362 0.00098970323633781627 0.010855294708651677 -0.02567229243579261 -0.0034266887435774481 0.010890505582337718 -0.0079432093855006155 0.030111053608418037 0.022997287600398843 0.041948359528644355 0.0014764998273342643 0.0052627221219618357 -0.031185734724522695 -0.016381496121262173 -0.0087671945593415825 3.9741240548031815e-05 -0.016486095867232098 -0.057457699713999714 0.00094344241029796711 -0.052669147683535436 0.029965568213694491 0.035015812506277208 0.015357263728859909 0.011560662196561149 0.024846531272219238 0.016140017483529698 -0.023033285962780644 0.011714727535906067 0.0082784730624714618 -0.010742413379611704 4.5839769054047739e-05 0.00013862635225027112 0.032737312948496057 -0.039216284009249119 -0.041076693391336558 0.0063538588024848784 -0.018801770243177425 -0.056859065375700457 -0.022036159714474274 -0.0024145070458483219 0.010440167920491142 -0.00092442531555536622 -0.016080658666354147 0.015056477920276567 0.021107741406855098 -0.056347652389997914 -0.03507157091924068 0.0075820093416295239 0.011454021872879465 -0.084734275365503736 -0.031066638004874636 -0.0056158570871948591 0.0037686929188927424 0.022418164467664238 0.0014797603021907432 -0.011467109405736862 -0.0080033833946480306 0.009221092782039652 -0.041753585698927377 -0.029439055382177233 -0.0070751913123050913 0.036095245584756429 -0.024528385625660461
leaf_weight=1217.4015405625105 675.23802898824215 13701.069944187999 21144.791900828481 25972.462233349681 78512.015187457204 12452.054818913341 272.92644746601582 5573.1084190458059 18415.719121411443 13488.888802394271 33160.949677094817 26974.033184379339 27130.403697520494 23972.245394915342 57318.315963506699 15974.516155660152 1797.8432543575764 11922.119438707829 6201.611334875226 9489.1117551922798 11743.95394808054 87821.500374764204 20021.015996173024 4616.3294868767262 18141.28295135498 15314.686422258615 872.09568950533867 12267.169449031353 11982.421256437898 9452.9195802807808 23896.390978634357 4246.7887273877859 28956.481469631195 9075.9643268287182 41379.787380456924 26148.331962764263 4273.2636377364397 7373.3305343985558 18846.229318261147 18545.135469406843 7525.7182944267988 12907.003952711821 99355.524951055646 15311.321607157588 8367.4221497476101 7600.2911451458931 2517.7068016380072 41801.529716134071 2288.3990564495325 6676.3749981671572 3872.1480823755264 24239.686181694269 2747.6412951946259 14970.143053531647 6058.5197032690048 7769.4632927030325 10092.716594740748 1021.013007029891 8744.7737662047148 40953.097351655364 1566.63751912117 4075.4146019071341
leaf_count=4710 1440 24748 57401 55937 138039 28441 351 8512 18099 27716 64091 76928 67815 55359 118771 39841 6279 25052 20814 13124 14190 137648 35809 6554 30649 40518 1580 22308 28326 19798 49918 5537 88172 27927 79251 66681 14831 19290 39931 33571 15886 32089 161635 23591 28720 22307 4756 74755 9359 18923 8550 47619 4148 29897 14450 17477 18694 3165 24548 92128 1896 10857
internal_value=1.42996e-05 0.00827721 -0.0249716 0.0133426 0.0116234 -0.0169572 -0.0397137 -0.0010114 0.0267141 -0.0128798 0.0072178 -0.0346441 -0.00788341 0.00205171 0.00146229 -0.0261507 -0.0531913 -0.00873045 -0.0410381 0.0196464 0.0148185 0.017677 0.00330426 0.0385246 0.0108282 -0.0163416 -0.0282087 0.0153955 -0.0053425 -0.00894927 -0.00432079 0.0192926 -0.0415931 -0.0301109 0.00289634 -0.0177844 -0.044846 -0.0184602 0.00616876 0.00420891 -0.0151619 -0.0105007 0.0132179 0.0162683 -0.0620287 -0.039369 -0.0138583 0.00871587 -0.0724923 -0.0225049 -0.019521 4.61638e-05 0.00765209 0.00643923 -0.00587035 0.000441117 0.00141512 -0.0598968 -0.0353719 -0.00526655 0.0255476 -0.014246
internal_weight=1.1108e+06 834752 276052 540176 478643 178836 97216.1 294576 61533.6 123896 201210 70650.5 90823.7 203752 198179 54940 26565.6 88581.8 35431 38501.5 277433 99565.5 150311 23032 109618 84896.3 35219.5 34655.2 38999.6 25510.8 47868.6 22388.1 35158.1 38965.5 91591.9 72444.3 13671.4 8245.43 75130.2 55109.1 46581.1 20432.7 177868 29012.4 12894.2 9398.13 35706.6 74962.5 4526.81 25863.2 19186.8 50212.1 36262.9 33515.3 8576.23 75180.5 67411 2238.41 17820.7 52875.2 2241.88 16057.8
internal_count=2281407 1537399 744008 917775 831659 447502 296506 619624 86116 297785 380147 207135 207537 412087 403575 149717 89371 204201 109337 61463 451512 151838 298298 24653 197340 211088 97798 58494 86697 58981 105277 36186 108986 109876 182807 182647 43417 20870 143356 107547 114656 47975 299674 48339 45954 28586 87021 138846 17234 67991 49068 103556 67616 63468 19206 154942 137465 7875 52475 117180 3336 39183
is_linear=0
shrinkage=0.035


Tree=2
num_leaves=63
num_cat=0
split_feature=16 23 17 17 16 12 16 16 17 47 47 35 35 21 16 25 33 28 19 30 25 25 21 16 32 16 14 17 23 35 12 19 47 19 53 53 33 25 14 56 43 35 15 35 35 33 35 19 56 35 35 56 17 25 47 9 43 9 12 35 35 56
split_gain=173851 28213.1 26705.7 16908.3 5582.35 5403.21 4972.65 4601.21 3268.04 2788.26 2292.27 2233.04 1997.62 1709.14 1564.8 1562.44 1287.03 1187.87 1145.39 1081.91 1076.94 1049.26 1118.26 1015.13 998.155 975.118 937.383 845.909 837.882 817.657 790.309 733.897 730.631 712.514 673.652 669.148 824.482 651.639 640.794 629.433 627.067 623.433 595.136 590.375 560.948 517.375 516.404 513.402 509.349 688.38 506.883 743.52 492.611 449.164 477.519 447.241 434.759 472.985 432.785 428.337 428.229 421.005
threshold=0.029008316807448867 -0.084362715482711778 0.023325049318373207 0.03851298242807389 0.023779774084687236 -0.21130666136741635 0.018168532289564613 0.042596399784088142 0.031137558631598953 0.6475852131843568 0.023386484943330291 0.028400500304996971 0.027332491241395477 -0.10465003922581671 0.057637333869934089 0.15271253883838656 1.4637938141822817 0.15299610793590548 -0.095199953764677034 0.52783098816871654 0.22342951595783236 0.017268321476876739 0.00064615139854140591 0.019019424915313724 0.80129900574684154 0.040247332304716117 0.032092530280351646 0.01877254527062178 -0.087866097688674913 0.01608768850564957 -0.19211032986640927 -0.14284101873636243 0.90166315436363231 -0.084071103483438478 0.7792874574661256 0.55242651700973522 2.2699377536773686 0.03534951992332936 0.050269501283764846 0.71952715516090404 0.19522182643413546 0.017536293715238575 0.031821036711335189 0.042164510115981109 0.017536293715238575 0.8862900733947755 0.076466359198093428 -0.1542561128735542 0.62271261215209972 0.018049460835754875 0.01300389599055052 0.4813010841608048 0.026385057717561725 0.16230055689811709 0.61851108074188244 -0.065641403198242174 0.12046948820352556 -0.11801487207412718 -0.19931763410568235 0.0047487120609730491 0.0076696637552231559 0.49440908432006841
decision_type=2 2 2 2 2 2 2 2 2 2 2 2 2 2 2 2 2 2 2 2 2 2 2 2 2 2 2 2 2 2 2 2 2 2 2 2 2 2 2 2 2 2 2 2 2 2 2 2 2 2 2 2 2 2 2 2 2 2 2 2 2 2
left_child=2 5 6 8 12 14 10 19 24 26 60 30 23 -9 53 25 18 29 -8 44 31 33 -23 59 -3 -11 -7 -20 -13 -10 -6 -15 38 -12 -18 36 -19 61 -17 -30 -33 -21 -27 -41 -5 -29 -14 -44 49 58 -39 -52 -26 54 -2 -42 -49 -58 -25 -4 -1 -32
right_child=1 3 4 7 11 9 16 13 17 15 21 28 46 20 -16 32 34 35 27 41 -22 22 -24 48 52 42 -28 45 39 -31 37 40 -34 -35 -36 -37 -38 50 -40 43 55 -43 47 -45 -46 -47 -48 56 -50 -51 51 -53 -54 -55 -56 -57 57 -59 -60 -61 -62 -63
leaf_value=-0.068937705795438328 0.033051446345689892 -0.014707407545363212 -0.050377247888457231 -0.0070576703811889479 -0.0040537800085430915 0.019640319978055942 0.027654456916702208 0.022090969728405428 -0.0062244694321134282 0.0023829916974042391 0.031575966501170706 0.011856859584704844 -0.014942251036609556 0.023836843160031158 0.039405190667571179 0.019926931377796987 0.0080990692584210298 0.017313473448743264 -0.043600519184059501 0.0028745625955719305 0.014377385652348189 -0.033527155172309482 -0.049463989498999619 -0.01139186108149042 -0.011264666183456047 -0.0060686283191177283 0.033520509370067834 -0.035292955854023353 8.416711180609045e-05 0.00070086934863204035 -0.016938101402941642 0.0055664198805947017 0.016512849103300718 -0.052210281840557669 -0.021817078492900772 0.0027293942463110944 -0.062323171375233653 -0.015877496420726122 0.032482363852791546 -0.017065585076912623 0.019158682569097814 0.0085975097849213342 0.024702867343148714 -0.0032956579057904496 0.0024622422057050102 -0.026990680997885732 0.012899106789047814 0.008377688589160822 -0.038549653614107879 -0.014618138668750788 -0.0022897249166435357 -0.014707557408683736 -0.0039540247283265662 0.032589677445666307 0.015197098567688661 0.0098942460173087922 0.038604810822671511 0.01484878637618375 -0.026474538257422041 -0.032258064718356939 -0.053093853659699333 -0.027640335636702651
leaf_weight=5052.3860470503569 2483.787806853652 22384.745675370097 1908.7410846203566 14546.004457294941 9348.1922840029001 9715.2280191034079 377.95461548864841 18317.469074755907 38102.04377527535 11956.383698359132 123.99098610877991 4062.399340569973 22097.369454145432 4262.9162713736296 19773.155235350132 13931.787644952536 1040.0258599072695 5714.7948218286037 8139.8206018209457 50827.884757652879 80487.216975167394 17797.294868215919 7782.2063356786966 2548.9846421480179 15606.963613435626 1812.9141453206539 15537.965886130929 18366.0378395468 14735.072922632098 46196.115627616644 20332.682782053947 44739.227614045143 41807.202842846513 11042.643094733357 7955.9678001701832 61057.696730107069 161.71757508814335 25824.996137365699 7791.4705199748278 7492.0872422605753 6751.0453361570835 43125.041258439422 5214.2321627289057 7785.3618230670691 15826.526533782482 18650.509237900376 844.57933847606182 15335.61847153306 2661.8227590024471 9814.0080109238625 11308.913945674896 12382.006751149893 40932.462679326534 5258.2118625193834 7107.8079499751329 120330.01888437569 1074.1415164917707 23775.348298221827 28869.471022561193 10358.727613896132 3703.2385820746422 5811.5846692323685
leaf_count=18844 3240 54981 6264 32681 20493 16024 525 27836 85634 24165 157 7460 54360 6342 20985 21922 1988 9488 25639 101454 129166 51710 25398 6032 37054 3979 19913 54175 30701 95693 50765 84660 64392 36713 20815 121185 401 64024 9687 18710 10775 80357 7479 16912 31862 51291 1411 27614 8015 24026 24217 30315 89194 7104 12137 215234 1126 39419 78802 29778 12451 15959
internal_value=-2.49926e-06 0.00839143 -0.0228562 0.00487736 -0.0154146 0.0205047 -0.0375989 0.00923323 -0.00267789 0.0175911 -0.0461441 -0.0106262 -0.0226222 0.0117603 0.0329527 0.0154102 -0.0304664 0.000334789 -0.0328578 0.00364547 0.0110224 -0.0423014 -0.0383806 -0.0261779 -0.00845102 0.0113155 0.028184 -0.0333662 -0.00305453 -0.00242898 -0.0136607 0.00948853 0.0192227 -0.0512713 -0.0183536 0.00381602 0.0150955 -0.0148471 0.0244344 -0.00507471 0.00913207 0.00550193 0.0135767 -0.0100521 -0.00209604 -0.0311125 -0.0139147 0.0143622 -0.0236855 -0.0227233 -0.0124839 -0.00878205 -0.00597298 0.0243543 0.0198301 0.010387 0.0130184 0.0158801 -0.0252528 -0.0350879 -0.0622541 -0.0193204
internal_weight=1.11016e+06 811945 298219 629370 198187 182575 100032 399213 230157 147952 45501.8 119083 79103.7 274888 34623 122699 54530.3 151232 45534.3 124325 256570 36746.1 25579.5 56161.8 78924.2 59168.6 25253.2 45156.4 34074.9 84298.2 85008.4 176083 63530.5 11166.6 8995.99 66934.2 5876.51 75660.2 21723.3 30012.5 171820 93952.9 47212.3 15277.4 30372.5 37016.5 22941.9 45399.3 43894.3 41232.5 49515.9 23690.9 56539.4 14849.8 9591.6 127081 40185.1 24849.5 31418.5 12267.5 8755.62 26144.3
internal_count=2281133 1493183 787950 1213997 488244 279186 299706 720367 493630 235720 145273 279556 208688 474013 43466 199783 154433 312401 131630 246354 446177 113978 77108 152917 181229 103782 35937 131105 73783 181327 205773 317011 96001 36870 22803 131074 9889 185280 31609 66323 310669 181811 79617 35622 64543 105466 55771 75638 116875 108860 118556 54532 126248 22481 15377 226009 68159 40545 84834 36042 31295 66724
is_linear=0
shrinkage=0.035


Tree=3
num_leaves=63
num_cat=0
split_feature=16 23 17 17 12 16 16 17 17 47 35 33 21 35 16 16 10 31 25 14 30 19 23 26 35 21 47 30 30 43 52 33 46 26 35 19 52 41 22 10 47 45 12 15 21 21 45 35 33 12 15 35 14 46 21 19 44 19 45 35 35 17
split_gain=159861 28312.9 21721.4 17474.9 5056.83 4645.15 4357.3 4282.08 3348.04 2778.93 2178.81 1958.13 1697.16 1623.99 1439.48 1407.46 1351.11 1341.19 1089.86 1058.46 1041.59 992.427 963.863 946.4 893.19 736.481 717.716 688.929 672.53 651.491 645.262 644.909 639.46 595.171 594.9 586.222 572.317 983.107 555.723 538.551 525.238 519.169 792.91 610.621 511.197 508.716 565.878 508.45 501.408 457.961 456.818 451.507 447.66 1319.77 437.346 431.936 403.969 802.03 400.875 399.521 393.707 387.588
threshold=0.028296982869505886 -0.086646199226379381 0.023491668514907364 0.03851298242807389 -0.21553972363471982 0.042596399784088142 0.022554504685103897 0.017450621351599697 0.030441072769463066 0.71423676609992992 0.018929678946733478 0.91385492682456981 -0.081400092691183076 0.026568906381726268 0.057637333869934089 0.040654731914401061 0.0081304311752319353 0.061917765066027648 0.22342951595783236 0.032092530280351646 0.54844266176223766 -0.090324841439723955 -0.087866097688674913 0.85851746797561657 0.015772020444273952 -0.078316226601600633 0.0089132892899215239 1.4480074644088747 0.53635135293006908 0.099089860916137709 0.78053078055381786 0.56207394599914562 0.72337132692337047 0.7620164453983308 0.019097531214356426 -0.12131542712450026 0.63805252313613903 1.0393922328948977 0.07456445693969728 -0.11355212330818175 0.62207582592964183 0.58003664016723644 0.083594501018524184 0.037614660337567336 -0.0057368066627532235 0.0057484034914523372 0.4815200567245484 0.016878860071301464 1.3579382300376894 -0.15376570820808408 0.031657395884394653 0.082070861011743559 0.045247264206409461 0.90781226754188549 -0.14409897476434705 -0.1542561128735542 0.42968486249446874 -0.013124742079526184 0.47305491566658026 0.010136206634342672 0.0071146248374134311 0.024498730897903446
decision_type=2 2 2 2 2 2 2 2 2 2 2 2 2 2 2 2 2 2 2 2 2 2 2 2 2 2 2 2 2 2 2 2 2 2 2 2 2 2 2 2 2 2 2 2 2 2 2 2 2 2 2 2 2 2 2 2 2 2 2 2 2 2
left_child=2 4 7 8 14 20 13 16 23 19 25 21 35 28 54 -11 26 24 33 38 34 -9 40 -3 49 -8 -1 -13 -4 -17 -29 -23 -21 -14 -5 -7 37 48 -6 -28 -12 42 -27 60 -18 -33 -47 -22 -19 -10 -34 -15 -31 -54 -2 -35 57 58 -41 -30 -44 -25
right_child=1 3 6 5 9 12 10 11 17 15 22 27 18 51 -16 29 44 36 -20 32 47 31 -24 61 -26 41 39 30 59 52 -32 45 50 55 -36 -37 -38 -39 -40 56 -42 -43 43 -45 -46 46 -48 -49 -50 -51 -52 -53 53 -55 -56 -57 -58 -59 -60 -61 -62 -63
leaf_value=-0.069581672218827259 0.031393933772622104 -0.014309560014003731 -0.034817461633870728 -0.0059802668101711929 0.0128072940366708 0.032447501223249388 -0.0055160508257461631 0.030228687492285945 0.00029354282593721753 0.0047065020124943601 0.019631634216355751 -0.027958048779911138 0.0056961824519331959 -0.015598251380509324 0.039190287611119687 0.011658813041945743 -0.030050839567918014 0.0079023295734035586 0.013832150078272333 0.035125550071555794 0.0028713502734784681 -0.047567505563372477 -0.0080866889031793072 -0.013088237771965983 8.7442491261093915e-06 -0.018393279073424102 0.023245934825971974 0.0066484464630434418 -0.02938807078157769 0.014667875913166997 -0.020484634829985603 -0.032253208697580672 -0.003723674567855103 0.025387103880586129 0.0030054826484684927 0.017487893017178908 0.0018859537985412569 -0.062154486726359634 0.02839600248214709 -0.060743373094010199 -0.0031919509844095953 -0.01342214296995318 -0.056018289081099355 0.020251136739063084 -0.046139331395367224 -0.053435116255596889 -0.035844980152617424 0.0080502953966297489 0.025784064057441221 -0.0088158999827153989 0.02522091644426901 0.014835141244521019 0.031766759991230985 0.0170024979979151 0.018677979812624687 0.0099310254045109261 -0.057812820203032918 -0.034601998470882654 -0.035220382041134528 -0.02101891939261041 -0.030504308088161427 -0.0047560860612891253
leaf_weight=2766.42041644454 5859.6742562651634 27042.486929342151 10681.877627059817 18825.090593278408 7822.2814851105213 3680.2908627092838 7189.7598854154348 269.41928969323635 8526.7218988090754 14638.25305762887 2439.1713645160198 26164.814497888088 50699.118701651692 17064.172554895282 18555.048325762153 26111.135327264667 5668.8984207063913 9303.5600683838129 79916.506483122706 14947.250841781497 49045.479451492429 5974.1271268874407 52525.281847134233 8222.0458669364452 51194.589326739311 30051.689340218902 119.9822761118412 1255.704049706459 12072.299816131592 27258.604741632938 7297.3361159712076 23932.569875091314 794.96812044084072 2259.5609869211912 17329.294174537063 25540.423933103681 65811.046817496419 223.52181525528431 4381.4695412516594 3852.9359878748655 2494.7701700776815 23530.951640889049 1193.5662643164396 217.86660227179527 4280.3698029071093 3354.7132361084223 6924.2495386749506 44159.165431901813 2423.9610234647989 32498.171149462461 4097.1549116373062 616.13680647313595 9687.2230478525162 31810.313810065389 7713.465922832489 117307.21757733822 5936.195111811161 4145.9081485569477 959.16023482382298 16819.767238438129 2011.276498451829 40864.681010857224
leaf_count=10319 7949 66116 31248 41801 14188 4559 15974 349 17930 28724 4091 72384 96140 42213 19895 44852 15956 17700 129195 18658 97985 19271 119910 19917 107007 76114 189 2427 33735 45286 18808 68742 1686 3291 34720 41924 132012 551 6246 13573 5445 56787 4090 368 13717 11294 20513 83028 3461 74916 6047 971 12272 48427 12705 209443 20579 12066 2826 43720 5682 89876
internal_value=3.80022e-06 0.00774894 -0.0227674 0.00441693 0.0203124 0.0088533 -0.0153974 -0.0355801 -0.00295125 0.0174661 -0.0116493 -0.0312406 0.0113921 -0.02336 0.0328494 0.0148121 -0.0473396 -0.000219063 0.0104594 0.0265335 0.00336945 -0.0364767 -0.00669699 -0.00905106 -0.00307409 -0.0160811 -0.0531275 -0.0251365 -0.0273012 0.0163709 -0.0164964 -0.0369262 0.0315259 0.00887594 -0.00167238 0.0193753 0.00316631 0.0102124 0.0184107 -0.0500845 0.00808754 -0.0174127 -0.0202159 -0.0361884 -0.0369838 -0.0350643 -0.0415985 0.00532556 0.0116051 -0.00692179 0.0205107 -0.0145341 0.0181594 0.0204513 0.024174 0.0102238 -0.0506806 -0.0459386 -0.0556801 -0.0245189 -0.0400463 -0.00615291
internal_weight=1.11036e+06 828550 281811 654873 173677 408762 178909 102903 246111 141549 121654 75172.9 279403 57254.3 32128.2 109506 27729.9 169982 250182 32043.1 129359 40455.1 57459.2 76129.2 92219.5 64195.1 17780.6 34717.9 39573.9 94867.3 8553.04 40185.7 19839.4 170266 36154.4 29220.7 77762.1 11951 12203.8 15014.2 4933.94 57005.4 33474.4 3422.71 9949.27 34211.5 10279 93204.6 11727.5 41024.9 4892.12 17680.3 68756.1 41497.5 13573.1 119567 14894.2 8958 4812.1 28892.1 3204.84 49086.7
internal_count=2281868 1538507 743361 1271572 266935 742086 440348 303013 529486 226386 288461 213788 484552 151887 40549 179561 89225 353577 438069 46825 257534 120169 129446 175909 199853 159015 59552 93619 108703 150837 21235 119820 26391 308874 76521 46483 153724 21712 20434 49233 9536 143041 86254 10140 29673 100549 31807 181013 21161 92846 7733 43184 105985 60699 20654 212734 49044 28465 16399 77455 9772 109793
is_linear=0
shrinkage=0.035


Tree=4
num_leaves=63
num_cat=0
split_feature=16 23 16 17 12 17 35 16 17 17 25 35 16 56 35 46 14 19 21 3 25 23 3 21 25 56 35 30 35 56 17 16 44 16 3 56 35 56 35 56 35 35 56 35 21 56 35 56 46 35 14 46 35 44 44 35 35 12 10 35 56 21
split_gain=148707 25165.4 21864.4 13372.1 5760.48 5058.73 4071.65 3706.84 2768.57 2529.36 2175.58 1874.45 1738.82 1439.29 1938.45 1300.38 2407.39 1291.37 1283.7 1278.86 1234.42 1151.28 1052.61 1011.28 1002.64 908.459 1028.17 866.298 829.972 1056.95 815.479 790.12 670.121 660.363 648.772 584.246 2157.14 796.468 1220.1 540.001 651.234 537.48 522.904 731.883 521.945 491.325 537.93 484.773 481.531 478.282 458.316 1536.44 456.617 456.501 445.424 444.904 443.566 434.364 418.556 409.9 393.489 391.779
threshold=0.029156995005905632 -0.078464686870574937 0.021236347965896133 0.038356781005859382 -0.21130666136741635 0.01933163404464722 0.027845365926623348 0.042159007862210281 0.031137558631598953 0.027431011199951175 0.081438653171062483 0.010503612458705904 0.060102701187133796 0.47450184822082525 0.017195533029735092 0.75873303413391124 0.035844417288899429 -0.13410783559083936 -0.075460813939571367 0.033643424510955817 0.02482092380523682 -0.087866097688674913 0.0317944884300232 1.0000000180025095e-35 0.21977186203002932 0.72364968061447155 0.034038957208395011 0.53635135293006908 0.02759517822414637 0.61915084719657909 0.014620983507484199 0.026003313250839714 0.54806685447692882 0.016972350887954239 0.043421506881713874 0.31595040857791906 0.010385270696133377 0.19253647327423098 0.0078985686413943785 0.2930156290531159 0.021133235655725006 0.0076696637552231559 0.62271261215209972 0.018575092777609829 -0.13726604729890821 0.25060123205184942 0.013137486763298513 0.4813010841608048 0.61804699897766124 0.0178829450160265 0.050269501283764846 0.91797503829002391 0.01441352302208543 0.41657806932926184 0.14605653285980227 0.018747463822364811 0.06857550144195558 -0.1191592514514923 -0.09714180231094359 0.019097531214356426 0.46786819398403173 0.11548399552702905
decision_type=2 2 2 2 2 2 2 2 2 2 2 2 2 2 2 2 2 2 2 2 2 2 2 2 2 2 2 2 2 2 2 2 2 2 2 2 2 2 2 2 2 2 2 2 2 2 2 2 2 2 2 2 2 2 2 2 2 2 2 2 2 2
left_child=2 4 5 8 12 20 9 27 22 13 17 33 44 14 35 16 -12 54 48 55 30 -8 -3 32 34 -23 -27 49 29 39 41 42 -22 -7 -20 36 37 38 -4 -13 47 -1 43 -11 -2 -38 -47 -41 -9 -5 -17 -52 -29 61 -6 -10 -30 -33 -32 -21 -61 -19
right_child=1 3 6 7 10 11 21 18 19 31 15 28 -14 -15 -16 50 -18 53 24 59 23 25 -24 -25 -26 26 -28 52 56 -31 58 57 -34 -35 -36 -37 45 -39 -40 40 -42 -43 -44 -45 -46 46 -48 -49 -50 -51 51 -53 -54 -55 -56 -57 -58 -59 -60 60 -62 -63
leaf_value=-0.069109930302616085 0.030023237367275336 -0.012176551789091465 -0.021306640893885207 -0.0066658925750556607 0.014892600568252087 -0.04593621706961392 0.010111045838668946 0.024007432818365433 -0.0061354990871623424 -0.017767484197149561 0.016000409278982771 -0.0084311360777434285 0.038442246148620893 -0.030748083134476425 0.0011621382486590392 0.012399744516427936 0.032840385497626613 0.0020012846254847867 0.0053062480613887929 0.0008477760822981806 -0.026605805659438916 -0.0022761356437841561 -0.0039989235458580234 -0.047796508784492001 0.013149428602040979 -0.02707401661338436 -0.0082748783208987549 0.0021902048233749974 -0.018028384956508606 -0.043093675796592484 0.020655637397601349 -0.0030594776173901599 -0.043232721796493047 -0.032136695186414398 0.0099868005067066615 -0.028346197775898301 0.01909700952027021 -0.032646137359118574 0.014491865395710167 -0.025499983868369335 -0.016255237143334576 -0.047906684533192523 -0.032326098796964901 -0.0059114346713580856 0.017991488746780228 -0.016624643067622753 0.012558563515118608 -0.038104128699313879 0.014453158418612102 0.0023145902664963741 0.032278322072502544 0.015045264515656348 0.0073326449160326891 0.012502727183416405 0.030028348793870466 -0.00025245090462213212 0.010107438806655485 -0.011228146748536106 -0.044951819324812473 0.016803106905201017 0.004724581388688559 0.012568751054314606
leaf_weight=3436.1090121418238 7871.5271466672421 35869.398877039552 18094.088597178459 14208.459297969937 6344.037196457386 5586.738906532526 5414.176120698452 9690.2154873162508 32974.255742043257 28007.661527365446 24198.10719551146 2458.5240649729967 18978.721042916179 16382.726841688156 5335.3479131609201 31899.281400844455 18262.460082918406 21625.003369152546 58336.854103088379 41140.338341861963 9926.5726994723082 24409.850648745894 41737.48579351604 7135.1322008222342 75190.835536316037 4465.4258218109608 17698.348715797067 39818.09609310329 14964.019277095795 4139.9795298427343 118.42351898550987 10700.158791407943 4265.4423951655626 18170.062117278576 96155.009100168943 10590.636307135224 1543.1505468040705 7211.5921846628189 1244.0750607848167 13679.587338149548 6715.5906414240599 2627.0767151713371 2289.5441486090422 8274.8483382612467 10155.671885788441 1926.1895623654127 1289.3559228330851 5185.5966891944408 19570.894185557961 14854.1055649966 7576.6911340206861 38938.428665354848 45183.790561780334 11238.771716341376 3836.4842307716608 30164.194660738111 716.54144108295441 31469.287092193961 12928.915228635073 3631.683116838336 36812.996838718653 5366.0086288005114
leaf_count=12758 10948 85769 47296 31742 10703 17805 10164 14606 73830 70467 41228 5577 20777 46473 10852 54212 23773 43553 112075 84346 27068 52326 90967 23045 123068 12184 40534 80156 37958 12884 187 23150 13358 51954 171124 29527 2433 20867 2102 37072 16698 8488 6521 18579 16882 4851 2233 15617 33316 29991 9580 61400 85621 19410 5022 63090 1239 74175 40777 6019 71523 9245
internal_value=5.3099e-05 0.00799893 -0.0206004 0.00434842 0.0185337 -0.0329366 -0.0135597 0.00839815 -0.00244576 -0.0165844 0.0157984 -0.0273457 0.0310439 -0.0218046 -0.0187008 0.0183098 0.0232454 0.00952658 0.0107139 0.0004141 -0.0428356 -0.00515978 -0.00777924 -0.0370315 0.0098338 -0.00693612 -0.0120661 0.00314063 -0.0233521 -0.0265721 -0.0493066 -0.0124705 -0.0316109 -0.0353869 0.00821972 -0.0212309 -0.0188212 -0.0227105 -0.0190006 -0.0241285 -0.025635 -0.0599475 -0.0160921 -0.0150649 0.0232498 0.0028714 -0.00491147 -0.0289701 0.0176198 -0.00207485 0.0156362 0.0178543 0.00492425 0.00657467 0.0206047 -0.00332554 -0.0167393 -0.00915649 -0.0443506 0.00330864 0.0058108 0.00410425
internal_weight=1.11003e+06 801630 308401 595339 206291 112054 196346 373008 222330 144359 169285 71616.6 37005.9 63617.2 47234.4 120875 42460.6 48410.3 258944 144723 40437.7 51987.8 77606.9 21327.1 229683 46573.6 22163.8 114064 47859.8 32179.3 19110.5 80741.5 14192 23756.8 154492 41899.1 31308.5 26549.8 19338.2 28039.3 25580.8 6063.19 38572.1 36282.5 18027.2 4758.7 3215.55 18865.2 29261.1 29062.6 78414.4 46515.1 85001.9 38229.8 10180.5 63138.5 15680.6 42169.4 13047.3 81585 40444.7 26991
internal_count=2281195 1483976 797219 1157243 326733 322485 474734 681699 475544 359526 278126 196804 48607 166634 120161 190193 65001 87933 454189 298808 125681 115208 176736 63471 406267 105044 52718 227510 127045 87848 62210 192892 40426 69759 283199 109309 79782 70265 49398 74964 69387 21246 95567 89046 27830 9517 7084 52689 47922 61733 125192 70980 165777 72208 15725 136920 39197 97325 40964 161888 77542 52798
is_linear=0
shrinkage=0.035


Tree=5
num_leaves=63
num_cat=0
split_feature=16 23 17 17 16 12 16 16 17 47 35 21 47 35 16 3 16 25 3 33 16 19 14 25 25 21 23 3 11 44 17 56 43 9 56 35 56 35 56 35 52 35 56 35 19 35 35 21 11 19 47 45 17 33 14 47 35 56 21 24 47 42
split_gain=138148 24307.1 20212.8 14258.6 4734.62 4614.96 3681.63 3350.54 2894.37 2532.7 1890.95 1864.23 1772.44 1629.45 1310.37 1139.51 1112.24 1093.53 1062.77 1020.75 976.829 967.161 806.408 790.298 754.932 875.419 688.742 647.325 643.209 636.203 608.516 606.466 604.228 620.529 601.215 1148.92 781.873 958.281 631.956 916.448 596.225 592.858 582.941 581.645 563.477 535.448 506.744 495.421 459.074 453.29 452.624 450.384 447.413 427.931 420.812 581.021 416.362 413.591 413.564 403.798 398.221 395.793
threshold=0.029156995005905632 -0.087866097688674913 0.023151602596044544 0.038976492360234267 0.023931276053190235 -0.21130666136741635 0.041287492960691459 0.018168532289564613 0.031961990520358093 0.70742326974868786 0.026815510354936126 -0.081400092691183076 0.023386484943330291 0.027332491241395477 0.057637333869934089 0.033826649188995368 0.041287492960691459 0.22342951595783236 0.038362205028533942 1.5465443134307864 0.019019424915313724 -0.095199953764677034 0.032092530280351646 0.14399755746126178 0.017268321476876739 0.00064615139854140591 -0.087866097688674913 0.045249342918396003 -0.17974370718002317 0.088778030127286925 0.018142843618988994 0.71952715516090404 0.053132530301809318 -0.14236351847648618 0.57762888073921215 0.018747463822364811 0.42791731655597692 0.01300389599055052 0.25706489384174352 0.0085636512376368063 0.78053078055381786 0.017536293715238575 0.45780096948146826 0.033314583823084838 -0.084071103483438478 0.018929678946733478 0.076466359198093428 -0.055609142407774918 0.084550142288208022 -0.1542561128735542 0.62207582592964183 0.36262945830821997 0.026094409637153152 0.65336421132087719 0.046201456338167197 0.8647902011871339 0.005898507311940194 0.6333448886871339 -0.14409897476434705 -0.015964007005095478 0.28901940584182745 0.61320313811302196
decision_type=2 2 2 2 2 2 2 2 2 2 2 2 2 2 2 2 2 2 2 2 2 2 2 2 2 2 2 2 2 2 2 2 2 2 2 2 2 2 2 2 2 2 2 2 2 2 2 2 2 2 2 2 2 2 2 2 2 2 2 2 2 2
left_child=2 5 7 8 13 14 23 12 15 22 34 28 -1 20 58 52 -11 27 45 21 -4 -9 48 41 44 56 50 -13 29 -8 -23 -28 -18 -34 35 36 37 38 39 60 -21 47 -37 -33 -14 -10 57 -5 -7 -29 -12 -27 -3 -22 -35 -56 -26 -15 -2 -19 -6 -32
right_child=1 3 4 6 10 9 11 19 18 16 26 17 24 46 -16 -17 32 59 -20 40 53 30 -24 -25 25 51 31 49 -30 -31 61 43 33 54 -36 42 -38 -39 -40 -41 -42 -43 -44 -45 -46 -47 -48 -49 -50 -51 -52 -53 -54 -55 55 -57 -58 -59 -60 -61 -62 -63
leaf_value=-0.053100002914231018 0.03067584976434324 -0.017109439991806565 -0.031345551019425454 0.0067251171255799077 -0.020384870625131855 0.014325799132260999 0.018615098984503951 0.027477144932845612 -0.0044850520155233888 0.0053697308563380374 0.022023807998467877 0.0057518736430956993 0.030224909155928719 -0.0053859416662577625 0.038028397234064197 -0.0030028423813242607 0.010182144411383711 0.014331890786211506 0.0041957423285559192 0.014300819018857769 -0.024676494970548551 -0.039106049152096319 0.030807980875367364 0.0082803467106073361 -0.039089452445712984 -0.058853296415514553 0.00015978491417527021 0.025603476694292204 0.016362182256566517 0.041490902802499299 -0.024095008327244285 -0.02421078854854453 0.038217998137584509 0.013540578486442944 -0.021133278913598116 0.0079123635495149947 -0.023573379621358821 -0.001775855988894066 -0.020699325827153659 0.0028554661351444404 -0.01803875106964788 0.0045360199346846592 -0.0073561700482930887 -0.0062706722765865208 -0.044243211696689627 0.0012050802165784258 0.013508434777370336 -0.0033213302160052466 0.031079287483145073 0.0096736000463632094 -0.001008913133575371 -0.038164700650714298 -0.0089611298539946579 -0.017923491882876782 0.028455482836693868 0.017196980800709336 -0.025867849681838723 -0.015951710390982646 0.018137713718532508 0.0079769501699381278 -0.011175242528371829 -0.031088689365325089
leaf_weight=9288.967908591032 5644.2783139944077 10677.732365652919 13209.18061773479 7285.0960369110107 7858.8548973202705 7943.1990478187799 3257.2297037988901 371.9368422627449 42660.786000609398 14517.185690820217 2131.423002704978 75247.412262618542 123.95801723003387 6133.1652609407902 17888.760023191571 44609.114360898733 18582.691353201866 65348.803607001901 66013.956550419331 775.14928594231606 19086.353865161538 6360.7190599888563 17531.52694298327 26586.461489111185 3669.2793344557285 1631.2372595965862 17668.58012406528 2238.1557867079973 24704.514185294509 2764.7315332740545 20980.998413011432 2651.0165726989508 1693.4579263180494 29099.943458929658 8096.5256656110287 4888.4497477859259 7605.7448393851519 9989.6204722374678 11873.406326949596 4798.2874493598938 6830.9330992549658 36761.347847923636 8192.4868335276842 13464.084279224277 11592.224964752793 38561.762006431818 898.7971268594265 34352.399746075273 2689.9130889326334 101440.35323913395 2043.1569990962744 6474.3797723650932 36645.24062666297 29214.909075930715 6742.6966032832861 34117.297573938966 14717.630446285009 17605.851800709963 7601.2593125998974 15118.929782435298 21649.697430416942 19039.953553467989
leaf_count=31224 7820 26816 37537 14045 20430 14231 5254 528 93741 28336 3462 143835 160 13625 20023 96026 32600 107065 129176 1356 51181 19319 23819 50022 11121 5661 36826 3251 41427 2838 56117 7045 1821 49290 20940 9155 20152 21274 30731 9639 17180 72292 18671 30185 36322 79161 1493 73586 3609 181088 4336 19398 84680 73587 9247 52125 40026 43655 12696 24839 50924 54129
internal_value=-2.4228e-06 0.00770585 -0.0197946 0.00459978 -0.0135651 0.0197144 0.00868263 -0.0325797 -0.00214494 0.0168723 -0.00915467 0.0107151 -0.0393732 -0.0198568 0.0318451 -0.00701758 0.0143658 0.00974902 0.000897276 -0.0266419 -0.0229041 -0.0285774 0.0261915 0.00306571 -0.0360325 -0.032749 -0.00265875 0.00822434 0.0188681 0.0291337 -0.0290289 -0.0043169 0.0158126 0.017272 -0.0120566 -0.0110994 -0.0130375 -0.0116095 -0.0137357 -0.0113236 -0.0147355 0.00129671 -0.00164719 -0.00922672 -0.0434473 -0.00178317 -0.0122465 -0.00156248 0.0185724 0.0100183 0.0107475 -0.042346 -0.0108011 -0.0205936 0.0167634 0.019057 -0.0285122 -0.0132241 0.023487 0.0131385 -0.0136304 -0.0274245
internal_weight=1.10924e+06 798326 310917 634274 209060 164052 395105 101857 239169 132918 122911 290120 47497.7 86148.3 31134.3 91932.1 104753 259394 147237 54359.7 61510.4 46753.6 28164.6 104985 38208.7 26492.5 37958.3 178926 30726.5 6021.96 46381.7 33783.7 90236.1 71653.4 84953.1 76856.5 63775.6 56169.9 46180.2 34306.8 7606.08 78398.8 13080.9 16115.1 11716.2 81222.5 24637.8 41637.5 10633.1 103679 4174.58 8105.62 47323 48301.3 69959.9 40860 18386.9 23739 13245.5 80467.7 29508.6 40021
internal_count=2282148 1484759 797389 1229142 504848 255617 719542 292541 509600 215078 283770 509597 143912 221078 40539 207522 173419 460078 302078 148629 162305 130093 41659 209945 112688 76206 81854 328174 49519 8092 129565 74056 145083 112483 201916 180976 153150 132998 111724 80993 18536 159923 27826 37230 36482 172902 58773 87631 17840 184339 7798 25059 111496 124768 110662 61372 51147 57280 20516 131904 71354 110246
is_linear=0
shrinkage=0.035


Tree=6
num_leaves=63
num_cat=0
split_feature=16 23 16 17 12 17 16 35 47 17 17 11 35 56 35 16 47 3 16 30 23 14 3 33 44 17 16 56 35 56 21 46 19 44 30 15 35 21 35 56 35 47 35 56 15 21 33 11 38 53 17 35 56 35 56 35 17 23 11 56 35 35
split_gain=128017 23032.5 17776 13479.9 4518.9 4163.61 3744.87 3243.68 2606.04 2542.73 2043.62 1708.25 1663.03 1311.11 1684.48 1242.27 1127.34 1125.14 1071.42 1019.5 929.776 915.427 859.025 839.112 807.329 787.551 761.169 755.17 806.11 751.948 654.899 648.974 646.825 782.536 609.784 579.792 577.566 548.6 531.289 582.841 977.031 529.857 527.524 571.815 517.791 501.692 492.078 487.079 460.156 452.383 447.161 437.78 428.081 1518.04 477.609 855.068 424.322 424.235 415.62 411.146 630.436 400.351
threshold=0.029008316807448867 -0.087866097688674913 0.021236347965896133 0.03851298242807389 -0.22428676486015317 0.01933163404464722 0.045192182064056403 0.027332491241395477 0.72454646229743969 0.031137558631598953 0.027120796032249931 -0.17974370718002317 0.019097531214356426 0.46786819398403173 0.017195533029735092 0.057637333869934089 0.0089132892899215239 0.033643424510955817 0.04044845141470433 0.54467111825943004 -0.087866097688674913 0.032092530280351646 0.035259544849395759 1.3579382300376894 0.10013860091567041 0.049591252580285079 0.026003313250839714 0.59509080648422252 0.037634292617440231 0.74884155392646801 0.0070035734679549941 0.72691044211387645 -0.012608456891030071 0.50411054491996776 0.53635135293006908 0.035656467080116279 0.017195533029735092 -0.099568277597427354 0.071945540606975569 0.61223047971725475 0.027069214731454853 0.58560660481452953 0.013987229205667974 0.31595040857791906 0.031657395884394653 -0.10465003922581671 1.5465443134307864 0.21026515960693362 0.0079556438140571135 0.7792874574661256 0.015250516124069692 0.015480400994420053 0.31271363794803625 0.010385270696133377 0.19253647327423098 0.0081192776560783404 0.026385057717561725 -0.027572602033615109 0.086205542087554946 0.62271261215209972 0.018575092777609829 0.0071146248374134311
decision_type=2 2 2 2 2 2 2 2 2 2 2 2 2 2 2 2 2 2 2 2 2 2 2 2 2 2 2 2 2 2 2 2 2 2 2 2 2 2 2 2 2 2 2 2 2 2 2 2 2 2 2 2 2 2 2 2 2 2 2 2 2 2
left_child=2 4 5 9 15 16 19 10 21 22 13 24 34 14 46 -2 -1 51 -10 36 41 58 56 30 -8 -13 59 -22 29 48 32 -23 50 -34 -7 -20 -5 -37 39 -14 -41 -9 43 -21 -33 -27 52 -47 -29 -48 -18 -11 53 54 55 -4 -3 -32 -6 60 -12 -36
right_child=1 3 7 6 8 12 11 20 18 17 26 25 38 -15 -16 -17 23 -19 35 42 27 31 -24 -25 -26 45 -28 28 -30 -31 57 44 33 -35 61 37 -38 -39 -40 40 -42 -43 -44 -45 -46 47 49 -49 -50 -51 -52 -53 -54 -55 -56 -57 -58 -59 -60 -61 -62 -63
leaf_value=-0.055396141741074739 0.023132399877791782 -0.015818174084402198 -0.020934840015928605 -0.0052112032892237484 0.01395918799896561 -0.037873085915134046 0.01694447729188471 0.020229856583417256 0.0044699832238655184 -0.0061878973670661313 -0.016714149643753697 0.0078246361616313848 -0.013864425410193358 -0.02893297883301249 0.0026207605738396743 0.038040943806041415 -0.056900675894786638 0.0030365464863838561 0.0018186946242991018 0.0045922724241156581 0.0029134930013892304 0.033910812166970825 -0.0031978358694591366 -0.023490604943856276 0.036167349680255173 0.021193345650003866 -0.0083991300846301287 -0.018096673490980087 -0.0037987314007499572 -0.024415070358941113 -0.024337883116915319 -0.0065219303412250929 -0.026004796307618115 -0.042726489741902539 -0.032176152006848986 0.027711592904622193 0.0032406717903752037 0.015133240881821261 0.012424637188338913 -0.03902004713232983 -0.018957612585898578 -0.0020357650328835012 0.0078642054496291542 -0.005874840301218898 0.024136683758164398 0.010086867545453094 0.021180043788021474 0.014607457234171225 -0.0045942077251113688 -0.012924375619228703 -0.039159776012477748 -0.00048536348101468397 -0.027652095352476758 0.002084700431405506 -0.0305735784341363 0.014831995643369924 -0.0083430082964147546 -0.051667994196872617 0.029535121701406115 -0.029749244186204993 -0.0058536231259787236 -0.02438430945953984
leaf_weight=4502.9252374023199 11677.420716419816 13118.173166409135 15417.892105311155 18951.714288786054 8893.8556487262249 8385.8697682917118 7137.0623941272497 2545.4850023835897 13066.658311337233 29780.735176801682 29642.615761145949 93398.189446374774 13170.642834857106 15771.909786447883 4701.66584636271 16657.262723907828 2282.2020651549101 85311.955298364162 3806.1334514468908 46067.460466504097 8185.6401421874762 14278.762682154775 34846.569130316377 5029.4951017946005 4299.357340991497 6867.8202868998051 41050.034370988607 4770.4334444701672 19777.540290400386 5786.8153698295355 797.56339997053146 798.51282985508442 10051.410735815763 5235.3274420499802 13063.992017745972 4489.4131616950035 20739.71138215065 81836.86874769628 656.2111764550209 3918.1574268788099 12432.403918415308 2687.6870481520891 63196.694842085242 7419.2877717763186 4269.6349682956934 94178.093515709043 528.25054407119751 42424.207462280989 8814.5930246412754 4654.1808381229639 7703.0471567064524 36986.729353949428 8892.0258190184832 3679.1466665714979 6055.4455228894949 862.18186628818512 32168.341446742415 6075.6382115930319 2757.6195543259382 2243.0745906829834 8421.2869688272476 21546.728645011783
leaf_count=15414 18210 32511 40122 41688 16004 25081 11958 4243 25745 66659 73718 172364 31972 44012 9356 18751 7850 169836 7634 90313 16351 18564 75171 13345 5031 10685 93990 12150 43148 15377 2177 1752 27253 16282 37386 6266 41406 132865 1087 11812 31841 5760 119065 16204 6477 166008 820 67073 19462 11140 23259 77622 24636 7425 17229 1439 73815 20146 3811 6256 18858 57682
internal_value=3.9799e-05 0.00743778 -0.0190786 0.00443653 0.0191979 -0.0299968 0.00829369 -0.0126306 0.0165153 -0.00228524 -0.0153816 0.0109657 -0.0249648 -0.0202505 -0.0171912 0.0319001 -0.0388291 0.000373118 0.0138409 0.00405058 -0.00520252 0.0254161 -0.00733068 -0.0368186 0.0241792 0.0103274 -0.0117564 -0.00675068 -0.00877228 -0.0138473 -0.0389012 0.0300872 -0.036283 -0.0317387 -0.0293872 0.0151989 -0.000794076 0.0157884 -0.018661 -0.019354 -0.0237716 0.00879144 0.00569884 0.00313953 0.0192987 0.0119562 -0.0195157 0.0114913 -0.00934019 -0.0094345 -0.0432287 -0.00302954 -0.0210107 -0.0187374 -0.0221687 -0.0190369 -0.0105097 -0.0485097 0.0176531 -0.0151741 -0.0143127 -0.0273281
internal_weight=1.10876e+06 799424 309340 636892 162532 114852 404680 194488 134197 232213 141920 248305 73174 60562.7 44790.8 28334.7 41677.6 152079 103199 156375 52568.2 30998.4 80133.1 37174.7 11436.4 236868 81357 47335 39149.4 19371.8 32145.2 19346.9 25272 15286.7 42996.6 90132.4 39691.4 86326.3 30177.4 29521.2 16350.6 5233.17 116683 53486.7 5068.15 143470 40089.1 136602 13585 5182.43 9985.25 66767.5 34906.7 26014.7 22335.5 16280.1 45286.5 6873.2 11651.5 40307 38063.9 34610.7
internal_count=2281567 1493488 788079 1237409 256079 322587 741795 465492 219118 495614 349001 433119 196861 156179 112167 36961 125726 314117 172510 308676 116491 46608 181497 110312 16989 416130 192822 106488 90137 46989 96967 26793 74644 43535 120149 146765 83094 139131 76712 75625 43653 10003 225582 106517 8229 243766 102811 233081 31612 11960 31109 144281 90851 66215 58790 41561 106326 22323 19815 98832 92576 95068
is_linear=0
shrinkage=0.035


Tree=7
num_leaves=63
num_cat=0
split_feature=16 17 23 17 16 12 16 16 47 17 35 35 11 47 15 10 3 25 21 30 16 16 3 14 21 21 23 45 21 25 35 25 44 25 21 47 46 14 46 52 12 45 35 16 17 21 35 24 2 14 30 12 45 35 12 46 48 18 3 45 12 15
split_gain=118314 20499.3 19565.8 9944.76 5057.03 4319.54 3073.33 2723.05 2518.46 2313.23 1716.24 1702.18 1609.36 1350.6 1086.37 1021.99 1000.3 952.914 966.665 951.68 923.39 833.625 805.592 784.013 760.635 739.848 736.266 677.587 1139.06 663.754 652.493 624.43 622.147 595.929 647.919 564.626 554.098 536.093 1384.93 515.665 493.032 547.706 491.545 491.11 485.339 446.654 420.577 406.725 405.69 401.445 400.963 399.197 850.762 381.778 378.019 375.52 368.464 407.432 398.3 357.178 355.564 349.675
threshold=0.03063840884715319 0.023325049318373207 -0.087866097688674913 0.039927730336785323 0.025286006741225723 -0.24523079395294187 0.018168532289564613 0.049068832769989974 0.72454646229743969 0.031961990520358093 0.026325348764657978 0.018049460835754875 -0.17438945174217221 0.028482243418693546 0.036500737071037299 -0.10349738597869872 0.035259544849395759 0.071939572691917433 -0.053606310859322541 1.4343496561050417 0.064197361469268813 0.019019424915313724 0.034019768238067634 0.034059645608067519 -0.099568277597427354 -0.075460813939571367 -0.087866097688674913 0.54614475369453441 0.0037971137790009384 0.067335121333599104 0.057539366185665138 0.227209247648716 0.10013860091567041 0.014254575129598381 0.0070035734679549941 0.62207582592964183 0.73039567470550548 0.045247264206409461 0.90453672409057628 0.73604333400726329 -0.17290616035461423 0.16341337561607364 0.015927341766655449 0.02090706862509251 0.017824146896600727 -0.066486403346061693 0.024204572662711147 -0.01094241952523589 -0.012012332677841185 0.052365805953741081 0.81756845116615307 -0.10332757234573363 0.44684654474258428 0.0042131226509809503 0.0087625384330749529 0.81118887662887584 0.59295132756233226 0.08278189599514009 0.055395245552062995 0.78398436307907116 -0.15645396709442136 0.031657395884394653
decision_type=2 2 2 2 2 2 2 2 2 2 2 2 2 2 2 2 2 2 2 2 2 2 2 2 2 2 2 2 2 2 2 2 2 2 2 2 2 2 2 2 2 2 2 2 2 2 2 2 2 2 2 2 2 2 2 2 2 2 2 2 2 2
left_child=1 6 5 9 11 20 13 17 23 22 25 21 32 53 -10 -8 46 18 -5 27 -2 60 -4 -7 -16 -6 35 28 44 51 43 45 -9 48 -35 -12 -25 -26 49 -21 -23 -42 -19 -13 -17 -14 -11 -33 -15 55 -43 -27 -53 -1 -29 -39 57 58 -18 -20 -3 -38
right_child=2 4 3 7 10 8 15 12 14 16 26 30 31 33 24 19 56 42 59 39 -22 40 -24 36 37 29 -28 54 -30 -31 -32 47 -34 34 -36 -37 61 38 -40 -41 41 50 -44 -45 -46 -47 -48 -49 -50 -51 -52 52 -54 -55 -56 -57 -58 -59 -60 -61 -62 -63
leaf_value=-0.055016767381234649 0.025454089162162574 -0.013080945099369166 -0.0094435609271790125 0.010083555366791067 -0.00088811877815526659 0.01852258213013095 0.012653820842262697 0.017850251431337588 0.001336370831444745 -0.0034901434911229256 0.023576830795783491 -0.017737249942303482 0.014819322629551039 0.015361646998904549 0.026941896400808917 -0.03996315279280898 0.0070892128461153914 0.0049481864702789254 -0.0023186605184428266 0.009631916743222519 0.039351061715578006 -0.0093343031690741474 -0.002188264518048477 0.033701268591526057 0.010646332316611069 -0.0074459372344335912 -0.0023032612761267122 -0.013484852870022851 -0.042922745999242021 -0.0065037040950264025 0.0042564579145187844 0.0143781558013287 0.035852054712670708 -0.0270670105275834 -0.039624733523849473 0.00028346305719883504 -0.0038395731356496796 0.033329661023465414 0.013609893657649511 -0.017396228303519782 -0.030400616303993665 -0.021198906576833435 0.0097920483501329082 -0.010529549873755864 -0.024540268733950432 0.0082920664211660004 0.0021725130314640142 0.0069095235931339316 -0.041066397554454501 0.03597751202867365 -0.013581771861380076 -0.022636905287862778 -0.011003061159842254 -0.041458325932889208 -0.024676207347031739 0.014774055254361559 0.0030945439107459218 -0.030766477502510201 0.021239053798701616 0.0041881797978547044 -0.032933566448366328 0.023545992815694371
leaf_weight=4036.5198410451412 11241.308826506138 1293.0039212554693 36454.910460948944 13900.765000700951 11710.026091888547 12272.43123356998 922.40073335170746 5733.3351866602898 7830.8897764086723 43069.200315222144 2531.3701882660389 17279.841369360685 14703.290147095919 156.86723813414574 6028.5206414461136 2819.9975905567408 15084.929281786084 50795.349026143551 34466.984669223428 944.77616429328918 12324.597786411643 5993.7600246071815 38628.963675245643 13233.806499063969 34282.41398178041 11794.897493302822 38171.585565194488 5778.8290752917528 6236.695379525423 32792.135866314173 2859.7382960915565 60468.007512822747 4011.4994930177927 21921.719224944711 6572.5239674299955 2572.2229680716991 660.61393022537231 2161.7702304571867 45310.196079701185 9865.8430832326412 5492.8459552079439 24404.726398378611 51975.222038254142 35318.733245208859 22947.304282978177 102560.00275456905 25617.811803132296 10509.812522634864 9325.8973874598742 4362.6488283723593 13039.678119212389 11608.134345859289 22959.456806004047 7180.8523682057858 10399.076859638095 3540.1703238934278 67965.645652398467 312.76900637149811 2910.3067761510611 14756.093532726169 8026.1498364657164 4094.4041179716587
leaf_count=13859 16883 3120 84675 25510 24822 20685 1647 9446 15858 93513 4019 43656 25133 267 8651 8604 29022 98406 73339 1766 13392 13848 82316 17448 60902 26669 81801 14044 19444 73638 5569 98815 4763 60176 19947 5407 1399 2756 73950 24696 15519 63360 95263 82756 61585 186342 51956 16989 28549 5251 31482 30519 53893 22169 28085 5844 134402 661 4583 28985 23037 6301
internal_value=5.096e-05 -0.0165395 0.00793383 0.00502649 -0.0109741 0.0189077 -0.0291809 0.0086275 0.0164728 -0.000669406 -0.00637056 -0.0164043 0.0113992 -0.0356658 0.0138751 -0.0238548 0.00177348 0.00531937 0.00193387 -0.0244266 0.0327262 -0.0205838 -0.0057115 0.0253562 0.0149008 -0.00910266 -0.000633017 -0.0265336 -0.0294885 -0.0103174 -0.0120133 0.0106806 0.0252702 -0.0325069 -0.0299674 0.0118485 0.0300138 0.0140902 0.0162212 -0.0150296 -0.018753 -0.0200665 0.00739841 -0.0128987 -0.0262325 0.00911104 -0.00137766 0.013273 -0.0401262 0.0279687 -0.0185481 -0.0130137 -0.0149119 -0.0463493 -0.0206829 0.0218244 0.00428265 0.00869059 0.00938167 -0.000367238 -0.0301862 0.0197339
internal_weight=1.10823e+06 356958 751269 593925 247848 157344 109109 363880 133778 230045 134140 113708 197986 49194.4 103517 59914.9 154961 165894 63123.8 58992.5 23565.9 58250.2 75083.9 30261.3 95685.7 90864.7 43275.2 48181.9 32004 79154.6 55458.3 188241 9744.83 37977 28494.2 5103.59 17988.8 89657.2 55374.8 10810.6 48931 42937.3 102771 52598.6 25767.3 117263 68687 70977.8 9482.76 10064.6 37444.4 46362.5 34567.6 11217.4 16177.9 5701.94 86273.7 18308 17995.2 49223.1 9319.15 4755.02
internal_count=2281392 887953 1393439 1144119 583115 249320 304838 662991 219045 481128 300768 282347 341488 144967 173212 159871 314137 321503 127834 158224 30275 150366 166991 45833 157354 209541 91227 131762 89633 184719 131981 327279 14209 108939 80123 9426 25148 148703 87801 26462 124209 110361 193669 126412 70189 211475 145469 115804 28816 13851 94842 111081 84412 36028 42129 8600 168668 34266 33605 102324 26157 7700
is_linear=0
shrinkage=0.035


Tree=8
num_leaves=63
num_cat=0
split_feature=16 16 23 17 17 17 21 16 46 17 13 35 11 35 35 56 35 56 15 25 3 30 16 19 26 11 23 21 9 30 20 35 44 56 35 56 35 35 2 45 35 17 25 56 35 44 25 56 16 56 35 56 35 35 56 21 45 20 25 21 56 35
split_gain=110280 18847.8 18654.7 9295.85 3880 3513.57 3476.72 2703.54 1996.13 1897.49 1732.01 1591.88 1429.55 1408.15 1268.46 1543.26 2144.35 1268.07 1021.27 909.708 885.191 876.955 863.294 809.819 799.727 764.833 703.691 703.412 675.753 652.461 629.904 626.905 626.789 613.591 1981.02 769.432 1126 610.345 594.845 592.142 587.789 573.784 568.756 547.397 643.25 523.899 506.791 492.408 488.254 487.595 1117.87 605.087 956.055 477.234 950.478 447.881 429.668 492.015 421.69 420.741 420.066 714.529
threshold=0.03063840884715319 0.021405148319900039 -0.086646199226379381 0.039138261228799827 0.028738138265907768 0.01933163404464722 -0.10208946838974951 0.049363350495696075 0.71970251202583324 0.031832905486226089 0.035921890288591392 0.015927341766655449 -0.16956147551536557 0.010503612458705904 0.026568906381726268 0.45780096948146826 0.017195533029735092 0.63686034083366405 0.034451853483915336 0.02482092380523682 0.035259544849395759 0.64527994394302379 0.067027151584625258 -0.17127304524183271 0.81470620632171642 0.093500256538391127 -0.087866097688674913 0.0024993004044517879 -0.15474396944046018 0.54467111825943004 -0.020599244162440297 0.06857550144195558 0.14227572828531268 0.30951568484306341 0.010258899070322515 0.18909928202629092 0.0072233122773468503 0.01441352302208543 -0.01534023880958557 0.38066205382347112 0.017374013550579551 0.013948836829513313 0.23554784804582599 0.25060123205184942 0.01300389599055052 0.54806685447692882 0.082306213676929488 0.55035659670829784 0.016724145971238617 0.13029323518276217 0.0049585688393563041 0.084347777068614974 0.0038966287393122916 0.027332491241395477 0.61915084719657909 -0.01734572276473045 0.4815200567245484 -0.029211021959781643 0.15095385909080508 -0.066486403346061693 0.34872141480445867 0.019274436868727211
decision_type=2 2 2 2 2 2 2 2 2 2 2 2 2 2 2 2 2 2 2 2 2 2 2 2 2 2 2 2 2 2 2 2 2 2 2 2 2 2 2 2 2 2 2 2 2 2 2 2 2 2 2 2 2 2 2 2 2 2 2 2 2 2
left_child=1 5 6 9 14 19 22 21 10 24 25 29 32 48 15 16 33 -16 -10 41 58 37 -2 -20 -4 28 -13 45 -8 -6 -28 -19 -9 34 35 36 49 55 -15 -29 -17 -1 59 -36 -45 -21 -25 -42 -7 50 51 52 -3 54 60 -5 -43 -58 -11 -14 -40 -62
right_child=2 4 3 7 11 13 8 12 18 20 -12 26 42 38 17 40 -18 31 23 27 -22 -23 -24 46 -26 -27 30 39 -30 -31 -32 -33 -34 -35 43 -37 -38 -39 53 -41 47 56 -44 44 -46 -47 -48 -49 -50 -51 -52 -53 -54 -55 -56 -57 57 -59 -60 -61 61 -63
leaf_value=-0.050725278800073555 0.024842478418609319 -0.016457517078923869 -0.011127270274876099 0.0062134574035429572 -0.01682280144537019 -0.039014624512549924 0.041106882371991123 0.017650881363621515 -0.0019320591262260158 -0.002873042115828004 0.033406174831873858 0.006674429702751593 0.014370730254309459 0.016770726977084996 0.0036332136410614289 -0.037405242760019199 0.0056242032676159064 -0.014851727262736338 0.028199481658997941 -0.021961543981995839 0.003875725883283583 0.0068828435803712376 0.037883659329089062 0.0083325771451204754 -0.0031776406830801413 0.028413568692703145 -0.0087143525515119922 -0.060837822415229705 0.013208944316373985 -0.0083941008233584316 -0.001589377296574741 0.030274870669089821 0.036390025287230801 -0.023054601404885546 0.018318351769092824 -0.026205540956984057 0.009564017160211406 0.0047625052841884646 -0.012048856050691089 -0.034676164922598111 -0.015167583521537142 -0.041113248407837095 0.012899560321836609 -0.015345279871814858 0.01374775903757763 -0.035780986987428431 0.014777366123375981 -0.027342291696836538 -0.026985951224335305 -0.026127804109134591 0.0091551741593240473 -0.029916458265188735 0.020060496206845302 -0.014960530931417023 -0.037603921776337854 -0.0043581029239639704 -0.00078227979158476972 -0.032974106538699866 0.0054324004959757782 0.0080635263942957728 -0.027404110823992221 -0.015074926913645962
leaf_weight=5144.2978371828794 15950.325308188796 10732.480316966772 22291.604849874973 6288.944012850523 15214.094980984926 5210.7749883681536 1120.3500600755215 6473.5246741622686 5178.8700400292873 54146.558644354343 12345.280223205686 8373.5877463966608 14808.690472468734 548.48758114874363 7631.5475697517395 4075.0361823141575 5874.2849442660809 15369.538134425879 4697.6350892484188 10839.556505188346 76880.175482675433 114085.27015274763 10249.848046138883 19612.784192368388 50959.782427817583 6353.6338035464287 23406.573020815849 1320.1306065320969 21021.267639711499 43366.066813245416 43395.434373795986 384.2968253493309 3317.6765551865101 13657.194333821535 2130.4355722367764 9463.3584560155869 2175.8190737962723 37263.58072014153 6478.5441327989101 5567.5171387344599 6705.9652456045151 10507.054503038526 65815.562961086631 2334.6876125633717 1544.7738742977381 4903.494870454073 63351.112947121263 10458.608071118593 20595.258293971419 5258.5631794184446 2233.01827865839 3589.4452805966139 953.95969238877296 16866.675016388297 4280.4310668408871 22326.571848005056 681.31167981028557 4067.2038257867098 8686.3034240156412 104727.83084881306 13491.947989702225 10093.127678647637
leaf_count=17067 24658 26827 52645 12140 37842 15775 1114 10748 10868 116703 16065 16531 25587 900 15130 12118 11258 37689 6349 28393 151190 216688 11646 36009 109974 8898 53755 4676 37841 99309 92298 494 3907 36277 3407 25909 3970 73057 15330 16330 16577 32246 107919 5775 2646 14496 103246 28726 56399 14348 4087 10114 1475 41355 12773 48381 1436 11755 16927 191061 37192 24825
internal_value=3.42321e-05 -0.0159135 0.00768725 0.00480505 -0.0102079 -0.0271887 0.0182881 0.00812072 0.0160022 -0.00103492 0.022452 -0.00625868 0.0109743 -0.0227365 -0.0152587 -0.017328 -0.0144534 -0.00807249 0.0131641 -0.0352118 0.00135706 0.00502614 0.0299482 0.0140564 -0.00559756 0.017703 -0.00288734 -0.0303672 0.0146257 -0.0105843 -0.00408659 -0.013745 0.0240102 -0.0166353 -0.0144643 -0.0177028 -0.0144737 0.00181017 -0.0194031 -0.0397118 -0.0254375 -0.0405809 0.0102853 0.0040703 -0.00375051 -0.0262721 0.0132545 -0.0225902 -0.029419 -0.0167731 -0.0139589 -0.0173407 -0.0134706 -0.0197919 -0.0221626 -0.00203325 -0.0371517 -0.0283649 -0.00172417 0.00884541 -0.0199605 -0.0221311
internal_weight=1.10688e+06 358925 747953 588072 238329 120596 159881 375108 133681 212964 40840.5 133756 195143 77565.2 104573 81187.6 59948 23385.4 92840.4 43030.6 139713 179964 26200.2 87661.5 73251.4 28495.3 75175.6 22630.7 22141.6 58580.2 66802 15753.8 9791.2 54073.7 40416.5 34406.6 24943.3 65879.1 51759.2 6887.65 21239.6 20399.9 185352 6009.9 3879.46 15743.1 82963.9 17164.6 25806 22767.5 17508.9 15275.9 11686.4 51210.7 34344.1 28615.5 15255.6 4748.52 62832.9 119537 30063.6 23585.1
internal_count=2281131 887510 1393621 1136927 556562 330948 256694 689488 220390 447439 63918 299735 339222 204549 256827 203514 146093 53313 156472 126399 284820 350266 36304 145604 162619 47853 162584 63895 38955 137151 146053 38183 14655 134835 98558 86730 60821 133578 132375 21006 57421 62504 324567 11828 8421 42889 139255 45303 72174 56851 42503 38416 28302 131475 90120 60521 45437 13191 133630 216648 77347 62017
is_linear=0
shrinkage=0.035


Tree=9
num_leaves=63
num_cat=0
split_feature=16 16 17 12 17 25 16 17 19 17 16 35 35 33 35 56 56 35 33 26 3 25 44 14 16 47 20 21 44 25 56 35 20 44 46 56 56 35 35 56 35 38 25 20 35 35 35 56 56 35 56 35 56 19 53 35 35 35 14 17 21 35
split_gain=102852 17729 14893.1 7430.97 3874.09 3163.41 3143.78 2913.55 2635.44 2429.72 1909.74 1462.15 1379.57 1023.09 971.412 1067.92 999.94 1714.47 908.754 870.851 851.737 817.091 794.036 851.622 758.5 713.647 696.505 670.098 650.812 609.765 614.454 608.119 607.609 689.917 593.013 589.634 562.846 555.466 554.428 549.748 700.542 545.963 669.691 540.734 535.395 530.579 527.172 523.754 517.388 1652.44 616.925 903.854 491.069 481.708 478.455 466.863 456.184 445.227 436.334 428.953 427.53 508.732
threshold=0.03063840884715319 0.02239713724702597 0.041079333052039153 -0.21553972363471982 0.01933163404464722 0.17951250076293948 0.064197361469268813 0.028877439908683303 -0.1160408705472946 0.032940566539764411 0.04044845141470433 0.027332491241395477 0.015927341766655449 0.71294292807579052 0.027332491241395477 0.63686034083366405 0.46461166441440588 0.017195533029735092 1.4637938141822817 0.8686158061027528 0.048021852970123298 0.18199548870325091 0.74658611416816723 0.047247631475329406 0.018811070360243324 0.0089132892899215239 -0.10795726627111434 0.0089634866453707236 0.12675561755895617 0.16422399133443835 0.43130244314670568 0.0178829450160265 -0.0055256893392652265 0.46458438038825994 0.91108822822570812 0.42791731655597692 0.62271261215209972 0.020011361688375476 0.06857550144195558 0.5371178686618806 0.032635034993290908 0.12632179260253909 0.29972778260707861 -0.066968597471714006 0.024650457315146927 0.018747463822364811 0.0071146248374134311 0.47131150960922247 0.30951568484306341 0.010385270696133377 0.18909928202629092 0.0083479569293558615 0.57411521673202526 -0.1542561128735542 0.45605793595314031 0.031005992554128173 0.010629095602780582 0.017536293715238575 0.025204793550074104 0.015774697065353397 -0.042825365439057343 0.012184061575680973
decision_type=2 2 2 2 2 2 2 2 2 2 2 2 2 2 2 2 2 2 2 2 2 2 2 2 2 2 2 2 2 2 2 2 2 2 2 2 2 2 2 2 2 2 2 2 2 2 2 2 2 2 2 2 2 2 2 2 2 2 2 2 2 2
left_child=1 4 8 6 18 10 21 14 28 19 57 24 35 -11 16 -16 17 48 25 55 37 53 23 -7 46 -1 -22 32 -2 30 -14 -15 59 -34 -25 60 45 -12 -17 -33 -41 42 -24 -8 -32 47 -6 -26 49 50 51 -3 -46 -4 -21 -10 -50 -5 -13 -27 -9 -62
right_child=2 7 3 5 11 22 43 12 9 13 20 58 29 31 15 38 -18 -19 -20 54 26 -23 41 34 36 27 -28 -29 -30 -31 44 39 33 -35 -36 -37 -38 -39 -40 40 -42 -43 -44 -45 52 -47 -48 -49 56 -51 -52 -53 -54 -55 -56 -57 -58 -59 -60 -61 61 -63
leaf_value=-0.048701860630621839 0.010738343461188755 -0.014614250480318381 0.027764823419800518 -0.0011144131403604185 -0.035310163691210504 0.014123694203924312 0.039294412096238691 -0.0035818515423682463 -0.011020245989176905 -0.0024043489292974855 0.004111861793065612 -0.014536512735046315 0.0067968774186585919 0.0017160687993864865 0.0052934182498815974 -0.013477365886709222 -0.022458371188276906 0.0050468774283126874 -0.019264911444162321 0.0073374097015756106 0.022381825000382792 0.027481407876580551 0.010688002389818064 0.032760080436987422 -0.020123177159784466 -0.045480595463557018 0.010320839083450549 -0.04328363144971329 0.029557667539093432 0.007068519287856974 -0.010154739261173693 0.012105346442339687 -0.019130230859836644 -0.034313419524204768 0.016488422859449233 -0.024159547651640668 -0.034703243384292516 0.0097805893046762991 0.030226752364169166 -0.0010373232146311578 0.0076155394115845366 0.0065684894844318872 0.01590768729112918 0.026257488971060713 0.0063155593984341504 -0.011797029052546336 -0.024770378235414309 -0.035746256123340439 -0.038200239367053565 0.00556413546039238 -0.02417761328585899 0.020012345535714009 -0.0041708297075093367 0.01261685981460944 -0.0028192818691341903 -0.0016047695516995337 -0.018760950098023223 0.0048780576031836938 0.0031418258262121642 -0.032248495796363227 -0.012561205646625311 -0.0017703197995323876
leaf_weight=4239.9752051830292 4904.6381912082434 20933.229585617781 2902.1248635947704 32146.289567679167 8108.9295494556427 22598.74595195055 12769.736244782805 14152.574280917645 26248.80156069994 37008.771770179272 53488.115350008011 20362.933637440205 6458.7735133767128 63193.163436830044 6119.7310459166765 13248.998275473714 19208.660495281219 5670.9604759067297 5019.4362391531467 6388.8958667963743 6269.0605791658163 7459.7412779927254 69901.529466226697 6530.1775243878365 32043.016005858779 4364.6380553245544 92368.779632255435 6930.6141205430031 4177.5454903244972 7606.4206381738186 15418.601918920875 16245.82984469831 7958.5871777832508 6841.6753312200308 4764.2806718349457 3244.4603595733643 3197.5619860887527 35093.041653946042 363.07531513273716 17225.185039669275 34211.709995910525 19057.526441276073 53033.959522470832 5667.5929545909166 6505.683517858386 8837.4823452979326 20915.443131089211 2873.2734027653933 1727.5776361525059 4962.8320730924606 8564.8338966369629 963.54219220578671 34263.712712869048 22939.294079914689 51104.353137552738 8566.2749948054552 10512.204003602266 28776.139896482229 1862.9182432740927 9904.3542282134295 31352.775037527084 6463.7260261625051
leaf_count=13974 9055 51236 4098 67339 23867 39412 14131 30856 61970 79576 104247 49807 12361 128268 11872 32036 50619 10971 12855 12307 9613 11191 123541 8647 82479 13973 163748 21753 5854 14904 35990 28926 20324 19978 7628 8573 9318 64289 473 35901 63918 32345 84012 8260 12590 20948 56300 8445 5179 9605 23003 1486 75090 40784 109500 18348 26881 56726 3633 28435 74861 13734
internal_value=1.90486e-05 -0.0153081 0.00744985 0.0111727 -0.0248611 0.0096445 0.0236953 -0.00901364 0.000872066 0.00022495 0.00709894 -0.0209547 -0.00554097 0.00273299 -0.0137348 -0.00684504 -0.0156081 -0.0131395 -0.0333351 -0.00433609 0.00885051 0.0172719 0.0132355 0.0180515 -0.0232654 -0.0350883 0.0110882 -0.0334813 0.0194032 -0.0022866 -0.00342323 0.00418599 -0.0311402 -0.026155 0.0259035 -0.00968093 -0.0205107 0.0063582 -0.0123048 0.00649144 0.00471726 0.0120854 0.0129403 0.0352921 -0.00459884 -0.0194712 -0.0277185 -0.0214118 -0.0153042 -0.0131567 -0.016208 -0.0130873 -0.0024964 0.0143214 -0.0016898 -0.00870479 -0.0215134 0.00171557 -0.013053 -0.0363042 -0.00877545 -0.0107179
internal_weight=1.10624e+06 361203 745041 475766 143461 424028 51738.5 217742 269275 260193 248141 98201.6 125467 167885 92275.6 19731.8 72543.8 53335.2 45259.3 92308.3 187219 33301.2 175886 33893.2 75975.7 40239.8 98637.8 35999.9 9082.18 70253.2 62646.8 130876 29069.3 14800.3 11294.5 55213.5 46951.3 88581.2 13612.1 67682.7 51436.9 141993 122935 18437.3 56188 43753.8 29024.4 34916.3 47664.2 35424.4 30461.6 21896.8 40769.4 25841.4 57493.2 34815.1 12239.8 60922.4 22225.9 14269 51969.1 37816.5
internal_count=2282043 888409 1393634 840011 386089 761547 78464 502320 553623 538714 465962 254797 278959 336589 223361 44381 178980 128361 131292 202125 341897 56073 295585 55687 201357 118437 173361 104463 14909 150935 136031 257013 82710 40302 16275 128024 121190 168536 32509 128745 99819 239898 207553 22391 123670 111872 80167 90924 117390 85330 75725 52722 87680 44882 121807 80318 32060 124065 53440 42408 119451 88595
is_linear=0
shrinkage=0.035


Tree=10
num_leaves=63
num_cat=0
split_feature=16 23 17 17 20 16 47 16 25 16 17 23 44 47 16 3 16 14 3 27 19 30 45 52 33 19 24 19 10 3 3 47 47 15 15 47 17 25 17 10 17 23 15 18 38 48 46 24 24 45 44 17 31 52 19 44 15 24 48 8 3 26
split_gain=94547.3 18961.1 12606.5 9052.54 3405.59 3041.38 2674.74 2618.36 2416.54 2339.55 2063.5 1204.7 1147.41 1120.64 1115.4 1014.35 1002.92 944.032 822.205 791.541 768.544 713.151 666.281 666.012 654.15 633.039 604.803 596.147 567.077 562.86 555.796 506.477 502.211 472.063 471.021 482.172 470.706 469.21 458.175 453.299 444.688 444.092 664.467 441.95 430.506 429.386 401.387 396.644 392.276 422.57 389.736 388.052 419.774 531.2 378.627 375.067 367.59 355.223 354.983 444.977 371.851 335.67
threshold=0.029008316807448867 -0.078464686870574937 0.023325049318373207 0.038976492360234267 -0.1246824450790882 0.023931276053190235 0.61132848262786876 0.040247332304716117 0.18436320871114734 0.017933439463377002 0.030441072769463066 -0.081250041723251329 0.82258337736129772 0.028482243418693546 0.041719006374478347 0.033643424510955817 0.067027151584625258 0.033065099269151695 0.043421506881713874 1.6765161752700808 -0.09776881709694861 0.55208176374435436 0.40279679000377661 0.80850684642791759 0.55048871040344249 -0.14284101873636243 -0.10571089014410971 -0.1542561128735542 -0.019434154033660885 1.0000000180025095e-35 0.035259544849395759 0.23772720247507098 0.56016677618026745 0.0080007617361843603 0.033721866086125381 0.81073057651519786 0.031274609267711646 0.194760836660862 0.017824146896600727 -0.011952549219131468 0.049102814868092544 -0.060968369245529168 0.014207819476723673 -0.092530112713575349 0.097847472876310362 0.74258509278297435 0.71593940258026134 -0.074732098728418336 -0.059107748791575425 0.91917550563812267 0.58667367696762096 0.02901652175933123 0.77984353899955761 0.56176635622978222 0.14425125718116763 0.56088435649871837 0.013807959854602815 -0.13645553588867185 0.53547763824462902 0.13516885042190555 0.054371654987335212 0.74556395411491405
decision_type=2 2 2 2 2 2 2 2 2 2 2 2 2 2 2 2 2 2 2 2 2 2 2 2 2 2 2 2 2 2 2 2 2 2 2 2 2 2 2 2 2 2 2 2 2 2 2 2 2 2 2 2 2 2 2 2 2 2 2 2 2 2
left_child=2 4 9 10 16 21 17 26 14 13 30 32 48 -1 43 47 46 -6 37 20 -11 29 38 -21 -15 -20 -5 -16 61 -4 -3 41 -7 -26 -29 -36 -31 -9 -22 -35 -27 -23 -43 -8 -14 54 -2 -12 49 -10 -24 52 -30 -54 -32 -41 -33 -19 59 60 -17 -13
right_child=1 3 5 7 6 11 8 18 12 19 15 28 44 24 27 58 -18 57 25 23 22 31 50 -25 33 40 -28 34 51 36 45 56 -34 39 35 -37 -38 -39 -40 55 -42 42 -44 -45 -46 -47 -48 -49 -50 -51 -52 -53 53 -55 -56 -57 -58 -59 -60 -61 -62 -63
leaf_value=-0.041034192081214137 0.030290244265943612 -0.0095966383236236342 0.021095595501731314 -0.0013357230540577158 0.01711117953192668 0.015149363797809462 0.034091291690114593 0.0046024897096343569 0.027369082950822837 0.028526094653212871 -0.0053323785670272095 -0.017395041935334823 0.016556095820269203 -0.042568761864377427 0.024252114686293211 0.0058480401498878344 0.038006371476148472 0.033705484820788334 0.024664073422776291 0.023407312414267727 -0.039717943317014941 0.00021330603958242292 -0.015322185737264307 -0.013318904092962177 -0.046211120450137262 0.0076007749800680339 0.0045387525857506173 0.00074454369042812826 -0.012218310673056119 -0.025963658767703547 0.0017524485471039312 -0.028301489084090085 -0.0015417121891037997 -0.031364499091372226 0.018125205813465183 0.0096331533965329317 -0.016303244631941126 0.010462439572575363 -0.025167928705592226 -0.019786121773823225 0.011261752667458437 -0.011563782603118257 -0.02569198476755221 0.0010194616045977982 0.0088026568469030553 -0.0073188535447858234 0.013149630932522159 -0.00025830663900245666 0.014990780675966899 0.012436354203442319 -0.02352273147594958 -0.0039130294867377362 0.032013637832279729 -0.004837778425872602 -0.045679258704458735 -0.030499433593221683 -0.011221196574031929 0.0228486233419706 0.0016616893824260991 -0.035405822854834755 0.020732920572662041 -0.0098689057453021506
leaf_weight=11335.341639339924 2974.005071952939 39779.666942045093 382.39484924077988 41667.302243292332 12621.974093407393 3476.4591695070267 505.24637380242348 69023.38668063283 18480.726369172335 357.5795055180788 37386.454253301024 8895.8270016312599 25508.777333214879 3641.1358944028616 3956.4222676157951 14365.438985288143 10090.082370787859 10542.809593304992 3597.0406063497066 673.87459672987461 3015.4139367341995 1394.7234188765287 15440.657294124365 5723.7907282710075 1491.364927276969 67088.321433067322 44270.50604967773 5812.5451651066542 18662.966541066766 13608.948767200112 14222.208971887827 1605.1316562891006 6038.0105184018612 12165.705798178911 10119.845019742846 43323.318769723177 11401.125432893634 22120.014388933778 22954.96439409256 14448.436643615365 103530.23555088043 6620.6652423739433 10687.000793889165 20687.619536370039 13420.806531772017 15545.365511730313 3863.0638343244791 38138.533009126782 5532.7360303401947 2670.9848157018423 13244.085775658488 36947.389869123697 518.84992022812366 5970.9068511128426 207.16188456118107 5578.9421309679747 41573.374334335327 5756.6618933081627 78293.243336737156 292.39506407082081 2401.5152855068445 39970.886304929852
leaf_count=35292 4123 92475 535 88083 21956 6276 579 134618 26946 501 82992 22230 40702 11343 5851 28178 11454 14060 5351 1024 9227 3023 38075 13737 4784 124230 86713 11836 44415 36867 29552 4462 12888 34714 16753 77383 28375 39603 62065 37281 177828 15686 29210 42911 22479 34706 6822 79591 9595 4457 35461 80501 654 13060 471 15782 97678 9294 158124 646 3841 92734
internal_value=4.06979e-05 0.00654168 -0.0160731 0.0034181 0.0159811 -0.0109989 0.014561 0.00700037 0.0126813 -0.0256499 -0.00181151 -0.00739395 0.0177201 -0.0313844 0.0087636 0.000259106 0.0309881 0.0243082 0.00871997 -0.0211045 -0.0224601 -0.0159748 -0.0227954 -0.00943891 -0.0284508 0.0101295 0.00169012 0.0110933 -0.00841886 -0.0209175 -0.00688426 -0.0139455 0.00455521 -0.0269213 0.0102133 0.0112425 -0.0215629 0.00602525 -0.0268616 -0.0260238 0.00982254 -0.0187607 -0.0202915 0.0018127 0.0138846 -0.00328308 0.0206173 -0.00277062 0.0233129 0.0254864 -0.0191111 -0.00619777 -0.00955191 -0.0018772 0.00106281 -0.022775 -0.0118582 0.0298765 0.0026592 0.00723448 0.00798429 -0.0112404
internal_weight=1.10562e+06 787796 317826 591929 195868 207755 178940 351297 150019 110071 240632 120481 65614 48660.9 84405 170878 16927.2 28921.4 265359 61410.4 55012.7 87273.4 54655.1 6397.67 37325.6 174216 85937.8 63212.1 110967 25392.5 69754.4 61880.9 9514.47 33684.4 59255.7 53443.2 25010.1 91143.4 25970.4 32193.1 170619 18702.4 17307.7 21192.9 38929.6 29974.7 6837.07 75525 26684.4 21151.7 28684.7 62100.1 25152.7 6489.76 14429.4 20027.4 43178.5 16299.5 95352.6 17059.3 16767 48866.7
internal_count=2282083 1494203 787880 1167002 327201 488594 304802 656426 259492 299286 510576 272758 104179 139196 155313 353372 22399 45310 481630 160090 145329 215836 144828 14761 103904 307409 174796 111823 253594 65777 157204 150059 19164 92561 105972 94136 65242 174221 71292 87777 302058 47919 44896 43490 63181 64729 10945 162583 40998 31403 73536 138630 58129 13714 30023 53063 102140 23354 190789 32665 32019 114964
is_linear=0
shrinkage=0.035


Tree=11
num_leaves=63
num_cat=0
split_feature=17 17 23 3 12 3 17 17 47 25 35 23 21 25 33 30 3 35 23 10 14 25 45 35 56 35 56 35 12 56 35 47 27 56 12 14 2 10 12 44 35 10 56 47 11 56 35 9 35 30 14 17 45 56 11 21 56 35 12 18 23 15
split_gain=83926.8 16484.2 13838.4 7445.84 4324.33 4099.5 2563.99 2251.98 1880.21 1610.94 1602.1 1556.17 1544.66 1469.24 1456.5 1148.94 1043.84 954.368 911.822 894.752 856.754 840.789 833.539 818.787 991.286 948.885 934.622 822.274 813.118 750.215 886.329 739.867 717.274 701.111 647.731 645.329 622.605 586.046 582.13 780.29 553.64 551.273 531.446 599.759 526.038 514.695 675.188 501.62 495.426 469.568 458.874 437.259 432.773 429.267 421.731 415.479 415 724.241 413.753 412.605 411.189 405.526
threshold=0.033208297565579421 0.023491668514907364 -0.087866097688674913 0.033263444900512702 -0.24523079395294187 0.027109205722808841 0.018142843618988994 0.043372699990868575 0.62936702370643627 0.14233208447694781 0.031005992554128173 -0.097216039896011339 -0.066486403346061693 0.15631437301635745 0.91385492682456981 0.54051956534385692 0.040853977203369148 0.014128708280622961 -0.098262429237365709 0.0074520707130432138 0.033563941717147834 0.22342951595783236 0.055179597809910781 0.01839318219572306 0.53045523166656505 0.031977647915482528 0.39485421776771551 0.012452324852347376 -0.32572263479232783 0.25060123205184942 0.0090318676084280031 0.92568787932395946 0.44904822111129766 0.72774037718772899 -0.15645396709442136 0.052365805953741081 -0.06676697731018065 -0.11974653601646422 -0.20327383279800412 0.55243095755577099 0.013278726954013111 -0.11355212330818175 0.72364968061447155 0.2796653956174851 -0.21974509954452512 0.44471029937267309 0.025108911097049717 -0.093416303396224962 0.018049460835754875 1.0014225244522097 0.029532879590988163 0.014620983507484199 0.32753872871398931 0.32568731904029852 0.025270521640777591 0.040603784844279296 0.15950471907854083 0.0062289636116474876 -0.19931763410568235 0.021501966752111915 -0.070936352014541612 0.018787475302815441
decision_type=2 2 2 2 2 2 2 2 2 2 2 2 2 2 2 2 2 2 2 2 2 2 2 2 2 2 2 2 2 2 2 2 2 2 2 2 2 2 2 2 2 2 2 2 2 2 2 2 2 2 2 2 2 2 2 2 2 2 2 2 2 2
left_child=1 6 4 9 22 10 19 38 20 17 15 -7 44 16 37 -3 36 32 50 41 55 48 28 26 -25 -26 27 29 -2 30 56 35 -4 -27 -17 -15 -10 -8 52 40 -40 -1 43 -20 -9 -19 -47 -16 -14 -36 -12 -43 -5 -29 -42 -6 57 -13 -34 -49 -11 -45
right_child=2 5 3 7 8 11 14 12 13 60 18 23 21 31 47 34 -18 45 42 -21 -22 -23 -24 24 25 33 -28 53 -30 -31 -32 -33 58 -35 49 -37 -38 -39 39 -41 54 51 -44 61 -46 46 -48 59 -50 -51 -52 -53 -54 -55 -56 -57 -58 -59 -60 -61 -62 -63
leaf_value=0.022298194469976707 0.029287669488267616 -0.022207712698444026 -0.015686073051103772 0.0086726874832858819 0.010762858457644632 0.019234025268650121 0.026718794712548892 0.03030677722385762 0.033048615665119886 0.012263206941167176 -0.005744392422292792 -0.0060650565075180988 0.0049788842378759284 0.016801019072036093 0.019675361783817284 -0.0059912186423871855 0.012068673560779741 0.0054036564055131497 -0.012378797425571585 -0.02445341580746288 0.030855705331329416 0.011498999108271247 0.03586187044779441 0.0074698505267772998 -0.0093095975530939883 0.0078150948398089982 -0.016565186921860285 0.013668918973508313 0.0072000968252346796 -0.015460301922088577 0.012070407661762655 0.01258144058777535 0.003431451593787496 -0.0040752610801995052 -0.015584549965693077 0.029034014998225128 0.0014998828066945769 -0.025382682266320226 -0.0050767454464172223 0.0052360032404202171 0.00064127648286119144 -0.04304625081898536 -0.011308589668090072 0.013554213640763693 0.015247247900650494 -0.0071802527397976891 0.00036583044582053895 -0.017735524977381355 0.0092386927481342453 -0.0087934442017621895 0.031811924317186491 -0.032815528623964807 0.035624841148957261 -0.0022232659410130343 0.011579479234854136 0.025421556358652571 -0.013242167713141491 0.016078842473473326 -0.0059797178096696255 -0.0079403114672562825 0.0031645193538056009 -0.0022778741614152167
leaf_weight=197.49872802197933 6416.2835764437914 19277.092608854175 8638.1404059827328 16174.162614732981 6183.5392228364944 3523.2770674526691 263.94528837502003 3192.4252102971077 790.65148843824863 7329.975731998682 599.08902107179165 18986.591588661075 80706.138886108994 17035.57414893806 479.927171215415 14459.481522753835 34206.895579248667 14528.044797495008 4091.3678063452244 13932.592436939478 10102.323157906532 68182.744795843959 13408.240082383156 12260.376827836037 20567.756451591849 10345.236343979836 10696.516929656267 3726.8545534014702 3003.4238221347332 10165.999532356858 3497.6081344336271 32773.733415603638 6544.7465582787991 14708.014164552093 57269.313273340464 7686.8725114762783 23200.090145558119 42234.34099636972 19201.489708811045 74811.101600989699 25331.87323756516 7635.7890687137842 14438.494757905602 3281.3392381221056 26354.061044767499 20490.051858827472 49855.059960752726 34269.176801115274 57201.223204910755 15992.096787318587 1176.8692985922098 15967.056356474757 763.63183295726776 4706.6325415074825 5205.426779717207 3857.121574267745 8204.8114828467369 1997.2431249916553 45248.572682961822 6247.0136341899633 35913.429155871272 4991.6645957529545
leaf_count=318 8920 50686 21200 30413 11849 5894 367 4286 907 13419 1363 42320 154034 28800 838 32364 59637 28381 9841 37674 14387 115176 16911 23192 47517 19588 26483 6451 5840 25013 6184 54085 13154 31970 141290 10583 47645 114738 42137 143858 52217 24146 34008 5629 45150 46090 103410 86519 104154 36767 1552 46321 940 10096 9351 5916 19844 3328 100299 14179 71849 10741
internal_value=2.95856e-05 -0.0132871 0.00701934 0.00445711 0.0161538 -0.00830046 -0.0239389 0.00729641 0.0137843 -0.00122175 -0.0125016 -0.00368391 0.00939229 0.0120651 -0.0205149 -0.0144681 0.00814305 -0.00298678 -0.00513737 -0.0315131 0.0236548 0.00831883 0.0302498 -0.00435816 -0.00136387 -0.00373887 -0.00715364 -0.00518945 0.0222519 -0.00715579 -0.00457108 0.016034 -0.00634832 0.000833457 -0.0127664 0.020608 0.00254375 -0.025057 0.00380556 0.00297716 -0.000419694 -0.035642 -0.00674801 -0.00141859 0.0168775 -0.000592794 -0.00183183 -0.0158045 0.00674613 -0.0141029 0.0191311 -0.0361301 0.00989394 0.0047971 0.0025076 0.0164014 -0.00656708 -0.0039544 -0.00478973 -0.0162266 0.0047081 0.00399917
internal_weight=1.10453e+06 380191 724337 565672 158665 258964 121227 377124 135837 188548 135577 123387 235637 115694 83494.4 106998 58197.6 145305 28578.8 37732.9 20143 206090 22827.9 119864 57881.4 45621 61982.3 51285.7 9419.71 42852.3 32686.3 57496.2 60431.5 25053.3 87720.9 24722.4 23990.7 42498.3 141488 124550 49738.8 23800.3 26802.9 12364.4 29546.5 84873.2 70345.1 40996.1 137907 73261.4 1775.96 23602.8 16937.8 8433.49 30537.3 10040.7 29188.6 20983.8 51793.3 40516.2 43243.4 8273
internal_count=2282219 917221 1364998 1099518 265480 592121 325100 701716 233809 397802 324241 267880 422800 201657 216641 261107 108189 312534 63134 108459 32152 373364 31671 261986 122267 99075 139719 113236 14760 96689 71676 93468 134653 51558 210421 39383 48552 115105 278916 247563 103705 70785 60219 26211 49436 177881 149500 101536 258188 178057 2915 70467 31353 16547 61568 17765 65492 45648 113453 100698 85268 16370
is_linear=0
shrinkage=0.035


Tree=12
num_leaves=63
num_cat=0
split_feature=16 16 23 17 12 17 35 47 16 16 11 17 35 16 56 35 21 19 15 12 45 30 3 56 35 11 56 35 16 47 21 56 35 3 21 44 45 21 20 56 56 35 56 56 35 44 35 56 56 35 21 20 25 35 44 47 11 56 35 35 56 56
split_gain=82685.2 15117.3 14472.8 6719.44 3813.51 2947.52 2738.02 2186.24 1942.42 1647.02 1450.97 1409.7 1262.1 1065.3 985.631 1388.75 817.218 936.212 801.566 772.426 896.081 743.62 707.991 687.77 873.86 646.354 628.116 701.53 642.569 583.478 545.571 541.994 841.872 510.322 508.412 493.595 579.587 699.132 552.799 485.54 471.37 482.31 544.987 544.508 867.183 466.373 461.345 451.713 451.03 507.739 444.818 496.069 433.891 417.848 410.176 553.942 413.746 403.148 501.517 400.985 395.27 393.051
threshold=0.031388938426971442 0.022241043858230117 -0.087866097688674913 0.039927730336785323 -0.21553972363471982 0.01933163404464722 0.027069214731454853 0.71423676609992992 0.051664043217897422 0.025862169452011589 -0.17438945174217221 0.031961990520358093 0.021133235655725006 0.067027151584625258 0.65856322646141063 0.044665841385722167 -0.083053685724735246 -0.028468416072428223 0.035656467080116279 -0.1191592514514923 0.37164121866226202 1.3124666810035708 0.038362205028533942 0.57762888073921215 0.018575092777609829 0.020929217338562015 0.51745200157165538 0.013411528430879118 0.018379986286163334 0.0089132892899215239 0.0057484034914523372 0.61223047971725475 0.027069214731454853 0.029520332813262943 -0.099568277597427354 0.53926786780357372 0.38947165012359625 0.0012271412415429952 -0.0055256893392652265 0.042153270915150649 0.44810034334659582 0.013137486763298513 0.32898311316967016 0.25389134883880621 0.0086826151236891764 0.13448575139045718 0.018049460835754875 0.37523214519023901 0.55716732144355785 0.017195533029735092 -0.10465003922581671 0.11265355721116067 0.043715834617614753 0.076466359198093428 0.27081812918186193 0.89839482307434093 -0.20091602206230161 0.42138256132602697 0.012184061575680973 0.082070861011743559 0.41129176318645483 0.43130244314670568
decision_type=2 2 2 2 2 2 2 2 2 2 2 2 2 2 2 2 2 2 2 2 2 2 2 2 2 2 2 2 2 2 2 2 2 2 2 2 2 2 2 2 2 2 2 2 2 2 2 2 2 2 2 2 2 2 2 2 2 2 2 2 2 2
left_child=1 5 4 11 13 21 9 30 16 23 45 33 26 -2 -8 25 -5 -18 -9 -11 52 29 -13 24 40 -16 27 28 -7 -1 -6 -14 -33 -4 -20 36 37 38 -31 -37 41 43 -43 44 -3 -10 -19 -29 49 57 -12 -52 -21 -34 56 -56 -36 58 -22 -17 -26 -51
right_child=2 6 3 8 7 12 14 18 10 19 50 22 31 -15 15 59 17 46 34 20 48 -23 -24 -25 60 -27 -28 47 -30 35 -32 32 53 -35 54 39 -38 -39 -40 -41 -42 42 -44 -45 -46 -47 -48 -49 -50 61 51 -53 -54 -55 55 -57 -58 -59 -60 -61 -62 -63
leaf_value=-0.04386826730507478 0.02266004087669261 -0.015385648803256076 -0.0086890679329113193 0.011561240233687679 0.017964175456020637 -0.029082747307337987 0.0040798236924518639 -0.00048091478419231036 0.018358014972141734 -0.0021482322972251706 0.017680928926123284 -0.00078461768157801488 -0.0075101358486942688 0.036874532841054013 -0.0135785870329661 0.0011399613539017743 0.00035133952704331523 0.0040238594852706235 0.024006576302247569 -0.021333252614197325 -0.0083540327054615789 -0.019215096879502094 0.0040767508894037664 -0.024576329926009961 0.011670675121593279 -0.0028825190322729391 -0.033455725854554495 -0.0045942840924770492 -0.019797591693314721 -0.034683612341393943 0.028376001825527714 -0.0300222260057613 -0.014186907146097256 -0.002305999973076232 0.015516780428828987 -0.017043499002253767 -0.020588514456466044 -0.051690793773294857 -0.020144893222674983 -0.03968334949860064 -0.025538103635071415 0.0088239972463035193 -0.011642820166407993 -0.022459374240241137 0.0038233422429682362 0.035995698794397644 0.0085880066125025769 -0.017883279012259643 -0.015144040438462842 0.010885756375188431 0.0081494087406362124 0.013325630922033869 -0.010975380806573197 0.013195312183687588 0.01896163708611141 0.011552925602385496 0.0049322204826391242 -0.018084145316455285 0.0016803764428728349 0.017848111192995064 -0.0068515342647360511 -0.003560159825177267
leaf_weight=4034.6052434593439 14743.622241407633 22709.857464313507 23415.664613470435 20783.575970292091 11688.928341120481 13721.696424409747 23099.429130196571 6054.6230892390013 5044.2912724465132 26313.089249789715 7764.9345571249723 75090.758307024837 12879.466693028808 11548.635055944324 17865.703658536077 15497.080544233322 52678.794975474477 61979.310013070703 4602.8896118998528 8707.0502944588661 32055.158289805055 7558.1200370043516 71756.419419750571 7212.0691443234682 1692.1617370247841 11313.842028707266 5000.4484778046608 4368.4559599757195 27551.337368562818 7773.4380277693272 13154.935827836394 4522.9873082786798 16866.820715934038 44571.827994465828 6336.0613686293364 1360.5499370098114 9949.8722706288099 1847.9747959822416 5496.8500740379095 8307.3985758721828 4749.049546033144 2159.4210801124573 6053.8703922331333 10334.287780284882 3292.8626784831285 2908.877586722374 48320.943301066756 11166.909819230437 7246.3392124027014 3367.5753384977579 125245.72332625091 27738.355966642499 11567.280982017517 708.64219582080841 16718.131774887443 47788.607535302639 15879.059043839574 4018.8149366676807 7528.2602290809155 1983.9711268246174 8429.2529388517141 7313.0614905506372
leaf_count=13002 23850 55978 53864 37855 20533 38432 46023 12597 8410 56451 12956 157899 29271 14092 43230 32100 109032 121177 7017 22649 73375 19469 140592 19330 2997 24436 14479 9548 70796 22975 19044 12744 41199 95083 10784 3504 26107 6181 14143 25486 12830 3975 14404 27158 6548 3551 89932 28414 17716 6076 227256 44583 27259 1155 26881 81020 30597 10052 15466 3237 19096 15960
internal_value=3.66684e-05 -0.012983 0.00708708 0.00454059 0.0168138 -0.0220176 -0.00769463 0.0142115 0.00751445 -0.0100347 0.0102264 -0.000338293 -0.0185407 0.0289073 -0.00183198 -0.00475942 0.00502449 0.00419055 0.011846 -0.00736633 -0.00904428 -0.0292793 0.00159066 -0.0143636 -0.0131226 -0.00943306 -0.0215485 -0.0204986 -0.0228867 -0.0312393 0.0234805 -0.0132238 -0.0165512 -0.00450511 0.0126636 -0.029769 -0.027167 -0.0314909 -0.0286679 -0.0365051 -0.015046 -0.0139257 -0.00625663 -0.0156577 -0.0129517 0.0248208 0.00602378 -0.0141498 -0.00694009 -0.00584377 0.00950382 0.00908833 -0.0154271 -0.0130795 0.0120606 0.0134741 0.00795378 -0.00751913 -0.00644474 0.00304004 -0.00374972 0.000992507
internal_weight=1.10344e+06 387625 715815 567299 148515 143116 244509 122223 352465 174749 168702 214835 96786.8 26292.3 69760 46660.6 183763 162979 97379.4 108117 81803.5 46328.8 146847 66632.8 59420.8 29179.5 61808.8 56808.4 41273 38770.7 24843.9 34977.9 22098.5 67987.5 91324.7 34736.1 25068.1 15118.3 13270.3 9667.95 49299.3 44550.3 8213.29 36337 26002.7 7953.17 110300 15535.4 61529.2 54282.9 160749 152984 20274.3 17575.5 86721.9 64506.7 22215.1 43602.2 39583.4 17481.1 10121.4 10680.6
internal_count=2281856 933251 1348605 1102190 246415 376905 556346 208473 654752 407320 296756 447438 246038 37942 149026 103003 357996 320141 168896 245004 188553 130867 298491 162316 142986 67666 161669 147190 109228 111398 39577 84369 55098 148947 156299 98396 69406 43299 37118 28990 120893 108063 18379 89684 62526 11961 211109 37962 138645 120929 284795 271839 49908 42354 149282 107901 41381 98893 88841 35337 22093 22036
is_linear=0
shrinkage=0.035


Tree=13
num_leaves=63
num_cat=0
split_feature=16 16 15 12 16 16 35 25 16 19 35 46 24 19 56 35 35 56 56 35 56 35 32 44 45 56 43 35 56 35 56 46 42 15 25 35 56 56 46 21 12 44 19 56 56 35 11 32 9 45 12 12 11 35 55 20 20 10 35 56 15 21
split_gain=77095.6 13671.3 10867.5 5961.09 2820.22 2225.34 2154.69 2033.26 1934.16 1670.07 1377.3 1261.13 1328.94 1260.1 1204.66 1035.99 977.381 1433.98 1162.33 1386.24 1056.5 1597.96 952.016 861.263 856.215 849.332 848.769 824.03 778.007 1200.11 764.263 694.162 651.262 626.751 571.195 550.557 975.887 704.958 549.881 543.225 529.708 689.664 922.125 521.398 517.907 1150.25 515.285 484.367 481.195 460.467 1072.45 627.038 451.224 443.97 441.177 436.747 486.148 430.421 427.767 494.506 421.218 412.128
threshold=0.031388938426971442 0.023016238585114483 0.031198761425912384 -0.22921547293663022 0.017933439463377002 0.036719311028718955 0.028400500304996971 0.11711714416742326 0.067027151584625258 -0.12724317610263822 0.0080041415058076399 0.71244630217552196 -0.10736038163304328 -0.13410783559083936 0.66563034057617199 0.027332491241395477 0.019457305781543258 0.4845928847789765 0.43838816881179815 0.013278726954013111 0.25389134883880621 0.0085636512376368063 0.66831848025321972 0.42516422271728521 0.78398436307907116 0.65480807423591625 0.073899406939744963 0.026815510354936126 0.68815866112709057 0.04538997448980809 0.34872141480445867 0.028131024911999706 0.83503466844558727 0.040504682809114463 0.03534951992332936 0.018575092777609829 0.49440908432006841 0.41448535025119787 0.89103233814239513 -0.14409897476434705 -0.20731014013290402 0.53926786780357372 0.13746767491102221 0.650987207889557 0.14961054176092151 0.0056934251915663489 0.020929217338562015 0.73929697275161754 -0.13257902860641477 0.46881905198097235 0.048013925552368171 -0.1012858748435974 -0.092189610004425035 0.043990975245833404 0.64586836099624645 0.030617426149547104 -0.047029262408614152 -0.016039609909057614 0.010629095602780582 0.35187287628650671 0.03834569267928601 0.084801826626062407
decision_type=2 2 2 2 2 2 2 2 2 2 2 2 2 2 2 2 2 2 2 2 2 2 2 2 2 2 2 2 2 2 2 2 2 2 2 2 2 2 2 2 2 2 2 2 2 2 2 2 2 2 2 2 2 2 2 2 2 2 2 2 2 2
left_child=1 4 5 8 10 27 14 13 39 26 31 12 55 -5 16 25 18 -18 19 20 21 44 -11 -12 32 35 -7 47 -8 46 -21 -1 -15 -13 -25 36 49 -37 -35 -4 -24 42 -42 -29 45 -3 -30 -2 -28 50 51 -6 -10 -45 -43 56 -9 -53 -22 -60 -14 -16
right_child=2 6 3 7 15 9 28 11 52 22 23 33 60 24 61 -17 17 -19 -20 30 58 -23 40 34 -26 -27 48 43 29 -31 -32 -33 -34 38 -36 37 -38 -39 -40 -41 41 54 -44 53 -46 -47 -48 -49 -50 -51 -52 57 -54 -55 -56 -57 -58 -59 59 -61 -62 -63
