tree
version=v4
num_class=1
num_tree_per_iteration=1
label_index=0
max_feature_idx=57
objective=regression_l1
feature_names=ret_1 intraday_return gap_open daily_range close_position upper_shadow lower_shadow body mom_3 mom_5 mom_10 mom_20 mom_60 volatility_5 volatility_10 volatility_20 amplitude_5 amplitude_20 close_ma5_bias close_ma20_bias ma5_over_ma20 ma20_over_ma60 max_ret_20 min_ret_20 drawdown_20 up_from_low20 volume_ratio_5 volume_ratio_20 volume_z20 amount_ratio_5 amount_ratio_20 amount_z20 turnover_ratio_5 turnover_ratio_20 turnover_z20 illiquidity_20 amount volume turnover score_v03a_like rank_v03a_like amount_extreme turnover_extreme cs_rank_mom_5 cs_rank_mom_20 cs_rank_mom_60 cs_rank_volatility_10 cs_rank_volatility_20 cs_rank_daily_range cs_rank_close_position cs_rank_upper_shadow cs_rank_lower_shadow cs_rank_amount_ratio_20 cs_rank_turnover_ratio_20 cs_rank_amount_z20 cs_rank_turnover_z20 cs_rank_illiquidity_20 cs_rank_score_v03a_like
feature_infos=[-0.10250568389892578:0.10344827175140381] [-0.18210774660110474:0.22222220897674561] [-0.10250568389892578:0.10238432884216309] [0:0.22453022003173828] [0:1] [0:0.17468500137329102] [0:0.22344279289245605] [-0.18210774660110474:0.22222220897674561] [-0.27231806516647339:4.5704097747802734] [-0.40973275899887085:4.5432372093200684] [-0.6514812707901001:5.2406387329101562] [-0.78208762407302856:5.0503387451171875] [-0.86320751905441284:8.3719816207885742] [0:2.1915261745452881] [7.8173434303607792e-05:1.5432480573654175] [0.0020743184722959995:1.0966500043869019] [0:0.18530364334583282] [0.00306282052770257:0.13806906342506409] [-0.19949375092983246:0.87485003471374512] [-0.65208345651626587:2.878434419631958] [-0.56560218334197998:1.0686638355255127] [-0.65945732593536377:1.037841796875] [0.0017812252044677734:4.8855443000793457] [-0.10696893930435181:0.0038872957229614258] [-0.78739440441131592:0] [0:5.5138092041015625] [0.0020036983769387007:4.9211792945861816] [0.0013113417662680149:12.001799583435059] [-3.0778648853302002:4.2367439270019531] [0.0012775850482285023:4.9156250953674316] [0.00090056861517950892:13.998739242553711] [-3.0833346843719482:4.2408905029296875] [0.0016318524722009897:4.9211792945861816] [0.0010752517264336348:12.001799583435059] [-3.0778651237487793:4.2367439270019531] [0.0001360439055133611:22.1309814453125] [105390:19424256000] [11001:4461792768] [2.2009449821780436e-05:0.71993398666381836] [0.030762882903218269:0.99509364366531372] [0.00033795202034525573:1] [3.5768619000009494e-07:1.5] [3.6902558804285945e-06:1.5] [0.00033806625287979841:1] [0.00033818060182966292:1] [0.00033863866701722145:1] [0.00033806625287979841:1] [0.00033795202034525573:1] [0.00050744251348078251:1] [0.00034071551635861397:0.99813687801361084] [0.008605550043284893:1] [0.0052631581202149391:1] [0.00033795202034525573:1] [0.00033795202034525573:1] [0.00033818060182966292:1] [0.00033818060182966292:1] [0.00033795202034525573:1] [0.00033795202034525573:1]
tree_sizes=6968 7267 7277 7258 7259 7276 7269 7259 7292 7286 7259 7293 7286 7289 7319 7286 7293 7323 7293 7296 7297 7331 7310 7299 7296 7296 7313 7313 7313 7343 7286 7320 7333 7308 7323 7295 7310 7319

Tree=0
num_leaves=63
num_cat=0
split_feature=16 16 16 12 23 17 17 17 15 16 35 16 47 25 47 35 18 3 17 25 23 17 21 2 23 10 20 35 25 30 52 27 47 16 30 17 47 21 47 56 35 45 20 35 56 17 27 47 15 20 37 9 17 21 28 55 20 47 15 12 47 18
split_gain=222389 43117.5 33417.1 15455.6 11446.5 7882.5 6476.77 5287.5 4740.51 3038.09 2554.25 2235.9 2111.24 1748.56 1730.07 1708.75 1671.93 1580.63 1544.63 1527.48 1518.86 1493.03 1329.26 1233.23 1112.06 1087.81 1035.11 1025.78 1004.5 972.912 1351.3 967.619 945.945 924.618 884.957 787.104 773.298 772.975 759.424 758.026 1093.08 726.937 724.739 695.021 853.93 690.291 644.53 616.092 745.939 598.371 584.174 576.738 572.059 553.173 530.395 793.005 529.53 525.922 525.812 518.383 503.187 486.088
threshold=0.032814754173159606 0.052788089960813529 0.023815596476197246 -0.25093391537666315 -0.087608635425567613 0.036200175061821944 0.022206312976777557 0.029027872718870643 0.036307133734226234 0.072312738746404662 0.014638074208050968 0.040374910458922393 0.71482694149017345 0.27081382274627691 0.028127219527959827 0.027268429286777977 -0.082287676632404314 0.033674061298370368 0.03980656526982785 0.19175607711076739 -0.087608635425567613 0.024175652302801613 0.0018951087258756163 -0.065912127494811998 -0.087608635425567613 -0.12400189042091368 -0.02440096344798803 0.081660896539688124 0.16232535988092425 1.4370735287666323 0.68680283427238475 1.2449750900268557 0.4309499859809876 0.020551097579300407 0.56915330886840831 0.029304466210305694 0.76697665452957164 -0.082593899220228181 0.59248939156532299 0.43605071306228643 0.025037654675543312 0.079583048820495619 -0.10785459727048873 0.026762542314827446 0.63611602783203136 0.029304466210305694 1.7566785812377932 0.33243864774703985 0.01520122215151787 -0.024934181943535801 10714564.000000002 -0.094251692295074449 0.052994232624769218 -0.17454759776592252 0.90134805440902721 0.70546039938926708 -0.16209409385919568 0.35726587474346166 0.021000793203711513 -0.34049212932586664 0.64698636531829845 -0.092812020331621156
decision_type=2 2 2 2 2 2 2 2 2 2 2 2 2 2 2 2 2 2 2 2 2 2 2 2 2 2 2 2 2 2 2 2 2 2 2 2 2 2 2 2 2 2 2 2 2 2 2 2 2 2 2 2 2 2 2 2 2 2 2 2 2 2
left_child=2 4 6 9 12 17 14 16 18 41 32 26 22 20 -1 33 -4 45 -5 23 36 46 -2 -14 38 -16 -7 -17 37 43 -31 -27 -9 -8 -34 -19 -10 -13 -12 57 -41 59 -11 -23 47 -6 -18 48 -45 -39 -42 -24 -20 -21 -37 -56 -38 -26 -59 -3 -60 -40
right_child=1 3 7 8 5 11 15 10 13 42 24 28 19 -15 25 27 21 35 52 53 -22 29 51 -25 39 31 -28 -29 -30 30 -32 -33 34 -35 -36 54 56 49 61 40 50 -43 -44 44 -46 -47 -48 -49 -50 -51 -52 -53 -54 -55 55 -57 -58 58 60 -61 -62 -63
leaf_value=0.10559350055645386 0.10931073738687293 0.11133114960779901 0.11252503691829217 0.10838687816343293 0.10708001031088672 0.10787851419819275 0.10619077171268762 0.10701488672881895 0.11068708022362782 0.11454149151829758 0.10912813475370389 0.10908828196000181 0.11459885700788465 0.11071313776291386 0.1110095235077686 0.10692896316674523 0.10659465586931915 0.10760008503655684 0.10912082822020024 0.11131251564107737 0.10941834642226868 0.10687506952851504 0.11245403697339629 0.10876074818106818 0.10756247798074871 0.1059271750051005 0.10840394959073159 0.11052927482472205 0.10906739294041598 0.11123663653444092 0.10744931400747169 0.10640544334903627 0.10702713362872601 0.1065946301937743 0.10761700583052256 0.1079193042273778 0.11168930149517239 0.10823213377987355 0.11384725155027825 0.10723843419100984 0.10773188517054159 0.11133881631144733 0.11209380755119283 0.10992515824383724 0.10709856526381419 0.10761203707128505 0.1072245003041883 0.1103801017254591 0.10697404299271314 0.1086607649386415 0.10849685342597185 0.11049739941241521 0.10975652660599609 0.10977327594899289 0.11021105995788165 0.10827897386264314 0.11006693156310302 0.11052709088006807 0.10766067616641521 0.10965228987676195 0.10930207874253159 0.10793899725209849
leaf_weight=69895.683103919029 48499.812245965004 17294.248285651207 1682.3252655267715 76185.582928657532 56054.416725516319 144596.75478434563 139084.09836304188 95455.075881958008 26378.652640223503 35075.304047346115 18918.914543390274 63992.235200762749 3177.5063548088074 279734.75973141193 1113.7286109924316 119676.61869382858 109248.10135400295 67930.40077829361 230293.1441617012 4642.0795606374741 219015.56331050396 169418.68932938576 8296.0529197454453 118010.38249564171 14514.587832212448 252945.22447037697 289202.99929153919 3275.9538266658783 194378.86261081696 4039.5462638139725 35537.712465524673 52223.633555293083 66486.534738183022 190440.24709200859 138197.57100117207 121921.58708798885 6152.344181895256 152885.22080111504 779.84018218517303 97046.721474170685 197746.17983341217 23679.098843574524 16435.917576313019 3596.3180449008942 41882.06245470047 160232.04016828537 20264.881749868393 7106.7702267169952 7091.7414567470551 267510.31173086166 30394.207793235779 33446.094250559807 101718.71353626251 35596.016584038734 7930.5493375062943 92759.471069097519 178470.31583988667 9698.5513279438019 14560.72060585022 18485.812248706818 13605.878947138786 30917.223647117615
leaf_count=44396 17628 5421 442 33123 28225 65901 79624 48542 8278 7641 6811 25604 821 99641 361 60931 58702 31964 92984 1302 86790 87672 2174 49225 6748 151095 125314 1232 78537 1300 17153 28725 34050 102469 66110 55152 1841 66899 203 48326 91290 6917 4648 1374 20998 75429 10048 2691 3532 113531 12827 10858 38906 13091 2819 40782 66523 3603 6734 6920 5554 13893
internal_value=0.108063 0.113894 0.0988245 0.118987 0.110549 0.10947 0.0934877 0.102744 0.117751 0.131446 0.10452 0.111118 0.117493 0.119479 0.090094 0.0963093 0.0995106 0.105852 0.114745 0.115096 0.118078 0.0993634 0.121781 0.113134 0.106255 0.0912283 0.109155 0.0998311 0.112372 0.100852 0.10592 0.0911023 0.102044 0.0949953 0.103386 0.107538 0.120197 0.111519 0.111127 0.105602 0.104973 0.126054 0.137669 0.0999763 0.103225 0.103586 0.0962763 0.109647 0.104338 0.110974 0.106296 0.12636 0.115777 0.121005 0.108545 0.110425 0.119396 0.109509 0.111681 0.122902 0.10926 0.107815
internal_weight=5.05683e+06 3.09998e+06 1.95685e+06 1.22892e+06 1.87106e+06 1.61939e+06 828655 1.12819e+06 1.11795e+06 110970 728322 1.11257e+06 251668 709752 376178 452477 399868 506828 408197 161426 430017 398186 90242 121188 428183 306283 433800 122953 678767 268673 39577.3 305169 300139 329524 204684 290542 211001 484388 50616 377567 325187 59459.2 51511.2 229096 59676.9 216286 129513 17794.8 10688.1 420396 228140 41742.1 332012 40238.1 222612 100690 184623 52379.7 37865.2 35780.1 28166.6 31697.1
internal_count=2282325 1264889 1017436 459633 805256 710157 468833 548603 428086 31547 344691 475786 95099 263073 224577 244256 203912 234371 165013 64439 163432 203470 30660 50046 195989 180181 191215 62163 284571 134720 18453 179820 148702 182093 100160 130717 76642 206034 20907 175082 152443 19258 12289 116267 28595 103654 68750 7597 4906 180430 104117 13032 131890 14393 98753 43601 68364 22639 15891 12341 12288 14096
is_linear=0
shrinkage=1


Tree=1
num_leaves=63
num_cat=0
split_feature=16 16 16 20 23 17 17 23 17 35 17 16 47 17 21 16 47 31 20 2 43 9 17 21 35 47 20 23 19 2 19 56 35 19 18 17 14 35 30 30 53 19 21 47 20 43 9 3 30 35 56 15 33 14 14 56 20 21 56 35 47 15
split_gain=208156 41497.5 30269.2 12127.9 10813 7922.02 5521.51 5380.24 5035.58 2864.98 2771.75 2136.18 2077.34 2007.39 1907 1835.34 1771.29 1604.73 1360.28 1350.55 1350.03 2096.41 1282.74 1252.71 1244.41 1187.13 1132.68 1121.49 1076.51 1019.53 934.977 888.641 926.332 885.547 864.602 842.305 833.588 820.974 816.944 777.137 771.065 769.239 916.709 754.398 705.905 693.028 702.448 648.933 647.567 642.111 782.868 639.362 638.554 618.529 616.73 613.953 620.184 608.357 591.33 1286.97 587.649 818.691
threshold=0.03249648958444596 0.052788089960813529 0.023056745529174808 -0.12424706667661665 -0.088773190975189195 0.037660513073205955 0.027766984887421135 -0.087608635425567613 0.023124733008444313 0.015980277210474018 0.049609445035457618 0.082540106028318419 0.71482694149017345 0.030435055494308475 -0.13543090969324109 0.039977325126528747 0.028127219527959827 0.15995188057422641 0.13193063437938693 -0.065912127494811998 0.098312187939882292 -0.11923566460609435 0.023484041914343837 0.0056304573081433782 0.027789076790213588 0.34923365712165838 0.015107048209756615 -0.087608635425567613 -0.10167749971151351 -0.065912127494811998 -0.15388536453247068 0.43605071306228643 0.026028023101389412 -0.029337864369153973 0.029131609015166763 0.037212902680039413 0.047273624688386924 0.081660896539688124 1.3025885820388796 0.57681557536125194 0.54402461647987377 -0.029337864369153973 -0.076379328966140733 0.55612155795097362 0.12408725172281267 0.087368410080671324 -0.13276773691177365 0.031809151172637946 1.6766684651374819 0.026507378555834297 0.59660717844963085 0.042770558968186385 0.66883090138435375 0.032533172518014915 0.029856514185667041 0.56565839052200328 -0.027449637651443478 -0.1251985505223274 0.45539158582687383 0.017095328308641914 0.33243864774703985 0.019835885614156726
decision_type=2 2 2 2 2 2 2 2 2 2 2 2 2 2 2 2 2 2 2 2 2 2 2 2 2 2 2 2 2 2 2 2 2 2 2 2 2 2 2 2 2 2 2 2 2 2 2 2 2 2 2 2 2 2 2 2 2 2 2 2 2 2
left_child=2 4 8 11 12 13 19 14 16 25 30 45 23 47 -5 33 -1 -15 57 -4 -16 -22 48 -2 52 -8 29 43 -18 -14 -9 60 -33 -7 49 -32 -23 -26 -30 -27 -19 42 -17 54 -37 -3 -47 -6 -21 58 -51 -28 -10 -25 -11 -34 -57 -12 59 -24 -29 -62
right_child=1 3 6 7 5 15 9 10 24 27 18 -13 26 17 20 41 28 40 -20 22 21 36 34 53 37 39 51 31 38 -31 35 32 55 -35 -36 44 -38 -39 -40 -41 -42 -43 -44 -45 -46 46 -48 -49 -50 50 -52 -53 -54 -55 -56 56 -58 -59 -60 -61 61 -63
leaf_value=-0.0023824589039141649 0.0012597754266111365 0.002038771726463598 0.0039907821051379791 0.0031471582911019435 -0.00096327271017067448 -0.00015301634911615074 -0.001121662432168396 0.0034818314149077348 -0.0017784968890041076 0.00056371715529976397 0.0025688733677503989 0.0061344823762741387 0.0061024476378814113 -0.00032940972195817761 0.001587115024508164 0.0010929531131757006 0.0028803347245294508 0.0013740498826249356 0.0028670412969774629 -0.0015262047968633201 0.004935509892257813 0.001739489512770081 -0.0011720046320790258 0.0018074476259211871 -0.0010947118843790819 -0.0010407628889621109 0.00071271265213257895 -0.00056003915910374908 -0.0020266883573867695 0.00067114433994111165 0.00010963416103826695 -0.00079988139510198727 0.00045513630084567148 0.00035706284422816644 6.3770554815148692e-05 0.00081569052904724014 0.002780815674699053 0.0027537981857637213 -0.0015558148209082274 -0.00055815348298171661 0.00015335524806159298 0.00078225095085813177 0.00019883138308009142 -3.6095253447217463e-05 0.0021337638161260798 0.0061640953624179174 0.0025810138248936092 -0.00041913654568986956 -0.00094356251274862351 0.00055001429029939101 -0.00093312327452388551 0.0021071354786699604 -0.0014400737839849592 0.0034514170153377051 0.0022024071159720483 -0.00078214548216232877 -0.00022965834473476262 0.0015023860871497667 -0.0015433991057347085 0.00050783654226315182 0.0042609402493188828 0.00022299488576780116
leaf_weight=69809.508583903313 49307.633642673492 11986.838458418846 1326.7499157190323 31898.216634631157 71978.116328001022 131925.4400087595 87564.708646416664 4796.5086611509323 114991.98626470566 11870.54649066925 16433.198267579079 32018.716591238976 2682.6947737932205 245991.07297468185 92362.633262038231 38695.158212184906 1060.8684942722321 15667.760381102562 70408.980656385422 98998.251972675323 13074.010486364365 87976.010558247566 109469.14297354221 15830.607907414436 89163.776990652084 87269.731108307838 12638.958487987518 11974.543837189674 291363.58034789562 112286.2504029274 45562.926419258118 114679.68749010563 30107.820361495018 237609.06233167648 14516.962239980698 219253.86083376408 147641.2648845911 2793.0178383588791 44417.341608405113 188776.16343665123 194897.02032721043 453061.96656239033 165798.47559475899 32610.385371685028 21427.100149035454 7077.5681924819946 18020.135237336159 105988.13989329338 22131.504281520844 12185.658712983131 44541.021311402321 30538.356892943382 129340.3118159771 22904.4313352108 5368.4999127388 58267.79728770256 154249.59884274006 410324.31045484543 44893.1032371521 11914.795726180077 6674.2536015510559 24015.150823116302
leaf_count=44244 17815 4284 351 9273 36199 60093 45293 1430 65474 4506 5475 7139 683 114055 35551 15290 331 6005 24752 54077 3287 32805 56849 5417 45366 44850 5234 5581 172848 46700 20344 57104 12542 102458 6559 90417 50764 1047 24308 91538 86060 187327 72599 14508 7885 1546 5632 49590 11140 5099 22281 10594 69754 6547 1648 28385 70526 159794 24768 5037 2217 10361
internal_value=-2.5037e-05 0.00552548 -0.00911415 0.0105375 0.0022934 0.00127913 -0.00561398 0.00968973 -0.0146423 -0.00401675 0.00805082 0.0247824 0.00913886 -0.00179554 0.0131533 0.00317864 -0.0172628 -0.000566407 0.00963887 -0.00922308 0.0123877 0.0137298 -0.00935356 0.013448 -0.0114734 -0.00632708 0.00673964 -0.00214914 -0.0162108 0.00492401 0.00533794 -0.00276613 -0.00333622 0.00120496 -0.00785844 0.00508097 0.0129725 -0.00800204 -0.016322 -0.00520053 0.00167633 0.00428778 0.00250572 0.00280088 0.00590705 0.0190613 0.0223691 -0.00494864 -0.012285 -0.00839722 -0.00518081 0.0115733 -0.0127797 0.018159 0.00872233 -0.00211088 -0.00277361 0.00889505 -0.00949434 -0.00822433 0.0020078 0.00457387
internal_weight=5.05441e+06 3.13806e+06 1.91635e+06 1.23026e+06 1.9078e+06 1.66161e+06 1.17341e+06 1.16116e+06 742940 813429 788207 69103.3 246189 634522 372952 1.02709e+06 406651 456556 497166 359977 341054 248691 358650 88042.7 336289 363611 158146 449818 336842 114969 291040 399969 357305 369535 237521 286244 235617 91956.8 335781 276046 210565 657556 204494 49849.4 240681 37084.5 25097.7 177966 121130 223004 56726.7 43177.3 244332 38735 17239 242625 212517 426758 166277 121384 42663.9 30689.4
internal_count=2281636 1283044 998592 460378 822666 729676 575220 441777 423372 389059 310097 18601 92990 291909 131680 437767 241731 206120 190021 186161 122407 86856 185810 29779 181641 181681 63211 207378 197487 47383 120076 186716 168557 162551 120593 118646 83569 46413 197156 136388 92065 275216 87889 20662 98302 11462 7178 85789 65217 114034 27380 15828 135228 11964 6154 111453 98911 165269 86654 61886 18159 12578
is_linear=0
shrinkage=0.035


Tree=2
num_leaves=63
num_cat=0
split_feature=16 16 16 12 23 17 17 17 23 11 11 35 17 2 35 16 17 43 9 47 31 2 18 17 21 16 14 47 19 35 47 11 14 46 16 23 30 23 16 11 21 35 56 53 56 35 3 56 46 33 43 3 15 35 11 19 19 15 47 21 14 46
split_gain=196951 38697.5 28941 15073.3 10419.8 7465.09 5625.72 4450.63 4384.09 3011.83 2832.71 2829.58 1995.59 1960.9 1846.83 1774.32 1710.62 1701.65 1808.8 1682.1 1598.32 1313.95 1293.12 1197.63 1178.89 1152.37 1143.65 1068.6 988.544 978.54 948.328 916.24 904.83 978.968 828.406 812.693 798.754 755.072 752.66 735.025 769.567 694.652 844.555 688.197 660.977 1135.85 658.367 646.518 646.497 610.771 592.125 576.911 576.812 542.134 539.847 525.756 518.708 504.04 924.754 503.165 492.053 663.388
threshold=0.032346522435545928 0.052788089960813529 0.022574316710233692 -0.2637533545494079 -0.088773190975189195 0.037966141477227218 0.02762486040592194 0.019279990345239643 -0.084063708782196031 -0.20893788337707517 0.27177947759628301 0.015825369395315651 0.030435055494308475 -0.065912127494811998 0.027268429286777977 0.040374910458922393 0.041474362835288055 0.098312187939882292 -0.11923566460609435 0.71482694149017345 0.051560431718826301 -0.065912127494811998 0.029131609015166763 0.023124733008444313 -0.15053437650203702 0.027647936716675762 0.034009186550974853 0.38211797177791601 -0.035505024716258042 0.081660896539688124 0.023023531772196296 0.10313785076141359 0.04309054650366307 0.87044179439544689 0.018593681044876579 -0.094434738159179674 0.54177597165107738 -0.087608635425567613 0.074368145316839232 0.10943865776062013 -0.082593899220228181 0.024802500382065776 0.59660717844963085 0.50375157594680797 0.44892187416553503 0.017095328308641914 0.049434363842010505 0.42608396708965307 0.72312727570533764 1.4818483591079714 0.68777975440025341 0.0312909483909607 0.038617074489593513 0.015980277210474018 0.11871361732482912 -0.048642132431268685 -0.019580556079745289 0.015325153712183239 0.32373604178428655 -0.059069484472274773 0.059908691793680198 0.95231160521507274
decision_type=2 2 2 2 2 2 2 2 2 2 2 2 2 2 2 2 2 2 2 2 2 2 2 2 2 2 2 2 2 2 2 2 2 2 2 2 2 2 2 2 2 2 2 2 2 2 2 2 2 2 2 2 2 2 2 2 2 2 2 2 2 2
left_child=2 4 7 9 13 12 21 30 17 38 16 27 51 -2 34 28 -10 -5 -19 26 53 -4 23 -23 -21 -13 54 -8 59 -16 -1 -26 -20 -34 -9 -27 -29 -11 -3 40 -17 44 57 -22 45 -25 -18 -37 -28 -32 -24 -6 -38 -14 -15 -42 -49 -43 -59 -7 -35 -62
right_child=1 3 6 8 5 15 11 14 10 37 -12 25 20 19 29 39 46 18 32 24 43 22 50 41 31 35 48 36 -30 -31 49 -33 33 60 -36 47 52 -39 -40 -41 55 42 -44 -45 -46 -47 -48 56 -50 -51 -52 -53 -54 -55 -56 -57 -58 58 -60 -61 61 -63
leaf_value=-0.0023851582918352019 0.0057550105247344543 0.0039786763817441957 0.0035305380362358947 0.0014639060502884063 -0.00092034489696057105 0.00041405494881727666 -0.0010668009414764356 -0.0019238005360889198 0.00030856142574079809 0.0029819697499859554 0.0024114146315931924 -0.00059738300815113054 -0.00054850976304722477 0.00086645736074755146 -0.0011656077945483301 0.0010239075615709726 0.00086472427607909024 0.0048510914639539916 0.0015846665719691302 0.0024050899008289032 0.0012943303217187706 -0.0014657004740822803 0.0013263676593039976 -0.0011584947106535784 0.00060224076569709599 0.00074838483662976682 0.0026263434339584574 -0.0010763161826250773 0.00036289579702576647 0.0028554328503688779 -0.0021096983529064568 0.0017579750721357457 0.0028385045122890826 0.0020706888456809725 -0.0015699291382706112 0.00063692021944329429 -0.0006118238241526765 0.0020205303745222075 0.0063701918804698427 0.0010051336063623543 0.00012332388555771556 0.0024137483419935952 -0.0009835111554559546 0.00014791228014860851 -0.0015351912284079742 0.00043003276914355202 0.0013481952317093682 -0.00053254055691027806 0.0011616342807294277 -0.0014831679561237549 -0.00068752737382414325 -0.00041264257972077866 0.00094464963052465472 -0.00013411016227432663 0.0025334320935711404 0.00057853882199954913 -7.9318615958313911e-05 -0.0013103632613563389 0.0021315936277053311 -0.00034816109543982584 0.0042699018797034546 0.002823711229767459
leaf_weight=51539.958861112595 7202.7728407382965 20142.679583191872 1344.9023280143738 102647.33926999569 71780.561237096786 27481.913150548935 107192.43530261517 126802.64106380939 93607.111671447754 23746.313118338585 131024.34797847271 196468.62545859814 110013.78662717342 36682.651860713959 105746.22731673717 67396.128610372543 169834.23271596432 13293.077424049377 75627.340605020523 11868.279564738274 16551.723459601402 111390.95995223522 6083.0476746559143 118420.70363593102 117538.93568766117 25159.924298286438 33082.459429264069 69936.424143671989 264144.18371415138 2864.2924455404282 145481.80453813076 26312.390364170074 48540.54426419735 86784.452085137367 241329.33829545975 23992.574054121971 185637.07830607891 24779.224504590034 31637.962282180786 164924.15904843807 112015.32446289062 5832.6449059247971 51644.963863372803 223904.12846505642 43297.666280508041 11314.777298212051 339397.41036295891 86853.684869408607 9461.8119320869446 16574.813832879066 17920.867895841599 110854.45301294327 5000.7070664167404 135809.70758473873 6513.6676445007324 281047.89296889305 129752.9924980402 5970.4688167572021 4986.6365648508072 94360.513778328896 8263.7795997858047 59340.918464183807
leaf_count=33315 1807 5510 360 39730 36047 11750 55301 74864 40718 6986 47688 93996 52734 13931 54849 26596 69548 3389 28243 3849 6373 60752 2391 61773 49009 10029 9902 36302 113947 1061 88481 9693 14767 31926 133979 9869 90820 8733 6706 66428 49217 2207 26179 98782 24108 4818 132740 41499 3541 9048 8794 51937 1996 61360 2021 118802 58386 3069 1921 43931 2215 20882
internal_value=-6.51604e-05 0.00529117 -0.0089737 0.010146 0.00219881 0.00120921 -0.0057072 -0.0146905 0.0089901 0.0231482 0.00739044 -0.00409496 -0.00165933 0.00888567 -0.0128092 0.00310647 0.00637658 0.0119658 0.0133291 0.00834861 -0.000487711 -0.00924525 -0.00936857 -0.00990331 0.00618058 -0.00227205 0.0122857 -0.00638603 0.00124037 -0.00879792 -0.0188893 0.00530552 0.0127269 0.0139449 -0.0139926 -0.000769369 -0.00517575 0.0168811 0.02902 0.00425818 0.00353996 -0.00851803 -0.00553214 0.00154109 -0.00969878 -0.00844847 0.00717595 -0.00139532 0.0163593 -0.017573 -0.00150699 -0.00477871 -0.0040018 -0.00247228 0.00827263 0.00294736 -0.00199921 0.0012861 -0.00313718 -0.00136748 0.0125811 0.0148209
internal_weight=5.05616e+06 3.15761e+06 1.89854e+06 1.22867e+06 1.92895e+06 1.68028e+06 1.2082e+06 690339 1.12836e+06 100306 733863 829994 668914 248663 476742 1.01137e+06 602839 394497 291850 241460 486279 378208 376863 352859 155720 462228 85740.6 367767 385987 108611 213597 143851 278557 202930 368132 265759 260574 48525.5 51780.6 625384 460459 241468 68434.7 240456 173033 129735 509232 240599 42544.3 162057 24003.9 182635 190638 245823 43196.3 393063 216607 16789.8 10957.1 121842 154389 67604.7
internal_count=2281605 1291438 990167 459781 831657 737904 594570 395597 431846 27935 290694 398198 307233 93753 264753 430671 243006 141152 101422 91946 219249 196372 196012 184827 62551 213779 29395 184419 169628 55910 130844 58702 98033 69790 208843 119783 129118 15719 12216 261043 194615 124075 33376 105155 90699 66591 202288 109754 13443 97529 11185 87984 92816 114094 15952 168019 99885 7197 4990 55681 55023 23097
is_linear=0
shrinkage=0.035


Tree=3
num_leaves=63
num_cat=0
split_feature=16 16 16 12 23 17 17 17 23 25 24 16 35 47 47 17 17 35 18 43 9 21 19 17 25 19 28 30 35 14 46 18 9 47 30 29 45 16 21 18 35 38 21 26 16 24 38 35 55 3 17 33 16 25 16 43 35 12 14 46 43 9
split_gain=185355 35451 28105.8 14175.1 9752.18 6952.84 6117.79 4106 3875.69 2851.54 2742.97 2102.03 1968.25 1920.7 1683.92 1549.27 1507.11 1363.02 1346.73 1227.91 1373.97 1225.34 1191.24 1175.73 1158.38 1072.92 985.92 892.997 886.875 879.725 983.202 870.387 843.323 825.786 810.86 808.869 781.867 746.659 736.107 698.418 680.997 667.503 655.574 635.678 606.506 596.137 589.189 584.754 571.153 567.293 549.707 532.006 493.874 492.785 491.353 490.509 479.705 421.581 421.018 514.648 410.727 536.339
threshold=0.03249648958444596 0.053511822596192367 0.023815596476197246 -0.2637533545494079 -0.088773190975189195 0.036336220800876624 0.022773414850234989 0.029027872718870643 -0.087608635425567613 0.3756880015134812 -0.26381242275238032 0.043133629485964782 0.018776159733533863 0.7218884825706483 0.028127219527959827 0.042711332440376289 0.031956514343619354 0.027789076790213588 -0.082287676632404314 0.069635003805160536 -0.13276773691177365 0.0049961903132498273 -0.029337864369153973 0.023839366622269157 0.21627530455589297 -0.098793078213930116 0.66058939695358287 1.3131182193756106 0.081660896539688124 0.045246545225381858 0.88054013252258312 0.029131609015166763 -0.11923566460609435 0.47375056147575384 0.54177597165107738 1.0991505384445193 0.10767659917473794 0.020551097579300407 -0.16043364256620404 -0.092812020331621156 0.012260415125638248 0.01060247188434005 -0.060105627402663224 0.80339020490646373 0.076647412031888976 -0.10102524235844611 0.015281820204108955 0.026762542314827446 0.65741416811943065 0.049434363842010505 0.01900929864495993 1.1684237122535708 0.017200815491378311 0.038060251623392112 0.040584968402981765 0.66631168127059948 0.014053795952349903 -0.27857896685600275 0.058526922017335899 0.94874966144561779 0.29801556468009954 -0.073913514614105211
decision_type=2 2 2 2 2 2 2 2 2 2 2 2 2 2 2 2 2 2 2 2 2 2 2 2 2 2 2 2 2 2 2 2 2 2 2 2 2 2 2 2 2 2 2 2 2 2 2 2 2 2 2 2 2 2 2 2 2 2 2 2 2 2
left_child=2 4 6 10 13 16 14 18 19 15 44 22 33 21 52 60 35 37 -4 -5 -21 57 42 51 39 -16 -18 50 -19 -22 -31 47 -14 -9 -35 -6 38 -8 -12 -15 -23 -34 -7 -13 -3 -42 -24 -25 -28 -17 -27 -20 -1 -43 -41 -33 -48 -2 -32 -60 -10 -62
right_child=1 3 7 8 5 11 17 12 9 -11 36 43 32 24 25 49 26 28 23 20 29 40 46 31 -26 27 48 -29 -30 30 58 55 41 34 -36 -37 -38 -39 -40 54 45 53 -44 -45 -46 -47 56 -49 -50 -51 -52 -53 -54 -55 -56 -57 -58 -59 59 -61 61 -63
leaf_value=-0.0023709284788016468 0.0020242114955072526 0.004229157790302523 0.0039205202845717518 0.0014431627516493192 -0.00069089171954760781 0.00039212560416855726 -0.0016640764076960792 -0.0008750900119425081 -0.00040627998629423254 0.0026567076638453189 0.0035046568887488441 0.00041082134645924125 0.005185043844966257 0.004828639799971157 0.002769085686703168 0.0009165068674094562 -0.00023214919459307344 -0.00099637587261632455 -0.0014099768404629892 0.0046447236673594731 0.0015690601936119459 0.0010940676161535503 0.00013606496052298383 -0.0010446427359852015 0.0017889615239496267 -0.0020625538291223224 0.0019350790118616617 -0.0014254417369475372 0.002653543990828431 0.002862722929353865 0.0019586567974726622 0.0019991194563563396 -0.00044869641117800294 -0.0009097854073331546 -0.00035919025724100184 -0.00018721821866672715 0.0031157449557833697 -0.0013072919550285926 0.001667346126294697 0.00022165441016692462 0.0034832002531296098 -0.00046174408590437578 -0.00024040523307633033 0.00081321122621340553 0.006315544922606553 0.0016648243163596031 0.00029968386227219627 -0.0006138187242970914 0.00027418273874731022 0.0013714205087204164 -0.001755589087489738 -0.0010379941791893508 -0.0017611865169413835 0.00011010827540891105 0.00093989103765370772 -0.00038627165989938843 0.00084578687964669962 0.00098433986051242942 0.0039366530251599826 0.0026932707029037641 0.002298941969545889 0.00046472755168143481
leaf_weight=50244.285665512085 7077.3228136301041 17266.164019703865 1582.6006665229797 81710.775054335594 158151.05616009235 49843.591970682144 125754.7628672123 137026.18477916718 13693.045799016953 97439.132453083992 15650.471144556999 180598.71393203735 1686.9742767810822 3904.5372760295868 1183.6900900602341 166723.81942844391 193591.75473868847 110598.89207923412 63683.457060933113 10958.328802108765 82531.414015650749 7899.7811415195465 176057.78048884869 192780.04799580574 33647.921919703484 122182.62210571766 7633.773862361908 45852.65189063549 3309.7163056135178 42329.412269234657 65046.564288973808 4332.501101732254 150176.77320218086 66368.982652664185 151190.45080757141 95770.267002463341 16722.353874325752 181672.55782163143 20603.355634093285 44199.081085562706 24229.947631239891 43878.092425465584 162155.15976262093 362602.30789065361 27225.411988973618 9020.8674592971802 99638.163112163544 66745.988892912865 86510.304656624794 355170.90901792049 166636.48241436481 51006.021280527115 20453.44142973423 146041.55738842487 80911.273783445358 13147.871819138527 126299.69219136238 44909.824940800667 8807.8437395095825 66062.18785238266 2530.9213945865631 93666.797492980957
leaf_count=32946 2224 4617 417 31548 77139 21172 71622 68920 6349 34619 4587 77402 471 1156 373 67757 88885 56107 34785 2814 30711 2919 77265 99281 11864 74693 2748 25006 1230 12588 23960 1609 70310 33825 72093 43955 4568 97471 7560 19287 6722 20790 74668 148250 5699 3092 43730 31946 37727 138155 96718 26258 11821 64026 32537 6246 51658 16546 2450 23229 801 40014
internal_value=-8.48627e-05 0.00515287 -0.00865845 0.00993184 0.00225773 0.00129841 -0.0135197 -0.00496491 0.00878492 0.0073214 0.0227183 0.00283031 -0.00335025 0.00862876 -0.0165828 0.00646178 -0.00197432 -0.0105641 -0.00782388 0.0117705 0.0128874 0.012637 0.00142718 -0.00795415 0.0063335 -0.0155489 -0.000239923 -0.0156666 -0.00729307 0.0123845 0.0137424 -0.00672003 -0.00145489 -0.00517712 -0.00383643 -0.0039396 0.0173355 -0.011776 0.0144449 0.00482477 0.0171498 -0.00157744 -0.00069565 0.00441626 0.0291261 0.0193448 0.00254673 -0.00722921 0.00269788 0.00725711 -0.0163872 -0.0109345 -0.0214935 -0.000198512 0.00436947 0.000838507 0.00372957 0.00906397 0.0123276 0.0141181 0.00268437 0.00349175
internal_weight=5.05633e+06 3.13879e+06 1.91754e+06 1.18414e+06 1.95465e+06 1.69885e+06 827889 1.08965e+06 1.08667e+06 729225 97467.8 1.1572e+06 696369 255801 406553 631785 541657 421336 393278 357447 275736 93137.7 613994 391696 162663 335855 287736 334672 113909 264777 182246 277006 341783 354586 217559 253921 52976.2 307427 36253.8 129015 41150.6 340096 211999 543201 44491.6 33250.8 401996 259526 94144.1 521895 288819 114689 70697.7 189920 125110 17480.4 225938 51987.1 139917 74870 109891 96197.7
internal_count=2281936 1282972 998964 442026 840946 744599 467987 530977 414995 287695 27031 494145 330435 96347 241557 253076 250454 226430 200542 127300 95752 31503 268493 200125 64844 196790 129360 196417 57337 92938 62227 139082 155597 174838 105918 121094 16715 169093 12147 52980 12733 155126 95840 225652 10316 9814 172653 131227 40475 205912 171411 61043 44767 84816 51824 7855 95388 18770 49639 25679 47164 40815
is_linear=0
shrinkage=0.035


Tree=4
num_leaves=63
num_cat=0
split_feature=16 16 16 12 23 17 17 17 23 11 17 25 16 47 35 35 47 35 17 25 34 21 17 19 43 9 33 53 10 47 27 18 16 26 14 35 16 25 41 21 47 9 21 44 53 12 33 18 35 45 17 16 3 16 35 38 23 21 42 35 56 35
split_gain=174190 33021.6 28135.1 13656.8 9673.28 7476.76 6265.56 4087.35 2687.14 2413.19 2106.52 2042.64 1881.52 1800.41 1622.03 1606.74 1552.7 1498.85 1440.52 1279.54 1265.23 1214.37 1195.83 1110.88 1083.51 1283.38 994.596 1018.46 978.013 852.26 848.705 829.07 794.086 760.61 736.582 714.786 700.373 686.256 652.737 652.73 640.559 614.9 591.263 557.397 541.402 534.243 530.859 520.051 514.84 510.073 508.221 503.574 494.491 491.22 488.812 479.383 475.86 468.071 458.878 433.733 1260.65 564.413
threshold=0.032814754173159606 0.056826757267117507 0.02396410703659058 -0.2637533545494079 -0.088773190975189195 0.038422605022788055 0.022206312976777557 0.031123125925660137 -0.087608635425567613 -0.23157620429992673 0.032083868980407722 0.3756880015134812 0.044806003570556648 0.7218884825706483 0.06122217886149884 0.017258764244616035 0.028127219527959827 0.027268429286777977 0.024175652302801613 0.17946188896894458 0.15414569526910785 0.0049961903132498273 0.040770441293716438 -0.029337864369153973 0.066037841141223921 -0.14226469397544858 1.0706194043159487 0.50375157594680797 -0.12400189042091368 0.29765145480632788 1.2449750900268557 -0.092812020331621156 0.019227099604904655 0.94365888833999645 0.04309054650366307 0.076005134731531157 0.027647936716675762 0.23111155629158023 0.95909231901168834 -0.10682178661227225 0.47375056147575384 -0.10475054383277892 -0.060105627402663224 0.021175133064389232 0.50771415233612072 -0.2637533545494079 1.4668438434600832 -0.069127861410379396 0.0093564325943589228 0.11543937772512437 0.056091118603944785 0.040374910458922393 0.050661385059356696 0.017432009801268581 0.015980277210474018 0.013202632777392866 -0.094434738159179674 -0.19723568856716153 0.25416511297225958 0.019327605143189434 0.55559605360031139 0.033918479457497604
decision_type=2 2 2 2 2 2 2 2 2 2 2 2 2 2 2 2 2 2 2 2 2 2 2 2 2 2 2 2 2 2 2 2 2 2 2 2 2 2 2 2 2 2 2 2 2 2 2 2 2 2 2 2 2 2 2 2 2 2 2 2 2 2
left_child=2 4 6 9 13 10 16 14 24 43 33 22 23 21 18 38 53 32 46 31 54 45 -10 42 -5 -26 29 58 -18 -20 -30 -15 -8 -6 -27 -19 -17 39 40 -14 -9 -23 -7 -3 -22 -2 -4 -31 -43 50 -11 -33 -24 -1 -12 -25 -38 -21 -28 -49 -61 -62
right_child=1 3 7 8 5 12 17 15 11 49 20 -13 37 19 -16 36 28 35 26 57 44 41 52 55 25 34 27 -29 30 47 -32 51 -34 -35 -36 -37 56 -39 -40 -41 -42 48 -44 -45 -46 -47 -48 59 -50 -51 -52 -53 -54 -55 -56 -57 -58 -59 -60 60 61 -63
leaf_value=-0.002276343545823982 0.001950236026247018 0.0041171799591291792 -0.0012834491772318844 0.0014550241316786795 -0.00072331734930762906 0.00050933474045968354 -0.0017006703346265522 -0.00071775069353816902 0.00026206767749912537 0.0016290969041318553 -0.00043133850077539161 0.0025556729015488965 0.001382205452804486 0.004285752781143258 0.0026487343777930618 -0.00045916801173570521 0.0027425630847960885 -0.0009622890205485073 -0.0011066215739257857 0.0031743622062028326 0.0014399624573651381 0.0043768695830031235 0.00092557056434122145 0.0001960384046577679 0.0046707622755321528 0.001467384016541341 0.003228561080535573 -0.00058247099520708045 -0.0018523429353743033 0.0052503054404785194 -0.0014372304840156586 0.00010957862245826015 -0.0013078949906159076 -0.00025402909703602013 0.0024906993649489438 0.0016127824767851566 0.00069062604392160882 0.0012407322862752969 -0.00092107277115411441 0.00060334451890099521 -0.00029410809786260133 0.00065360241472250697 -0.00015250361353918285 0.005832366477383868 0.00026007023021636322 0.00092947312676822417 -0.00085065255007630983 -0.0009729524515008492 0.0024682301268315766 0.0030096438242464977 0.0032413225199014887 0.00086689650705019689 0.0013844755814985518 -0.0017034031223885021 -1.5840977839280407e-05 0.00063456979996820678 -5.3337219767812328e-05 0.0015372492843721587 0.00018562876934606796 0.0009191818985268633 -0.0012536167417576763 -0.00040368408877918086
leaf_weight=51008.861983656883 10003.191077709198 7422.5541636943817 92617.682072520256 73088.660998463631 117801.24741566181 44065.794092655182 87365.945694565773 77587.018588662148 53273.59133374691 13256.3443390131 105321.77975392342 92014.5619161129 32573.831050753593 4859.1629782915115 3898.8450049161911 98932.160937547684 1150.388231754303 123434.50516819954 97630.076565742493 3490.0903068780899 12512.542453885078 8093.511256814003 137098.94031488895 130773.83358442783 8606.9817100763321 53311.743841767311 3479.4807509183884 117632.34479737282 254600.41629111767 504.13699340820312 52735.883664131165 38260.061923027039 252683.5877712965 134699.29446959496 187923.57795524597 3950.0979088544846 24887.365311145782 85604.416437625885 74665.199467182159 415052.76798343658 124549.12192070484 5482.4546741247177 157993.59744763374 34455.273951768875 191795.66139006615 46092.747763872147 32252.318270683289 94566.554613351822 30381.120144486427 13737.506728410721 17523.739874601364 91412.390383481979 310728.93210923672 18813.738992333412 128922.61569857597 250838.66359329224 189862.33622503281 51468.922794699669 4651.1391004323959 17072.279121398926 29732.855745077133 25731.330007553101
leaf_count=33414 3144 2083 49850 28125 57962 18512 50607 38329 23154 4799 49846 32753 12265 1449 1308 46538 367 62681 50857 944 4663 2060 55610 56952 2147 20005 1106 57224 151931 114 29014 16814 136739 62275 64201 1526 9936 33199 38205 173222 59053 2106 71979 7313 83595 16957 16239 48487 9424 3703 5227 36837 120300 10871 57534 105133 85179 18803 1990 7063 15741 12045
internal_value=-0.000112586 0.00504784 -0.00829104 0.0102731 0.00255053 0.00159932 -0.0131005 -0.00462733 0.00901849 0.0235755 -0.00126209 0.00761961 0.00336976 0.0084899 -0.00689083 -0.00263486 -0.0164493 -0.0103902 -0.00706085 0.00648411 0.000204154 0.0122883 0.00673932 0.00199664 0.0115877 0.0126843 -0.00601548 -0.00345157 -0.0153821 -0.00723107 -0.0155027 0.0046455 -0.0116034 -0.00380876 0.0122102 -0.00715148 -0.000919731 0.00487272 -0.00457842 0.0043235 -0.00354521 0.0166447 -0.000101683 0.0296076 0.00221713 0.00887376 -0.0103339 -0.0057165 0.0146755 0.0178995 0.015393 0.00411328 0.00732905 -0.0211636 -0.0015515 0.00310772 0.00020271 0.0109841 0.00852655 -0.00582382 -0.00378715 -0.00634716
internal_weight=5.05594e+06 3.09994e+06 1.956e+06 1.00244e+06 2.0975e+06 1.80796e+06 845743 1.11025e+06 916047 86395.4 691053 593116 1.1169e+06 289544 519769 590483 378309 467434 515870 189491 438553 100053 501101 583672 322931 249842 391000 125763 308487 265237 307336 134532 340050 252501 241235 127385 313682 533231 276801 447627 202136 43957.1 202059 41877.8 204308 56095.9 124870 167607 35863.6 44517.6 30780.1 129672 447828 69822.6 234244 381612 214750 54959 8130.62 167103 72536.5 55464.2
internal_count=2281509 1265095 1016414 369420 895675 787137 477150 539264 346295 23125 315875 231817 471262 108538 262024 277240 225597 251553 260716 74847 195638 33691 199064 252576 114478 86353 194627 60320 181312 134307 180945 55100 187346 120237 84206 64207 141653 218686 135587 185487 97382 13590 90491 9396 88258 20101 66089 83450 11530 13729 10026 53651 175910 44285 107380 162085 95115 19747 3096 83336 34849 27786
is_linear=0
shrinkage=0.035


Tree=5
num_leaves=63
num_cat=0
split_feature=16 16 16 11 23 23 17 17 17 17 16 35 16 25 18 25 18 16 35 18 47 14 46 35 17 3 3 17 31 47 56 35 53 9 14 46 3 27 16 25 56 35 46 9 35 56 47 30 53 56 17 45 30 25 38 56 35 52 3 25 17 53
split_gain=165659 35307.6 22912.9 12801.1 7593.6 5449.68 5338.11 5183.09 3318.2 3049.02 2769.27 2505.76 1765.61 1654.79 1590.64 1740.86 1344.07 1260.57 1168.55 1115.19 1087.56 1042.53 1862.03 1027.69 1007.45 993.748 937.845 936.465 919.138 870.099 844.47 1162.21 790.254 779.805 739.683 1413.88 739.078 731.085 727.687 713.249 580.528 681.859 576.835 634.157 556.225 576.272 553.695 537.98 651.268 532.551 568.939 531.61 520.858 495.839 487.786 485.974 866.335 472.23 458.499 456.426 453.461 449.797
threshold=0.031438982114195831 0.049152052029967315 0.021422398276627067 -0.23157620429992673 -0.086380958557128892 -0.087608635425567613 0.033066892996430404 0.02627446968108416 0.049113878980278976 0.018742478452622894 0.075506914407014861 0.014490788802504541 0.037651658058166511 0.36067345738410955 -0.092812020331621156 0.08691005036234857 -0.069127861410379396 0.025740742683410648 0.010458720847964289 -0.082287676632404314 0.30202427506446844 0.04391045309603215 0.87044179439544689 0.013776459265500309 0.023294878192245964 1.0000000180025095e-35 0.029543817043304447 0.033204687759280212 0.93479272723197948 0.023023531772196296 0.42608396708965307 0.025037654675543312 0.7515087127685548 -0.15400442481040952 0.03553497605025769 0.82851365208625805 0.049434363842010505 1.5372422933578493 0.026183224283158783 0.29085290431976324 0.61801359057426464 0.041539872065186507 0.71947428584098827 -0.10475054383277892 0.017925773747265342 0.49543696641922003 0.55260249972343456 1.4666919708251955 0.72724017500877391 0.29530093073844915 0.023484041914343837 0.79460868239402782 0.54177597165107738 0.025191094726324085 0.010298580862581732 0.26243536174297338 0.009970431216061117 0.79261109232902538 0.0524052381515503 0.060284782201051719 0.029304466210305694 0.88731181621551525
decision_type=2 2 2 2 2 2 2 2 2 2 2 2 2 2 2 2 2 2 2 2 2 2 2 2 2 2 2 2 2 2 2 2 2 2 2 2 2 2 2 2 2 2 2 2 2 2 2 2 2 2 2 2 2 2 2 2 2 2 2 2 2 2
left_child=2 4 9 10 14 21 28 19 27 29 33 20 23 58 61 46 -13 -18 -11 -4 -9 42 -23 52 37 -20 -14 -7 60 -1 -19 59 -30 -3 -17 -36 -29 -21 -22 -24 -33 -42 43 -5 -28 -46 -16 -26 -49 -27 -51 -12 -8 -31 -25 56 -40 -39 -10 -32 -6 -2
right_child=1 3 7 5 6 8 12 11 13 18 51 16 26 -15 15 34 17 30 25 24 38 22 39 54 47 49 44 36 32 53 31 40 -34 -35 35 -37 -38 57 55 -41 41 -43 -44 -45 45 -47 -48 48 -50 50 -52 -53 -54 -55 -56 -57 -58 -59 -60 -61 -62 -63
leaf_value=-0.0021696925966835476 0.0055906559156496081 0.004127045430056776 0.0033952076276426765 0.0032952325725680801 -0.00075846731392748424 -0.00042273314720064377 -0.00076992640494943075 -0.001153565725421837 0.00097769622178656059 -0.0017332605345397004 0.0056622056076678943 0.0054430623094039298 1.6266847187710955e-05 0.0024405713138903953 0.0013901779059368158 0.00094243408584289976 -0.00075135311622647589 0.00040568195868068938 0.0039886924945651235 -0.0014043284338541712 -0.0010855861701026116 0.0027480470792042321 0.0017398935472257349 -0.00014023814994612493 -0.0010826485362011255 -0.00072648246757638741 0.00031212314368910123 0.00037836261092753803 0.00093731952324974045 -0.0020729167753603941 -0.001031988767032874 0.00032463596869273625 -0.00025434434159296126 0.0019088092601873823 0.0022222275010874296 0.00087908601223421424 0.00088868959138544085 0.00085712664166575747 -0.00053811039939187164 0.0027134856668626834 -0.00059595396243600977 3.5174946466843395e-05 0.0011189491785463348 0.00144136280526872 0.0011874746770911626 0.00055452259550727988 0.00027258332410695266 0.0025436185135886418 -0.00067211871586847418 -0.0015891652795382576 -0.0012361611571103973 0.0031398717001755085 -0.00019401087785641315 -0.001712647776806757 0.00033918157201946113 -0.00092485755744953842 0.0016663418452155523 -0.001072575639648916 0.0013990275051406012 -0.0004463297743090151 -0.00042658619476836069 0.00097403410178234181
leaf_weight=48974.662267565727 5616.0833899974823 12799.171355843544 1204.9683545827866 8232.7975572347641 95069.555235862732 25400.470691919327 36362.885230779648 81135.135916352272 194591.97198235989 133364.68168544769 34067.441734194756 2013.5599362850189 159501.90391004086 100408.74292826653 9620.6581267118454 68586.33280146122 165267.66453766823 44260.484421730042 1716.2682363986969 128858.21534752846 95230.670182466507 62410.23481297493 137325.08818995953 83295.247363328934 155252.3019490242 13559.875622272491 335790.94813525677 156646.756259799 14587.412322878838 61402.038828015327 47570.723918318748 51882.397311329842 104609.70036900043 30396.848258495331 39594.116192579269 27023.47511613369 211880.40449368954 3259.6285353899002 115529.56396949291 89360.184339880943 81744.850080490112 73852.398289322853 79666.94599032402 36735.41767680645 45967.402804970741 233437.30368447304 77599.565619111061 2692.0037913322449 21242.784485697746 107240.73704135418 133748.79702305794 3086.1820011138916 150030.57776415348 72523.765915870667 171150.86845850945 57991.802474975586 9140.8776588439941 27785.971658349037 288665.89074134827 44474.117985963821 146335.81168425083 1238.2413662672043
leaf_count=31866 1313 3441 320 2383 47160 11961 17939 43019 78117 78562 7424 532 71033 35614 3247 26238 81617 18790 600 71428 50227 18535 51073 37702 81044 6709 145073 66750 5767 38549 24724 21979 48671 10279 12324 10796 85635 1361 56301 30491 39514 32440 31098 13164 17740 97627 33261 929 10446 61772 71930 976 69181 42422 73622 29854 3636 14531 111079 21358 69202 477
internal_value=-0.000126437 0.00454468 -0.00871217 0.00856852 0.00126466 0.00778403 0.000398901 -0.00598329 0.00635895 -0.0144813 0.0221519 -0.00455089 0.00150833 0.00803418 0.00721603 0.00670401 -0.00297654 -0.0030895 -0.012731 -0.00964564 -0.00679186 0.0111512 0.012305 -0.00025994 -0.00976516 -0.0113478 0.00251458 0.00387676 -0.00334075 -0.0182095 -0.00188182 -0.00254867 -0.000825863 0.0161236 0.00919103 0.0118182 0.0043248 -0.011785 -0.00575078 0.0108308 -0.00109641 -0.00216552 0.00847468 0.0116446 0.00313465 0.00428845 0.00284845 -0.0079625 -0.00307674 -0.0115268 -0.0119066 0.0291589 -0.00223439 -0.0167485 0.00118637 -0.00445728 -0.00322567 -0.00696159 0.00718455 -0.00582194 -0.00458242 0.0238215
internal_weight=5.06001e+06 3.27709e+06 1.78292e+06 1.47167e+06 1.80542e+06 1.39132e+06 1.57614e+06 1.21039e+06 977594 572531 80349.6 870094 1.21554e+06 583667 229278 222424 511066 509053 389630 340296 359028 413731 289096 440840 339091 256266 774698 393928 360602 182900 343785 299524 119197 43196 135204 66617.6 368527 159904 277893 226685 207480 155597 124635 44968.2 615196 279405 87220.2 179187 23934.8 254549 240990 37153.6 186393 133926 254446 182662 124670 31045.6 483258 92044.8 241405 6854.32
internal_count=2282853 1346393 936460 558020 788373 535900 700717 604050 389156 332410 22120 423991 529917 224810 87656 85866 240954 240422 219573 180059 183037 146744 100099 198444 179739 141011 331473 164346 170800 112837 158805 140015 54438 13720 49358 23120 152385 87320 140018 81564 93933 71954 46645 15547 260440 115367 36508 92419 11375 140411 133702 8400 87120 80971 111324 89791 59937 15892 189196 46082 116362 1790
is_linear=0
shrinkage=0.035


Tree=6
num_leaves=63
num_cat=0
split_feature=16 16 17 11 23 16 23 17 25 44 17 17 2 19 35 35 33 25 43 9 3 19 38 56 35 3 14 16 3 11 11 44 35 16 47 25 56 35 47 14 35 30 52 56 35 47 51 25 56 11 11 56 47 17 38 17 11 16 44 25 19 47
split_gain=155007 33337.7 20979.1 12402.4 7305.32 5639.15 5390.87 5317.65 3157.84 2934.08 2715.35 1977.82 1735.76 1706.21 1651.45 1585.63 1556.04 1554.22 1525.47 1802.23 1211.46 1192.35 1153.29 1026.95 1161.66 998.693 981.24 846.478 805.992 775.189 772.847 1025.58 759.119 755.012 731.573 730.924 716.671 1252.42 678.774 668.603 635.019 629.218 689.941 610.178 1142.14 602.185 558.511 546.222 544.706 527.741 505.22 501.004 494.496 486.495 463.565 455.763 455.61 450.098 438.771 437.037 436.737 435.284
threshold=0.031130075454711918 0.049152052029967315 0.023484041914343837 -0.24822473526000974 -0.088773190975189195 0.025442504324018959 -0.088773190975189195 0.034480348229408271 0.29824462532997137 0.028061650693416599 0.017759775742888454 0.038422605022788055 -0.065912127494811998 -0.028131342492997643 0.020272800698876384 0.027268429286777977 0.91183781623840343 0.08691005036234857 0.098312187939882292 -0.10893741250038146 0.03407645225524903 -0.10167749971151351 0.011884369421750309 0.57949703931808483 0.035796551033854491 0.049434363842010505 0.047273624688386924 0.021422398276627067 1.0000000180025095e-35 -0.30979740619659418 -0.16994932293891904 0.29466345906257635 0.018593619577586654 0.036933863535523422 0.29765145480632788 0.024668708443641666 0.43605071306228643 0.01349380658939481 0.86207479238510143 0.037429343909025199 0.081660896539688124 1.6310593485832217 0.79261109232902538 0.24972874671220782 0.009970431216061117 0.84801840782165538 0.25818097591400152 0.43890838325023657 0.36666102707386022 0.10943865776062013 -0.30979740619659418 0.7766249179840089 0.56694951653480541 0.027048975229263309 0.0084973890334367769 0.02611531596630812 0.15735280513763431 0.069575820118188872 0.54446890950202953 0.25380143523216253 0.031235647387802604 0.24716550856828692
decision_type=2 2 2 2 2 2 2 2 2 2 2 2 2 2 2 2 2 2 2 2 2 2 2 2 2 2 2 2 2 2 2 2 2 2 2 2 2 2 2 2 2 2 2 2 2 2 2 2 2 2 2 2 2 2 2 2 2 2 2 2 2 2
left_child=2 4 10 9 12 15 18 20 11 29 35 -8 46 33 34 27 21 52 57 -20 55 -12 -15 -16 54 -13 -21 -4 -17 -3 31 -27 56 -9 -7 -1 37 43 -28 49 51 -18 -43 44 -36 -41 -2 -10 -39 -19 -11 -26 -14 -22 -25 -6 -24 -5 -37 -40 -60 -29
right_child=1 3 5 6 7 14 8 13 47 50 16 25 17 22 23 28 41 39 19 26 53 -23 32 24 40 30 38 61 -30 -31 -32 -33 -34 -35 36 58 -38 48 59 45 -42 42 -44 -45 -46 -47 -48 -49 -50 -51 -52 -53 -54 -55 -56 -57 -58 -59 60 -61 -62 -63
leaf_value=-0.0021084786205432388 0.00095216531301735318 0.0035402038032687662 -0.0014304364190594891 0.00077432378562966911 -0.0010404064880364893 -0.00090865647770340654 4.5988589032058705e-05 -0.00031532295516007911 0.0016367843668604692 0.0066542457128972209 0.0044847858011145955 0.00064913170484143126 0.0012826733704951593 6.0642730205781847e-05 0.00021115250540091812 0.0040070024358095204 -0.0012962332996471428 0.00068389517286673309 0.0038086113418822464 0.0014635333948120103 -0.00055033584454839335 -0.0016629083441132761 0.00026292390942678949 -0.0012079464369969609 0.0001249377257388561 0.0011457661197601414 0.0025290556895362312 -0.001224815531255509 -0.00078330409419929536 0.0011996149621267829 0.0010844283864418389 0.0034626703013137992 0.00080114717998134015 0.00011285417658434479 -0.00058879470921558634 -0.0015523859537891621 -0.0011043731312182425 0.0011084674442252054 0.0017618983311720585 0.0020520530916690182 0.0017204577184398216 0.0014419342426286524 -0.0010205768647105914 -0.0010107300903031255 0.0023207496941277583 0.0011421153318402107 0.0059197754546993749 0.0027166558379354009 -0.00024315745307937307 0.0017960878013831994 0.0038778837128504665 -0.00050273906648346726 0.00027282930824092279 -4.765641217538387e-05 -0.00059463966204442568 -0.00052097617707609243 0.00085456946542070828 0.0017788294329428786 -0.0020594609357572247 0.0028169630929886199 -0.0013818117527859375 -0.0010302607579258756
leaf_weight=76037.508778691292 1335.8069359064102 12798.856459379196 143903.7845351696 50580.604162573814 31265.10654437542 93855.22744178772 90640.54224729538 130709.80715370178 126138.94287121296 16734.995651006699 939.9196469783783 277957.6229840517 9809.522549033165 222748.86826336384 82227.351800918579 2056.4919158220291 149143.85302758217 54271.799999475479 18074.565242171288 115421.87800168991 41145.229367256165 201027.18216466904 245947.84119343758 29083.738796114922 55193.195707201958 15830.57766854763 45062.362050414085 61837.380864977837 154589.09185171127 13338.499307990074 410881.47185313702 6929.8480694293976 241493.78814089298 258086.82049918175 126902.71817862988 47374.015171647072 43579.496612668037 18330.823654174805 54314.192239880562 35085.91370677948 6680.5493290424347 2982.3170539140701 27992.320192933083 57627.429547071457 7601.7000089883804 22033.966068029404 5242.0247869491577 65833.237774252892 22114.340771794319 17215.317052364349 23115.597555875778 51947.169075846672 72629.81874370575 203373.95682549477 67569.313640594482 200796.61360394955 50299.721635699272 52968.214140892029 25583.691124558449 73264.246901035309 8223.3201544284821 177951.31328856945
leaf_count=49013 522 3679 80846 20283 16130 48118 40306 60874 47615 3261 258 114723 3312 98455 35695 692 82177 21262 4765 42261 19782 118080 107831 15419 24028 5917 13462 33222 76801 4889 162286 1848 98342 113330 62388 27286 23108 7399 19767 11108 2456 1160 14578 30154 2900 8553 1126 22851 10295 5925 5752 24637 31090 91669 32885 96574 20563 19510 16440 24645 4616 93149
internal_value=-0.000173952 0.00427015 -0.00862515 0.00820184 0.00113525 -0.00605372 0.00750478 0.000329152 0.00611247 0.0230309 -0.0143613 0.00514748 0.00715743 0.00161812 -0.00388993 -0.00870751 -0.0127679 0.00660533 0.0108835 0.0121257 -0.00277919 -0.0148775 0.00258236 -0.0019254 -0.00322122 0.00576771 0.0114528 -0.00991904 -0.00573977 0.013915 0.00681754 0.0130962 0.00345959 -0.000267899 -0.00544392 -0.0182333 -0.00453643 -0.00376443 0.0131233 0.00901012 -0.00082491 -0.0104022 -0.00586112 -0.00494285 -0.00365147 0.0118338 0.0248614 0.0101449 0.00183308 0.00675342 0.0290084 -0.00147792 0.00285346 -0.00105999 -0.00604292 -0.00459057 0.00227215 0.0072106 -0.0159217 0.0118181 -0.01897 -0.00864509
internal_weight=5.05573e+06 3.31338e+06 1.74236e+06 1.46989e+06 1.84349e+06 1.20305e+06 1.4039e+06 1.62587e+06 994212 65987.9 539304 802240 217624 1.14929e+06 662713 540338 382086 211046 409686 306137 476581 201967 760490 292701 210474 711600 288063 383692 156646 26137.4 433642 22760.4 537741 388797 370012 157219 276157 232577 172641 128607 113821 180118 30974.6 192132 134504 57119.9 6577.83 191972 40445.2 71487.1 39850.6 107140 82439.3 244519 96653.1 232062 296248 103549 81181 127578 33807 239789
internal_count=2282068 1364268 917800 557820 806448 604192 540239 723550 395546 17581 313608 325080 82898 499395 319482 284710 216253 81250 144693 104900 224155 118338 325191 135120 99425 284774 100135 207217 77493 8568 170051 7765 226736 174204 184362 97355 136244 113136 57874 46848 51121 97915 15738 95442 65288 19661 1648 70466 17694 27187 9013 48665 34402 111451 48304 112704 128394 39793 48342 44412 21056 126371
is_linear=0
shrinkage=0.035


Tree=7
num_leaves=63
num_cat=0
split_feature=16 16 16 12 17 16 17 16 17 35 25 17 17 35 17 25 35 16 11 18 20 25 31 15 18 47 31 54 32 18 16 3 18 47 35 56 53 16 56 35 55 47 15 35 21 35 25 18 34 29 15 21 41 47 56 35 9 34 56 47 15 15
split_gain=146403 31437 20251.9 13176.9 6085.63 4582.2 3941.12 3661.52 3443.59 2576.98 2248.08 1783.5 1720.19 1553.7 1406.62 1222.61 1202.61 1107.09 1002.99 997.793 981.142 1044.33 977.826 868.15 862.949 862.283 812.751 997.84 775.451 757.557 744.109 711.008 709.416 697.691 690.82 971.085 670.925 657.535 656.948 1375.04 651.844 647.497 872.966 629.999 604.22 598.49 587.101 577.821 565.451 542.918 539.083 530.383 516.728 516.344 492.135 729.886 473.01 477.696 460.318 455.812 720.168 523.266
threshold=0.031130075454711918 0.049152052029967315 0.02192780934274197 -0.27102452516555781 0.039006192237138755 0.067169461399316802 0.029027872718870643 0.068774413317441954 0.019279990345239643 0.076005134731531157 0.14801953732967379 0.031823659315705306 0.03980656526982785 0.01349380658939481 0.023294878192245964 0.21280469745397571 0.027268429286777977 0.039977325126528747 -0.27076953649520868 -0.082287676632404314 -0.12424706667661665 0.3756880015134812 0.1045590750873089 0.03739916346967221 -0.082287676632404314 0.013637138530611994 1.0206379294395449 0.65768420696258556 1.078763008117676 -0.069127861410379396 0.025740742683410648 1.0000000180025095e-35 -0.092812020331621156 0.45444461703300482 0.027013525366783146 0.65035375952720653 0.556379795074463 0.018152940087020401 0.46858167648315435 0.017587526701390747 0.5136564075946809 0.33671914041042333 0.015664039179682735 0.017587526701390747 -0.11679636687040328 0.019327605143189434 0.018617022782564167 -0.092812020331621156 0.72486037015914928 0.7194659709930421 0.018176154233515266 0.0075108052697032699 1.0210559368133547 0.48138576745986944 0.41954639554023748 0.023921657353639606 -0.091294229030609117 0.21169768273830417 0.43924427032470709 0.28428678214550024 0.014970738440752031 0.017960677854716781
decision_type=2 2 2 2 2 2 2 2 2 2 2 2 2 2 2 2 2 2 2 2 2 2 2 2 2 2 2 2 2 2 2 2 2 2 2 2 2 2 2 2 2 2 2 2 2 2 2 2 2 2 2 2 2 2 2 2 2 2 2 2 2 2
left_child=2 4 8 7 9 12 14 32 25 11 17 28 -5 33 56 49 37 43 -9 -16 -7 40 24 -12 -13 -1 34 -28 -2 -15 -31 -18 -3 -8 38 41 48 -10 39 -21 -22 42 -36 -6 -19 -26 -27 -46 -24 -14 -43 -48 -35 -52 -32 -56 -4 -58 -47 60 -41 -61
right_child=1 3 6 5 10 20 13 18 16 -11 23 22 15 29 19 -17 31 44 -20 26 21 -23 36 -25 45 46 27 -29 -30 30 54 -33 -34 52 35 -37 -38 -39 -40 59 -42 50 -44 -45 47 58 51 -49 -50 -51 53 -53 -54 -55 55 -57 57 -59 -60 61 -62 -63
leaf_value=-0.0020863783214292654 -0.0006107404156796885 0.0037213490188908391 0.0011465513777146909 0.00022649767796807034 -0.00015733315562063821 0.0027236386939185129 -0.00095680217310470709 0.0059271156790858641 -0.0016470177170792677 0.0023287546595878654 0.00058552943967169033 0.0056190061235641998 0.00050547033511107523 0.0051850858438070241 0.0040967593966027135 0.0013960509732998396 0.0041356286858337046 0.0013266218465702074 0.0033136203703527578 -0.0010241331517855435 0.0019087147422063705 0.0024870066292448194 0.00061112733406095483 0.0011429601867929292 -0.000383047261851434 -0.001928683237195389 0.0029631337119072941 -0.0005579348319575783 -0.00016288637695008229 -0.00065412745602233763 0.00029242284176039888 -0.0010231424899879995 0.0017960434238220027 -0.00049181782880407536 0.0012068083179196272 -0.0009061355156758143 0.00015475690574714445 -0.0013442442146325609 -0.0013532802604256386 0.001457324762942074 0.0013091669391431489 0.0054237155078187185 -0.0010774624875123427 0.00029464052126859143 0.0048917452957665686 0.0013536592430762669 -0.0015161431710913195 0.00040095027821428171 0.0028767261156710773 0.00093123847083570932 -0.0012430535958544266 -0.0020950960670593939 -0.0010636911264365009 0.0029828016717848346 -0.00067555384533717283 -0.00013328593754712931 -0.0013665194804696821 -0.001049263345728474 -4.7699861028677351e-05 0.0054421971802133973 -0.0013077612694085295 -0.00010383444828857948
leaf_weight=33323.443309187889 188468.90360081196 5707.5497864484787 1662.5135649442673 119548.00835764408 170490.89249837399 18563.201908588409 87972.449065804482 25156.418115496635 108417.99111068249 12459.143765807152 189785.66055035591 1335.7845259904861 132848.154504776 1365.7879799604416 1053.6707907915115 218853.79774010181 1712.9650536775589 24252.069004297256 27186.655357837677 149141.63396704197 119012.52915656567 130388.14465332031 13934.5782558918 119134.87379109859 165030.68976950645 61254.390657424927 3159.1658346652985 45948.007992148399 118936.82331311703 113717.83132731915 40092.398827552795 90996.342684149742 49930.902036786079 118426.28958427906 7048.8932690620422 48176.780358433723 196654.77528691292 212763.91817033291 56112.866138100624 3984.9217517375946 257301.52745139599 3851.070730805397 8343.7386379241943 154045.21881699562 1742.4001319408417 8113.5755558013916 88477.158129811287 334336.83823800087 6440.0792908668518 366100.61353802681 2434.1934807300568 25686.524019241333 31366.762896299362 3028.953617811203 66009.103853106499 172301.11503589153 73237.183241844177 67961.181263327599 137332.43406414986 3793.1073650121689 4675.5522923469543 4178.5411320924759
leaf_count=21942 91824 1467 627 51855 78065 5445 45657 5164 64338 4112 78305 319 55372 367 258 82023 587 9235 7357 78354 42623 45513 5725 44774 77903 38530 1049 22500 54477 55780 17254 47603 17113 58078 2881 24624 86297 118985 31118 1596 99069 1220 4244 66192 469 3074 50998 142178 2083 145126 1263 16621 16624 1121 32852 77866 41085 35892 61307 1217 2493 1857
internal_value=-0.00021444 0.00410432 -0.00842978 0.00792049 0.00105841 0.00698781 -0.00561453 0.0196895 -0.0134895 -0.00111821 0.00291728 -0.00135365 0.00538022 -0.00378859 -0.00797743 0.00602763 -0.0116407 0.00179922 0.0263347 -0.00676765 0.00955047 0.00926079 -0.000121278 0.00539591 -0.0013769 -0.017155 -0.00687195 -0.00270242 -0.00347368 -0.00243872 -0.00252945 -0.00812831 0.0134368 -0.00602241 -0.00756649 -0.00460939 0.00168262 -0.0126545 -0.00853769 -0.00742922 0.00832523 0.00103141 -0.00337523 0.000316379 0.0031347 -0.0014978 -0.0161737 0.00274959 0.00772823 0.00507083 0.00831484 -0.0146891 -0.00456909 0.0012403 -0.0015549 -0.00215851 -0.0108981 -0.0111167 0.000138951 0.00211512 -0.00344206 0.00815404
internal_weight=5.05477e+06 3.31309e+06 1.74168e+06 1.4706e+06 1.84249e+06 1.36262e+06 1.11904e+06 107982 622633 848707 993788 836248 837351 631252 487792 717803 413891 684867 52343.1 344931 525265 506702 528842 308921 311812 208742 343877 49107.2 307406 393486 392120 92709.3 55638.5 237766 294770 72883.6 217029 321182 221887 165774 376314 24706.8 15392.6 324536 360331 310477 175418 336079 20374.7 498949 9314.22 114164 149793 5463.15 278403 238310 142861 141198 145446 16632.1 8660.47 7971.65
internal_count=2281947 1364466 917481 558127 806339 527026 557877 31101 359604 387121 419218 383009 334376 304478 253399 282521 231513 296139 12521 175795 192650 187205 236708 123079 142603 128091 175537 23549 146301 184119 183752 48190 18580 120359 151988 35353 94105 183323 116635 85517 141692 10729 7125 144257 151882 142284 106149 142647 7808 200498 3604 67619 74702 2384 127972 110718 77604 76977 64381 7163 4089 3074
is_linear=0
shrinkage=0.035


Tree=8
num_leaves=63
num_cat=0
split_feature=16 16 16 12 23 17 15 17 16 17 35 2 25 3 16 17 18 16 56 35 35 26 19 25 21 46 19 20 25 10 45 43 9 27 3 38 14 46 52 25 17 53 33 17 12 45 11 21 21 25 35 56 23 37 23 43 25 21 35 35 10 12
split_gain=138021 29404.5 19425.7 13016.9 6569.4 4568.38 4268.54 3997.74 3057.28 3031.21 2386 1842.09 1472.93 1451.21 1430.87 1267.94 1253.94 1202.57 1192.43 1646.22 1106.54 1075.86 1026.41 962.367 944.041 856.578 853.701 800.604 774.334 740.403 699.554 694.297 1115.73 688.716 661.782 649.584 643.141 1262.59 635.939 625.936 620.441 593.43 793.328 582.281 546.849 658.2 519.197 610.166 515.412 507.505 501.851 635.439 496.644 481.066 480.922 475.271 467.227 552.521 457.56 456.646 456.123 444.084
threshold=0.031130075454711918 0.049152052029967315 0.021422398276627067 -0.28782382607460016 -0.087608635425567613 0.034618338569998748 0.036307133734226234 0.024513801559805874 0.067968785762786879 0.019279990345239643 0.019144386984407905 -0.065912127494811998 0.08691005036234857 0.029543817043304447 0.067968785762786879 0.037063306197524078 -0.069127861410379396 0.025885176844894889 0.56565839052200328 0.033918479457497604 0.027268429286777977 1.1295058131217959 -0.15388536453247068 0.058964276686310775 -0.060105627402663224 0.041944826021790511 -0.17051953077316281 -0.13772762566804883 0.21280469745397571 -0.12070882320404051 0.06335152313113214 0.1351541876792908 -0.10475054383277892 1.5553829073905947 1.0000000180025095e-35 0.014404451008886101 0.037429343909025199 0.8319796919822694 0.80496868491172802 0.067459125071764006 0.052351659163832671 0.69877231121063244 1.3389545679092409 0.029304466210305694 -0.14639848470687863 0.27593901753425604 0.3366388082504273 -0.096265714615583406 0.021271137520670894 0.19719564914703372 0.0092418380081653612 0.61801359057426464 -0.094434738159179674 7239188.5000000009 -0.032566219568252557 0.33401118218898779 0.020559671334922317 0.0025086519308388238 0.018424047157168392 0.044711822643876083 0.10079658031463624 -0.23991462588310239
decision_type=2 2 2 2 2 2 2 2 2 2 2 2 2 2 2 2 2 2 2 2 2 2 2 2 2 2 2 2 2 2 2 2 2 2 2 2 2 2 2 2 2 2 2 2 2 2 2 2 2 2 2 2 2 2 2 2 2 2 2 2 2 2
left_child=2 4 9 8 11 21 15 29 30 25 17 -2 -13 49 28 -5 -12 61 54 39 50 43 -10 24 -15 -1 -17 -16 52 -4 -3 -28 55 -31 -22 -25 -14 48 -35 -20 -34 42 -23 -6 -19 -46 47 -29 -38 -7 -11 -52 59 -21 -18 -33 -27 -58 -37 -8 -43 -9
right_child=1 3 7 6 5 13 14 10 22 20 16 12 36 23 27 26 18 44 19 53 34 41 -24 35 -26 56 31 46 -30 33 -32 32 40 38 -36 58 37 -39 -40 -41 -42 60 -44 -45 45 -47 -48 -49 -50 -51 51 -53 -54 -55 -56 -57 57 -59 -60 -61 -62 -63
leaf_value=-0.0019180424655564981 0.0050285972199866687 0.0017733452676323785 0.0013152047600170085 3.2525164719277902e-05 -0.00069541604850679572 -0.0001523409834734957 0.0010866282158333799 -0.00012266181984926439 0.0059107305671706909 -0.0015916914507389166 0.0046563768859439756 0.00036974671870549335 0.00088284297088858058 0.00058644133304963414 0.002789257997032404 0.0027308738237603065 -0.0001949177347622329 -0.00025182431167578121 -0.0011035852276568604 -0.00037791556518828608 0.0037053361544242334 4.2015588943664382e-05 0.0031471928280864671 0.00018133941744159481 -8.5755995360601404e-05 -0.0018552299257666089 0.00025759591033662005 0.0021866179803152926 0.0015063361728577399 -0.0011941527066383804 0.002933450505601772 0.0012536822519854708 0.00067036880410306545 0.00096093303744993733 -0.0010099175239374535 0.00046065464316192201 0.0015635472267638828 0.00077421346000898972 -0.0009193593720824482 -0.00054923044599177048 0.0012627405725526991 -0.00027228395287962352 0.0021284158755450052 -0.00035611563001859242 -0.0010641053142010895 -0.00062613991461188498 0.0026152478746709795 0.001614055140553272 0.0030684780943027114 0.00047442008352879665 -0.0012504850674611874 -0.0018622096864162906 0.00074893078587047815 0.00022720542439198116 0.00055736368852756359 0.003351855578658264 -0.0013683467832895186 -0.0020020297307442696 0.00087661628192690314 0.002193084701239877 0.00056489857201135374 -0.0010941358027341174
leaf_weight=63995.292600154877 6661.1535184383392 30500.212978243828 2383.591153383255 73443.929510831833 106714.86963319778 274777.69806694984 75155.918968558311 8688.2660357952118 26351.040058255196 109185.67496538162 2051.7078182697296 85701.102470517159 74630.534353971481 66432.071492433548 13012.941845178604 6768.4247262477875 86137.045944094658 59719.199006199837 80142.0145611763 143286.43326926231 1622.4950646162033 19254.518488287926 21906.825597763062 176555.11981093884 207445.43627917767 51105.731452941895 65719.15556538105 22059.638807058334 154531.71339678764 185971.08019304276 14062.630277395248 4275.9449977874756 308487.07131004333 4462.8748409748077 80102.873974084854 208254.88862323761 21321.595219016075 24448.647351264954 32547.561794996262 56464.320685625076 109228.87978756428 112947.30056059361 8668.0273497104645 217241.00167751312 47805.40013730526 206922.27133977413 95290.901546120644 281530.55371522903 13368.083644866943 31701.272888064384 155964.41839277744 21170.400208950043 148486.6643474102 39556.621037244797 35328.823133468628 5689.2087032794952 63149.138259410858 25834.678576827049 165456.12356376648 15006.611758828163 20600.897654175758 177222.91885530949
leaf_count=41016 1651 10675 863 32609 53040 125306 28841 4091 5428 64488 538 35854 28416 27383 3676 2049 39016 28105 42368 67198 559 8423 5885 76664 93661 32074 28062 6946 56505 101493 3980 1536 125759 1823 42088 88933 6891 9731 16869 27389 41873 52509 3026 102213 25367 102729 33166 104629 3755 13062 86824 13063 60217 16977 15192 1520 35802 16575 66640 4939 8911 94580
internal_value=-0.000213014 0.003979 -0.00819259 0.00766795 0.00103229 0.000250439 0.00681377 -0.00560567 0.0203547 -0.0134768 -0.00460507 0.0066197 0.00606911 0.00146979 0.00845766 0.00450649 -0.00273418 -0.00626131 -0.00286129 -0.00398365 -0.0115795 -0.00258955 0.0264592 0.00223446 0.000539083 -0.0168983 0.00513705 0.00989943 0.00694719 -0.00979379 0.0137427 0.00496759 0.00548227 -0.0100013 -0.00798644 0.00307824 0.00836417 0.0110909 -0.00563953 -0.00689046 0.00520604 -0.000255539 0.00438445 -0.00375283 -0.00494176 -0.00564852 0.00962053 0.0089127 0.0153843 -0.000586412 -0.0126049 -0.0114536 0.00569702 -0.00181175 9.03295e-05 0.0170562 -0.0153646 -0.0138311 0.00390482 0.00774631 -0.00122586 -0.008493
internal_weight=5.05451e+06 3.31369e+06 1.74082e+06 1.47151e+06 1.84218e+06 1.61605e+06 1.37869e+06 1.16869e+06 92820.7 572131 943325 226131 219470 1.13062e+06 805075 573613 442967 500358 440915 319449 368046 485427 48257.9 824144 273878 204085 500169 411894 393181 225365 44562.8 493400 427681 222982 81725.4 550266 133769 59138.3 37010.4 136606 417716 161471 27922.5 323956 314447 254728 398881 303590 34689.7 306479 286320 177135 238649 182843 121466 9965.15 140090 88983.8 373711 90162.5 133548 185911
internal_count=2281451 1364364 917087 558295 806069 719771 532327 584598 25968 332489 463550 86298 84647 491649 298919 233408 208678 254872 208140 153932 207022 228122 11313 353281 121044 125467 200799 148417 150502 121048 14655 198750 170688 120185 42647 232237 48793 20377 18692 69757 167632 72869 11449 155253 156201 128096 144741 111575 10646 138368 164375 99887 93997 84175 54208 3056 84451 52377 155573 33780 61420 98671
is_linear=0
shrinkage=0.035


Tree=9
num_leaves=63
num_cat=0
split_feature=16 16 16 12 23 17 17 17 35 19 35 23 25 25 3 16 35 46 14 32 23 30 43 9 9 46 9 21 38 17 56 35 35 21 56 17 17 3 30 9 15 21 19 12 45 12 15 9 9 43 44 24 56 25 21 15 25 21 16 21 38 19
split_gain=129886 27465.2 20088.7 11754.6 6788.65 5640.6 4787.77 3855.79 2149.03 1932.44 1874.08 1765.29 1340.76 1325.47 1298.79 1279.3 1199.59 1138.96 2425.3 1092.02 1091.05 985.725 938.497 1538.2 856.591 814.284 789.668 780.614 761.633 723.098 712.015 778.473 688.724 674.219 655.553 646.68 646.431 630.091 621.612 615.42 576.389 571.298 656.087 558.733 658.168 668.406 557.603 553.041 523.309 505.541 490.852 487.331 472.224 463.165 711.916 455.807 450.876 500.985 442.02 441.72 439.283 432.954
threshold=0.03474096022546292 0.024268555454909805 0.059134006500244148 -0.27857896685600275 -0.088773190975189195 0.01900929864495993 0.038864942267537124 0.029027872718870643 0.015825369395315651 -0.17051953077316281 0.027268429286777977 -0.084063708782196031 0.16232535988092425 0.3756880015134812 0.033674061298370368 0.019022930413484577 0.057740155607461936 0.81123247742652904 0.034783374518156059 1.1831198334693911 -0.087608635425567613 0.43592077493667608 0.098312187939882292 -0.12553408741950986 -0.10475054383277892 0.027476517483592037 -0.12553408741950986 -0.11308725923299788 0.011450904887169601 0.049357449635863311 0.60395866632461559 0.018776159733533863 0.017587526701390747 0.11608898267149927 0.44892187416553503 0.029304466210305694 0.023663613013923172 0.0075858831405639657 0.58042809367179882 0.061791002750396735 0.035064771771430976 0.0049961903132498273 -0.011480481363832949 -0.17322102189064023 0.43373703956604009 0.040659129619598396 0.037166953086853034 -0.14226469397544858 0.17548817396163943 0.74864497780799877 0.48186624050140386 -0.13108436018228528 0.59660717844963085 0.085132662206888213 -0.0032105873106047507 0.013823133427649738 0.11367980390787126 0.029049652628600601 0.082540106028318419 0.198081910610199 0.0078713288530707377 -0.023560867644846436
decision_type=2 2 2 2 2 2 2 2 2 2 2 2 2 2 2 2 2 2 2 2 2 2 2 2 2 2 2 2 2 2 2 2 2 2 2 2 2 2 2 2 2 2 2 2 2 2 2 2 2 2 2 2 2 2 2 2 2 2 2 2 2 2
left_child=1 5 4 9 17 25 14 16 38 -4 15 22 21 29 -6 -7 19 18 47 36 37 -8 -5 -24 -12 -1 -20 -23 -22 -13 31 43 51 -34 55 -16 -3 -10 -9 -21 -19 42 -27 -17 45 -45 -40 -2 52 -41 -44 -29 -26 -28 -55 -33 -39 -58 -11 -14 -54 -30
right_child=2 7 3 11 6 10 12 8 20 58 24 13 59 -15 35 30 -18 40 26 39 28 27 23 -25 48 41 53 32 61 -31 -32 34 33 -35 -36 -37 -38 56 46 49 -42 -43 50 44 -46 -47 -48 -49 -50 -51 -52 -53 60 54 -56 -57 57 -59 -60 -61 -62 -63
leaf_value=-0.0018934702594863401 0.0028906005928727618 -0.0011012652621079611 0.0054666930045206693 0.0012224241237783098 -0.00037768401407825005 -0.0014947902228157918 -0.00020317395782584735 -0.00079168037990125174 0.0057850157029622771 0.0022967417164071698 0.0031893351449584859 0.00054945308338769875 0.00075192963364237189 0.0021632722054610019 -0.00035520937950027457 -0.00070927607984672808 0.0024342473187897334 -0.00034307140628245242 0.0038536801791963339 -0.00060956744915737231 -0.00036791076269401677 0.0010791662454031682 0.0040803964431992776 0.0019277861112748697 -0.00039773784147340154 -0.0017392890618978345 0.0010137929618073778 -3.0723462761649018e-05 -0.0002954486500033894 0.0011821416907786665 -0.0016022634105328335 0.0036001785472406294 0.0005013861595088079 0.0016949968953311884 -0.00091630692981476206 0.00017044283899929019 -0.00081940029701196989 -1.8455377508865031e-05 -0.00046206467954360773 0.0021533236673689673 0.00094000920029863521 -0.0019288888324894473 -0.0011437621409848288 -0.0013313154686500211 -0.0010667183093863882 -0.0017688769635741724 0.0007456235397380669 0.00080364497960295123 0.0045222362762120808 -0.00017142345667280531 -0.0016002100092730217 0.00038878374846787689 -0.0011293433033694685 0.0012272767786222338 0.0028497285571442953 -0.00036305782439251954 0.00037607444809763604 0.0018088991437693195 0.0035106339987462909 0.002130342689993629 -0.00075686290851534061 0.00017104800345706995
leaf_weight=46597.720265746117 3551.5151124000549 73245.429505467415 28811.881770968437 86222.954817771912 219022.31994342804 154244.23912167549 73139.496563673019 112278.94273090363 1259.2048661708832 29615.040966749191 1777.2305972576141 130899.78495252132 316532.44785892963 85036.497954845428 52279.669797182083 27252.860498189926 3138.2634816169739 12290.857407212257 9076.386411190033 90369.175724625587 210497.21486544609 48279.80549800396 10513.662614583969 230578.98657941818 27776.515797257423 48530.583756446838 14218.291332960129 131069.45892524719 72705.175457835197 276149.60955643654 31709.082032680511 3129.4935789108276 258648.64716351032 19982.327776670456 45727.847524881363 321400.2681196928 222740.83225238323 27920.499624490738 280968.96405720711 4633.8484822511673 99003.355963349342 38529.395341873169 42232.951872587204 97061.762649536133 130566.95569443703 13305.694406270981 9364.1532171964645 104494.70792925358 1173.9778031110764 11677.143609046936 33277.537274956703 225438.88946425915 58108.979434013367 24107.297409415245 26124.031388998032 11225.01664686203 23700.70734500885 9964.1643788814545 12535.645818114281 14667.656517267227 68083.055615544319 157261.83280551434
leaf_count=30145 991 39495 6091 32855 103163 90560 33009 56865 305 9055 570 54202 127349 30234 24610 13896 1033 5563 2319 44645 98764 18707 2602 80284 13064 30035 5255 57956 34028 107058 18720 1146 107915 7349 24076 140344 113197 12229 136099 1628 38848 24805 23355 54745 70592 8182 3820 40431 392 5508 19838 96773 31242 7964 7586 5243 9476 3408 3090 5320 34524 69140
internal_value=-0.000226909 -0.00663895 0.00468124 0.00904536 0.00271213 -0.0114213 0.00185511 -0.00342947 -0.00215939 0.0227107 -0.0098571 0.00786183 0.00323414 0.00653674 -0.000675722 -0.0108788 -0.00626472 0.00762958 0.00933853 -0.00643278 -0.000634696 0.00242106 0.00985385 0.0109748 -0.00650863 -0.0164399 0.0142422 0.00283436 -0.00125026 0.00570634 -0.00973582 -0.00925177 0.00250818 0.00381191 -0.00564982 0.000578577 -0.00752708 0.0036793 -0.00406537 -0.00339636 0.00484122 -0.0152699 -0.0141124 -0.0100586 -0.010596 -0.0125862 -0.00320998 0.00600118 -0.00678556 0.00285994 -0.0120702 0.00148917 -0.00696321 0.0128797 0.0144587 0.000874217 0.00317735 0.00590452 0.0179329 0.00509137 -0.00787267 0.000142108
internal_weight=5.05573e+06 2.19204e+06 2.86369e+06 890364 1.97333e+06 880311 1.68046e+06 1.31173e+06 905921 70962.6 671143 819401 1.08776e+06 492086 592702 514223 405805 292866 181572 402666 503309 756559 327316 241093 156920 209168 73526 683419 440464 407049 359979 328270 635139 278631 60082.4 373680 295986 62844.6 402612 106680 111294 162570 124041 268187 240934 110367 290333 108046 155143 16311 75510.5 356508 153969 64449.6 50231.3 14354.5 61585.4 33664.9 42150.7 331200 126192 229967
internal_count=2281693 1124770 1156923 325471 831452 495130 722495 629640 424134 18236 366952 307235 454378 191494 268117 287160 205506 108957 64546 204473 227350 321709 115741 82886 79792 128178 23124 288700 201932 161260 196600 177880 269993 115264 30465 164954 152692 25418 196784 51781 44411 98033 73228 147415 133519 62927 139919 41422 79222 7136 43193 154729 78830 20805 15550 6389 25113 12884 12145 132669 65766 103168
is_linear=0
shrinkage=0.035


Tree=10
num_leaves=63
num_cat=0
split_feature=16 16 17 12 17 16 23 25 17 23 19 3 23 25 23 33 16 14 16 19 47 2 43 19 17 19 12 17 12 10 18 17 18 47 38 0 47 15 15 15 2 16 14 47 33 14 31 53 33 23 12 45 33 12 24 11 47 47 12 47 30 29
split_gain=122239 25209.6 18937.4 11629.9 7762.16 5030.34 3445.07 2559.37 2526.69 2030.77 1943.94 1894.24 1848.71 1434.25 1412.33 1319.03 1317.79 1148.19 1034.21 1006.28 965.836 918.001 907.212 1209.45 896.58 852.733 846.657 804.802 794.815 774.911 751.008 704.732 699.566 657.809 592.946 581.846 558.79 601.995 553.798 535.681 531.857 531.555 528.04 525.696 524.642 507.957 493.972 656.417 584.518 493.724 491.02 465.925 463.441 461.924 499.735 451.748 431.095 425.091 415.105 436.177 396.871 394.534
threshold=0.031438982114195831 0.056826757267117507 0.023294878192245964 -0.28782382607460016 0.039315488189458854 0.025442504324018959 -0.094434738159179674 0.12253584712743761 0.017759775742888454 -0.084063708782196031 -0.17051953077316281 0.033674061298370368 -0.084063708782196031 0.27081382274627691 -0.087608635425567613 1.2065277695655825 0.039977325126528747 0.031151054427027706 0.020728361792862419 -0.098793078213930116 0.29765145480632788 -0.065912127494811998 0.066037841141223921 -0.17051953077316281 0.030435055494308475 -0.035505024716258042 -0.28782382607460016 0.031956514343619354 -0.18256112933158872 0.0079782009124755877 -0.092812020331621156 0.049357449635863311 -0.082287676632404314 0.77354887127876293 0.016216341406106952 0.045250296592712409 0.25656886398792272 0.014206456486135723 0.014843486249446871 0.014206456486135723 -0.065912127494811998 0.074368145316839232 0.039958089590072639 0.92579019069671642 0.57909357547760021 0.050313347950577743 0.091557413339614882 0.67867186665534984 1.3738898634910586 -0.065584868192672716 0.44488281011581426 0.80170759558677684 0.67203298211097728 -0.0038139224052429195 -0.11763880401849745 0.10512101650238038 0.86884096264839183 0.14074981957674029 -0.21548604965209958 0.41494484245777136 0.52493077516555797 0.67077982425689708
decision_type=2 2 2 2 2 2 2 2 2 2 2 2 2 2 2 2 2 2 2 2 2 2 2 2 2 2 2 2 2 2 2 2 2 2 2 2 2 2 2 2 2 2 2 2 2 2 2 2 2 2 2 2 2 2 2 2 2 2 2 2 2 2
left_child=2 4 8 10 6 18 17 16 29 22 -3 27 42 31 30 19 -6 -2 35 -10 -16 -18 -5 -24 -13 28 -23 -8 -22 -1 -7 -11 -20 40 58 57 39 -38 -27 -34 -19 -12 -9 53 -21 -25 -26 48 -48 -41 -15 60 -39 -44 -55 -32 -47 -4 -14 -60 -28 -42
right_child=1 3 5 9 7 14 11 12 15 13 41 24 34 50 20 -17 21 33 32 44 25 26 23 45 46 38 51 -29 -30 -31 55 -33 36 -35 -36 -37 37 52 -40 49 61 -43 43 -45 -46 56 47 -49 -50 -51 -52 -53 -54 54 -56 -57 -58 -59 59 -61 -62 -63
leaf_value=-0.0018047123497897514 -0.00011977204592230229 0.0052623891861889125 -0.0013783888590914823 0.0010902177033436402 1.1277929917207074e-05 0.0043358179618385034 -0.00065009149053444476 0.00093077151554306792 0.0025772432404263857 0.00043562467736126654 0.0021466958510458424 -0.00032132277316608202 0.0012508886869579943 0.0012988958069933621 -0.00070232114788621825 -0.00093176577707121963 0.0052763967139782273 0.0048384223763166916 0.003976513470481567 -0.0017602996419509929 -7.2381475728385786e-05 0.0013286631168483412 0.0036088406100488251 0.0014266131263973266 -7.8635023940574941e-05 -0.0013422058746619236 -4.7776221309793853e-05 -0.00024698925482178491 -0.00082115340296813719 -0.0014235601382230759 1.1830918769548887e-05 0.0010428808989676114 -0.00064154801156112145 0.00044441081319385775 0.00084186369452569931 0.0036138332413548193 -0.0015804726708824703 -0.00092090241300943115 -0.00025663350651405757 -0.00019947218135812228 -0.00020302017290799016 0.0031615023487220639 0.0011413967724088344 0.0010582058023978738 -0.0013225167158854626 0.0022359427642148653 0.00051795802731874287 0.00017729291451292495 0.0023007296962012226 -0.0012115202823365667 0.0021960092598907058 0.00069004167847904179 -0.00059867501782767966 0.0033563056336747138 0.0016458579934616278 0.0010970440963834021 0.0021240797852460653 -0.0011491147268041946 -0.00033818739203131929 0.00035463032920850988 0.00037854828220666974 0.0020682048748598848
leaf_weight=101653.82036268711 9498.0813368558884 28431.320198893547 23501.500821471214 78636.952847719193 267463.1444286108 1506.2418256998062 142775.7403999567 82926.702371120453 1296.8508869409561 145929.07142913342 24526.045188546181 113546.00843381882 8000.2265284061432 107272.4936401844 166640.65935575962 80348.398223161697 2760.2578135728836 3705.8285261392593 804.72278928756714 34272.152519822121 34361.339496850967 31244.77277982235 9571.9688382148743 117322.95992040634 142380.96180272102 9065.4184585809708 74406.072312355042 239212.08190834522 110678.65327966213 56097.047273039818 41760.58034658432 241848.68538594246 31869.764944195747 6013.4723076820374 301384.19698262215 1105.4826010465622 10249.07766699791 129340.52056825161 332406.72704422474 6604.5968947410583 1937.0747404098511 17714.786124706268 22146.551645278931 21338.663338541985 251320.87973177433 31737.122387886047 32523.824936509132 202793.77978301048 9190.167622089386 64161.372940063477 79437.51616537571 134466.40621471405 142728.1357588768 13691.484970569611 10056.451228022575 7877.1595360040665 119886.57343888283 142344.64371097088 19020.861364483833 124598.61428594589 236059.92044353485 17993.531876683235
leaf_count=64819 3991 6037 13417 30267 119383 372 70685 30917 405 60926 7742 53259 2934 40747 83130 42421 728 832 207 21292 15636 11722 2468 42415 63929 5039 32750 110530 56034 32975 18312 94611 16160 2515 121636 374 6051 67668 157687 2803 805 4518 7448 8270 144032 9507 13456 88863 3204 35093 28293 54939 71351 3812 3471 2848 41841 78303 8314 52513 99808 5560
internal_value=-0.000248315 0.00376722 -0.00762469 0.00839068 0.00172675 -0.00529291 -0.000749348 0.0034176 -0.0132077 0.00735225 0.0220791 -0.00120011 0.00511315 0.00606369 -0.00333144 -0.011616 0.0020474 0.00941017 -0.00779228 -0.0127262 -0.00377003 0.0031464 0.00942481 0.0103622 0.000216627 -0.00298224 0.00302963 -0.00305618 -0.00523065 -0.0169128 0.00226931 0.00485006 -0.00679606 0.0128026 0.00399744 -0.0100939 -0.0068643 -0.00606 -0.00202716 -0.00907634 0.0154321 0.0173143 0.00847882 0.0107844 -0.012866 0.00992686 0.00101923 0.00197358 0.00597209 -0.0107735 0.0085841 0.00263846 -0.00574612 0.0128951 0.0162873 0.00152958 0.0112653 -0.0102627 0.0022119 0.00177945 0.00189296 0.013164
internal_weight=5.05545e+06 3.27345e+06 1.782e+06 1.00232e+06 2.27113e+06 1.25701e+06 921571 1.34956e+06 524989 931643 70672.2 882423 603164 574488 704297 367238 746401 39148 552710 286890 653153 478937 357156 278519 500435 486512 476177 381988 145040 157751 51144 387778 385758 29649.9 453004 166952 384953 282318 341472 102636 23636.4 42240.8 150160 67233.2 285593 268947 386889 244508 41714 70766 186710 444932 272069 45894.5 23747.9 49637.7 151624 165846 151620 143619 310466 19930.6
internal_count=2282075 1345646 936429 369372 976274 630485 417629 558645 305944 351075 18297 403926 239315 224577 339058 208150 319330 13703 291427 165729 317526 199947 126498 96231 222711 234396 199219 181215 71670 97794 21532 155537 199333 9712 185397 92094 199126 145070 162726 54056 7197 12260 53918 23001 165324 93763 169452 105523 16660 37896 69040 187497 139019 14731 7283 21160 51348 91720 63761 60827 132558 6365
is_linear=0
shrinkage=0.035


Tree=11
num_leaves=63
num_cat=0
split_feature=16 16 17 12 23 16 17 17 16 17 23 3 2 35 35 27 25 46 47 10 25 16 14 56 35 25 12 21 3 45 35 56 35 25 3 35 14 20 11 16 12 45 46 35 42 17 25 51 35 47 11 21 35 47 15 47 15 12 47 15 15 35
split_gain=116186 23993.4 17480.3 11293.5 5369.11 4668.34 3944.45 3503.97 3231.7 2456.93 1912.25 1625.45 1566.28 1435.21 1394.17 1289.83 1271.15 1139.82 1120.74 1073.03 1030.27 1015.53 965.928 886.443 1083.18 884.83 900.935 865.301 847.054 801.448 728.322 807.993 773.573 713.892 705.05 704.849 702.612 671.009 657.154 643.45 638.41 763.54 613.227 597.396 573.473 566.272 548.329 520.086 492.274 500.411 478.935 475.72 471.124 461.114 707.615 490.821 542.619 460.513 444.665 697.661 520.187 604.049
threshold=0.031130075454711918 0.049152052029967315 0.023294878192245964 -0.28782382607460016 -0.087608635425567613 0.025442504324018959 0.032083868980407722 0.057645618915557868 0.074368145316839232 0.017759775742888454 -0.095823645591735826 0.029714643955230716 -0.065912127494811998 0.020272800698876384 0.018956528976559642 1.4300740361213686 0.23543549329042437 0.81477007269859325 0.61089500784873974 -0.12764286994934079 0.17073354125022891 0.075506914407014861 0.03553497605025769 0.57949703931808483 0.033918479457497604 0.073570393025875105 -0.22925421595573423 -0.018650679849088189 0.049838244915008552 0.079583048820495619 0.071698911488056197 0.58992677927017223 0.027013525366783146 0.024668708443641666 0.031465113162994392 0.015980277210474018 0.045246545225381858 -0.10785459727048873 -0.30979740619659418 0.019227099604904655 -0.14639848470687863 0.24144972115755084 0.94874966144561779 0.076005134731531157 0.92105683684349071 0.039478627964854247 0.24906849861145022 0.37174789607524877 0.010327703319489958 0.48919454216957098 -0.19286671280860898 0.11902378872036935 0.081660896539688124 0.26139642298221594 0.018176154233515266 0.50796675682067882 0.021864273585379127 -0.23991462588310239 0.27527408301830297 0.014711952302604915 0.017853847704827789 0.026028023101389412
decision_type=2 2 2 2 2 2 2 2 2 2 2 2 2 2 2 2 2 2 2 2 2 2 2 2 2 2 2 2 2 2 2 2 2 2 2 2 2 2 2 2 2 2 2 2 2 2 2 2 2 2 2 2 2 2 2 2 2 2 2 2 2 2
left_child=2 4 9 8 12 14 34 10 29 33 17 35 47 40 39 19 28 22 27 -11 52 46 -5 53 -25 26 -13 -14 45 -3 31 58 -33 -1 -6 -8 -19 -23 -10 -4 -7 -42 -38 -26 -21 -12 -9 -2 49 -27 -30 -50 -20 -15 -55 -56 -57 -41 59 -16 61 -60
right_child=1 3 5 7 6 13 11 21 38 15 16 25 18 23 30 -17 -18 36 20 44 -22 37 -24 24 43 48 -28 -29 50 -31 -32 32 -34 -35 -36 -37 42 -39 -40 57 41 -43 -44 -45 -46 -47 -48 -49 51 -51 -52 -53 -54 54 55 56 -58 -59 60 -61 -62 -63
leaf_value=-0.0017840476758539494 0.00049749036382659153 0.001746817100606263 -0.001403032565570809 0.00085723140815124725 -0.00064980788905421249 -0.00022616183990196488 -0.00034937840393633568 0.0010571506297830829 0.0059013031156766246 0.0024811980077313624 -0.00026050218843372725 0.00067149037537543002 0.00056848065132674873 -0.00041732024707374427 8.4980167245327345e-05 -0.00075863961885324488 0.0011741756113440229 -0.00022264392349877825 0.00024148090032463537 -0.001254090658465216 0.0011965195862945327 0.0025275057678337469 0.0027447572489003231 -0.00073617388225702277 -0.00017494655844775686 -0.00028740583125506388 -1.2094368434765137e-05 0.001946427259111165 0.0015568859567223637 0.0029165340732732505 0.0011756259800735538 -0.0013537841766961393 -0.00077321338834723992 -0.0014457868688743257 -0.00024411744717215943 7.9425620383715502e-05 0.0021870780438376569 0.001907242219327014 0.0034430237892202802 -0.00017991312835313495 -0.0010379552150750595 -0.00059895537092170261 0.00076304616126987709 0.0014221792723623542 -0.0016864107897782727 0.00035735681240400374 0.0015901425776912433 0.005290711054649567 0.00049591744593045512 0.00033326776207129739 0.00063348398427797684 0.0013177289692706258 0.0020053940096083963 0.0023861455767235245 -0.00034908506584970162 0.003832752322232031 0.00029401425792070394 -0.0010503655898661346 -2.5697862879115793e-06 -0.0010171645230977258 -0.00045226490608460483 0.0046798181905889176
leaf_weight=76128.509791374207 1290.182865023613 39499.062292456627 50972.148824095726 13637.719532728195 131973.39274466038 70126.548387646675 174418.12148809433 247518.49435734749 16386.883888721466 1472.957336306572 50163.351953983307 54665.096402287483 24374.481185913086 19407.333792924881 11282.275318026543 46144.119264006615 157289.70859658718 13388.230905771255 107626.40469062328 283875.82900738716 48549.007721662521 15909.72750890255 29796.033421635628 84032.267592191696 118600.22450554371 36321.018362998962 336103.72807490826 32205.884286761284 11503.46860897541 14955.950982809067 6095.6239188909531 32937.844620704651 128718.03136265278 81279.86309838295 181306.03157758713 195754.74263191223 17797.96385204792 225416.6220382452 21916.598660349846 9827.3999432325363 47331.889833331108 255224.43050920963 23573.351781010628 8470.8089556694031 34419.767246246338 181514.34867155552 122649.32256007195 5261.6082211732864 328344.54375207424 147339.80222976208 268495.89283013344 30124.932451248169 5724.4521820545197 11447.61074090004 20650.593278050423 6259.5222481489182 24954.697637557983 234948.65414810181 10393.250811100006 21604.947236776352 41620.485989809036 3708.4730273485184
leaf_count=49133 501 13416 29736 5143 65613 33097 81991 95714 3180 464 22945 22319 9010 8940 5222 23777 60536 5860 45686 161911 17449 4535 8613 42282 54091 16627 150220 10086 3933 4014 2425 18784 65470 48428 84366 86240 5731 80909 5424 4708 25364 127481 9267 3173 21334 76008 43804 1125 137154 63611 109112 11538 2002 4311 9501 2204 10923 127182 4914 11354 20299 1251
internal_value=-0.000256331 0.00359148 -0.00757407 0.00692361 0.000928835 -0.00527642 0.000223638 0.00612821 0.0187449 -0.0129244 0.0045528 0.00107141 0.00599397 -0.00330472 -0.0076566 -0.0113512 0.00388326 0.00911389 0.00548807 -0.0121406 0.00400588 0.00810462 0.0133483 -0.00147546 -0.00267888 0.00185009 0.000580416 0.00972863 0.00303728 0.0132644 -0.00576726 -0.00605845 -0.00753091 -0.0165811 -0.00330257 -0.000890945 0.00575462 0.00987135 0.0265349 -0.00929421 -0.00474685 -0.00544428 0.0080099 -0.000639922 -0.0122786 0.00147161 0.00695272 0.0228543 0.00276524 0.00129161 0.00433266 0.00352019 0.00217835 0.00159547 0.00304239 0.00130345 0.00407297 -0.00854886 -0.00337185 -0.00659922 -0.00146657 0.00434213
internal_weight=5.05473e+06 3.3128e+06 1.74194e+06 1.47141e+06 1.84138e+06 1.21862e+06 1.61635e+06 1.37865e+06 92758.5 523321 767160 1.30307e+06 225032 666506 552109 365913 668967 98193.3 218480 319769 161900 611494 43433.8 293823 211103 932899 390769 56580.4 511677 54455 256361 250265 161656 157408 313279 370173 54759.5 241326 38303.5 295748 372683 302556 41371.3 127071 318296 231678 370168 6551.79 542130 183661 279999 358469 113351 82719.8 63312.4 51864.8 31214.2 244776 88609.4 32887.2 55722.2 14101.7
internal_count=2281441 1363682 917759 558144 805538 612712 719679 532110 26034 305047 307148 569700 85859 321367 291345 207486 272534 34614 84233 183709 65137 224962 13756 135425 99546 401469 172539 19096 211998 17430 129719 127294 84254 97561 149979 168231 20858 85444 8604 161626 185942 152845 14998 57264 183245 98953 139518 1626 228930 80238 113045 148692 47688 35879 26939 22628 13127 131890 43040 16576 26464 6165
is_linear=0
shrinkage=0.035


Tree=12
num_leaves=63
num_cat=0
split_feature=16 16 17 12 23 16 17 23 19 16 45 25 35 35 47 35 18 43 9 11 17 33 11 35 16 56 44 19 3 18 31 14 16 47 56 35 53 56 35 3 46 16 35 12 45 37 12 52 10 56 17 44 14 46 11 35 44 12 19 23 47 56
split_gain=107489 22151.7 16407.4 10874.4 5132.66 4284.18 3647.03 3393.24 3138.71 2391.73 2298.19 1389.9 1363.65 1323.6 1221.9 1204.64 1115.97 1086.74 2424.37 1015.33 954.935 942.524 903.782 968.557 894.997 878.513 860.575 831.171 794.017 763.445 754.628 744.872 740.17 701.274 743.208 1694.64 670.558 653.373 825.31 651.867 605.65 605.328 537.851 532.462 941.361 520.06 515.302 514.68 465.448 461.396 456.303 455.854 454.587 635.377 452.269 440.333 435.307 429.663 426.078 409.163 408.644 534.214
threshold=0.031130075454711918 0.049152052029967315 0.023484041914343837 -0.28782382607460016 -0.094434738159179674 0.025442504324018959 0.033066892996430404 -0.087608635425567613 -0.17051953077316281 0.018152940087020401 0.83001965284347545 0.14454025030136111 0.026507378555834297 0.026028023101389412 0.023023531772196296 0.017587526701390747 -0.092812020331621156 0.098312187939882292 -0.11923566460609435 0.2995478510856629 0.036483807489275939 1.4381904602050783 0.095320940017700209 0.081660896539688124 0.067169461399316802 0.4885364323854447 0.75516074895858776 -0.093465927988290773 0.030061900615692142 -0.069127861410379396 0.74929854273796093 0.04391045309603215 0.020551097579300407 0.29765145480632788 0.4620195478200913 0.015980277210474018 0.7515087127685548 0.65404388308525097 0.044711822643876083 1.0000000180025095e-35 0.84913179278373729 0.073321580886840834 0.026263790205121044 -0.19978669285774228 0.26278300583362585 6261144.5000000009 -0.23430392146110532 0.74407997727394115 -0.011849492788314818 0.62911367416381847 0.01900929864495993 0.42895317077636724 0.057289985939860351 0.94196102023124706 0.013817071914672853 0.042162751778960235 0.33688095211982733 0.06083649396896363 -0.086688134819269166 -0.038257509469985955 0.23773442953825 0.59319961071014415
decision_type=2 2 2 2 2 2 2 2 2 2 2 2 2 2 2 2 2 2 2 2 2 2 2 2 2 2 2 2 2 2 2 2 2 2 2 2 2 2 2 2 2 2 2 2 2 2 2 2 2 2 2 2 2 2 2 2 2 2 2 2 2 2
left_child=2 4 9 8 16 13 30 17 41 14 20 15 33 32 -1 28 -2 -5 -19 -12 -9 27 23 -18 -10 -17 -24 -11 -8 -14 -6 -20 -4 -7 35 -35 -32 -31 54 -15 57 -3 -27 44 -22 -44 -30 -23 58 -41 -29 -48 -42 -54 -39 -51 -45 -33 -16 -37 -34 -62
right_child=1 3 5 7 6 12 11 10 24 21 19 -13 29 39 48 25 22 18 31 -21 43 47 26 -25 -26 42 -28 50 46 37 36 40 60 34 -36 59 -38 38 -40 49 52 -43 45 56 -46 -47 51 -49 -50 55 -52 -53 53 -55 -56 -57 -58 -59 -60 -61 61 -63
leaf_value=-0.0017493863625980162 0.0038783253146851011 0.0031716354379079542 -0.0012203468135895867 0.0009890961670691303 -0.00049277321227984199 -0.00073911827865574451 -0.00039712217568687241 -0.00019696205875440717 0.0015163348099731236 0.0015174134875415093 0.0010099423730611568 0.00047075822781625793 0.004382646219551329 0.0034716980488586281 0.0023806125836288643 0.00083106194707490279 0.00053814340557820767 0.0037521911492393078 0.0010301624461575079 0.0020217992575191643 0.00066131247086611026 0.00080258419453407522 0.0023150336577590163 0.001877934509431678 0.0026831523880660141 -0.00016779558457723871 0.00087685212114824206 -0.0013743414791462529 0.00067405806291479789 0.00028389775051817487 0.00069341564450159452 0.0014300481825285608 -0.0010278648197140294 -0.00048375111338698566 -0.00083398139582487843 0.00027051156321207287 -0.00023342445839565838 -0.00083624825656461379 0.00012866430850922117 -0.00027893836276317763 0.001338752496733331 0.005465449131434391 0.00011011496958751916 0.00014523413887306799 0.0020223378996844297 0.00064415805480519568 -0.00020396456618952403 -0.00086142978170283 -0.001330970067020243 -0.00090736094807158246 -0.0011274558484904479 0.00016310436153486928 0.0031345863891100263 0.0019922247144129818 -0.0001993941778967848 -0.00041387627475991803 0.0006013152952289068 0.0034189426739743927 -0.0016357494080159506 0.0018771767207155419 -0.00079627549630942611 -0.0014545597505478821
leaf_weight=47352.684835195541 6550.7726833820343 10426.771712899208 104092.34728109837 108042.43184518814 239248.61076128483 114582.61964416504 148514.81512987614 51113.796709418297 35677.538677692413 2002.9486780166626 336492.04894077778 330109.15651535988 1427.8636943101883 2071.1328278779984 515.10129725933075 71358.051438570023 132916.01490962505 15980.725376367569 93834.274683594704 98171.295156955719 34510.585076570511 4683.6467686891556 16638.447193741798 16334.34478199482 25720.339967608452 91835.902616858482 15305.061019539833 48488.484589457512 31582.289533138275 67585.385509371758 20313.924036622047 25683.353091835976 65751.363292336464 219227.84812366962 80511.852331280708 23119.244806647301 119769.15326857567 48767.599841237068 57207.826867461205 44799.897963762283 72523.184563875198 20959.566025495529 185325.9254360199 80172.305077075958 11127.768013119698 100101.79906284809 158568.59750974178 48344.548202633858 114539.81476402283 80422.370279312134 197930.28722810745 158719.33406472206 11809.834476113319 71043.659915328026 36892.003219246864 42223.662957906723 348723.54739665985 17795.94917178154 76267.105321407318 13885.760766863823 185111.09871339798 15637.316980361938
leaf_count=31006 1707 2728 59292 41552 115852 58327 70342 23316 12274 711 132050 137027 362 698 184 28637 52900 3993 35036 34954 13720 1964 4928 5351 6892 41891 5913 28748 12963 29005 8264 7882 35573 108132 41450 9985 55959 24768 24952 20907 26665 4159 80977 34208 3390 41200 72668 25508 67343 42213 110776 69792 3249 24972 17192 20313 141899 4994 47506 5301 96636 9057
internal_value=-0.000264914 0.00343694 -0.00729942 0.00664185 0.000881248 -0.00502459 0.000259249 0.00586035 0.0182396 -0.0123673 0.00471579 0.00115492 -0.0031399 -0.00733879 -0.014985 0.000472563 0.0063656 0.0084979 0.00955545 0.00659872 0.00315872 -0.0102946 0.00585224 0.00470835 0.0136357 0.00178766 0.0111957 -0.0111989 -0.00071357 -0.000823483 -0.00275384 0.00883044 -0.00851069 -0.00422732 -0.00342239 -0.00250056 -0.000713551 -0.000996726 -0.00233809 -0.00477665 0.0100435 0.0272438 0.00111399 0.00364833 0.00724271 0.00186362 0.000198796 -0.00605758 -0.0137385 -0.00501817 -0.0113815 -0.00022555 0.00902114 0.0107929 -0.00451203 -0.00612863 0.00326578 0.013696 -0.0158483 0.00442705 -0.00753279 -0.006748
internal_weight=5.05644e+06 3.313e+06 1.74344e+06 1.46981e+06 1.84319e+06 1.20332e+06 1.65545e+06 1.37702e+06 92784.2 540125 960311 1.27612e+06 663208 540109 238675 946007 187745 416713 308671 434663 525648 301450 181194 149250 61397.9 448622 31943.5 248422 497385 211881 379332 292690 370592 451327 336745 256233 140083 210453 142867 169517 198856 31386.3 377264 474534 45638.4 285428 348870 53028.2 191322 167446 246419 317288 155377 82853.5 85659.6 122646 428896 43479.3 76782.2 37005 266500 200748
internal_count=2282213 1364304 917909 557933 806371 604163 735572 531880 26053 313746 383537 555497 319474 284689 146039 418470 70799 148343 106791 167004 216533 167707 69092 58251 19166 192705 10841 140235 225765 96279 180075 102798 200558 223195 164868 123418 64223 95917 66912 84131 67762 6887 164068 193217 17110 122177 155423 27472 115033 83433 139524 142460 54886 28221 41960 62526 176107 12876 47690 15286 141266 105693
is_linear=0
shrinkage=0.035


Tree=13
num_leaves=63
num_cat=0
split_feature=16 16 17 19 23 23 17 17 16 17 21 12 2 25 16 33 25 25 29 19 3 3 47 43 53 33 2 15 25 20 47 12 33 43 9 16 12 15 17 21 47 21 27 17 23 45 19 11 44 19 19 15 51 26 15 23 20 44 47 10 12 27
split_gain=102054 24548.8 12576.4 10512.1 4686.73 4539.66 3577.15 2722.75 2687.12 2155.43 1941.05 1909.59 1501.04 1211.42 1195.7 1148.64 1117.49 1087.84 985.102 924.559 922.875 898.438 762.291 753.255 742.758 783.368 735.45 722.66 709.045 689.781 662.452 652.188 647.666 628.456 716.77 628.029 621.462 614.129 599.172 598.355 760.91 597.096 595.647 565.086 559.801 510.93 493.013 512.966 775.476 490.652 481.052 478.429 476.647 466.904 463.588 657.817 457.975 447.765 440.811 426.225 415.013 413.25
threshold=0.029360949993133548 0.046628952026367194 0.023294878192245964 -0.17051953077316281 -0.087608635425567613 -0.087608635425567613 0.03404644504189492 0.049113878980278976 0.024268555454909805 0.017028070054948333 -0.14236134290695188 -0.28782382607460016 -0.065912127494811998 0.081792291253805174 0.03658867999911309 0.90396165847778331 0.078452050685882582 0.41320095956325537 1.1399014592170718 -0.093465927988290773 0.0075858831405639657 0.04721504449844361 0.29302723705768591 0.19484359025955203 0.66204282641410839 1.3495665788650515 -0.015287697315216063 0.014711952302604915 0.014226912520825865 -0.025942877866327759 0.29302723705768591 -0.34049212932586664 0.65892449021339428 0.12381436303257944 -0.11923566460609435 0.071341358125209822 -0.25093391537666315 0.015084038488566877 0.028193670324981216 0.0062640756368637094 0.87531003355979931 -0.15053437650203702 0.63850563764572155 0.033339312300086028 -0.065584868192672716 0.84774526953697216 -0.098793078213930116 0.14688640832901004 0.793443262577057 -0.028727754950523373 -0.063943915069103227 0.014587494079023601 0.37174789607524877 0.69057336449623119 0.015084038488566877 -0.06945356726646422 0.15408398956060412 0.5401747226715089 0.15998574346303943 0.078727066516876235 -0.21134376525878903 1.5372422933578493
decision_type=2 2 2 2 2 2 2 2 2 2 2 2 2 2 2 2 2 2 2 2 2 2 2 2 2 2 2 2 2 2 2 2 2 2 2 2 2 2 2 2 2 2 2 2 2 2 2 2 2 2 2 2 2 2 2 2 2 2 2 2 2 2
left_child=2 4 9 11 12 10 18 21 26 28 31 35 52 33 49 19 -14 36 38 -11 -10 43 54 -13 25 -20 -4 -24 -1 -16 37 -5 -32 -12 -35 -3 -9 58 -6 41 -41 -18 -29 -7 -39 -38 -15 -48 -49 60 -43 -34 -2 -31 -22 -56 -23 -30 -28 -26 -8 -17
